tree
version=v4
num_class=1
num_tree_per_iteration=1
label_index=0
max_feature_idx=40
objective=binary sigmoid:1
feature_names=account_amount_added_12_24m account_days_in_dc_12_24m account_days_in_rem_12_24m account_days_in_term_12_24m account_incoming_debt_vs_paid_0_24m account_status account_worst_status_0_3m account_worst_status_12_24m account_worst_status_3_6m account_worst_status_6_12m age avg_payment_span_0_12m avg_payment_span_0_3m merchant_category merchant_group has_paid max_paid_inv_0_12m max_paid_inv_0_24m name_in_email num_active_div_by_paid_inv_0_12m num_active_inv num_arch_dc_0_12m num_arch_dc_12_24m num_arch_ok_0_12m num_arch_ok_12_24m num_arch_rem_0_12m num_arch_written_off_0_12m num_arch_written_off_12_24m num_unpaid_bills status_last_archived_0_24m status_2nd_last_archived_0_24m status_3rd_last_archived_0_24m status_max_archived_0_6_months status_max_archived_0_12_months status_max_archived_0_24_months recovery_debt sum_capital_paid_account_0_12m sum_capital_paid_account_12_24m sum_paid_inv_0_12m time_hours worst_status_active_inv
feature_infos=[0:1128775] [0:362] [0:365] [0:97] [0:3914] [1:4] [1:4] [1:4] [1:4] [1:4] [18:100] [0:224] [0:86] -1:15:20:7:9:0:26:3:23:21:12:6:2:4:18:1:24:16:17:19:14:5:22:8:10:13:11 -1:10:4:5:6:7:9:0:2:3:1:8 [0:1] [0:264300] [0:264300] -1:3:0:6:1:4:2:5 [0:9] [0:38] [0:16] [0:13] [0:261] [0:313] [0:42] none none [0:182] [0:5] [0:5] [0:5] [0:3] [0:5] [0:5] [0:36479] [0:571475] [0:341859] [0:2962870] [0.00027777777777769999:23.9997222222222] [1:3]
tree_sizes=3353 3401 3424 3410 3405 3422 3405 3395 3428 3427 3434 3426 3404 3399 3434 3473 3456 3453 3429 3427 3442 3440 3436 3438 3436 3447 3418 3422 3448 3431 3420 3441 3446 3425 3431 3452 3448 3430 3415 3437 3463 3430 3416 3429 3421 3430 3425 3424 3455 3435 3465 3429 3415 3429 3416 3433 3444 3434 3412 3409 3390 3404 3435 3393 3407 3451 3431 3466 3441 3431 3424 3447 3464 3435 3429 3414 3439 3433 3443 3434 3438 3444 3480 3418 3433 3458 3433 3427 3457 3417 3447 3448 3412 3476 3444 3486 3460 3432 3444 3448 3445 3450 3438 3424 3449 3437 3421 3455 3455 3450 3438 3443 3426 3459 3464 3447 3435 3460 3475 3448 3412 3451 3448 3453 3430 3465 3467 3440 3435 3434 3427 3479 3424 3461 3479 3443 3446 3416 3431 3236 3480 3437 3431 3460 3458 3407 3475 3435 3461 3402 3472 3439 3457 3103 3463 3448 2892 3426 3471 3423 3452 3469 3454 3495 3449 3481 3428 3463 3437

Tree=0
num_leaves=31
num_cat=0
split_feature=24 6 6 34 17 10 11 24 11 28 12 38 11 38 19 2 16 30 10 19 32 12 12 12 16 24 17 16 32 10
split_gain=362573 132037 123343 102256 139429 42825.5 36197.7 22672.4 17528.9 13518.6 11816.7 11321.2 10500.1 12639.4 5514.07 4827.86 4140.1 3776.72 3383.92 2418.71 2268.67 2145.89 1831.73 1747.13 1585.42 2531.51 1575.16 1527.34 1269.34 1235.76
threshold=2.5000000000000004 1.5000000000000002 1.5000000000000002 2.5000000000000004 5085.5000000000009 27.500000000000004 42.066666666666656 1.0000000180025095e-35 40.040000000000006 1.5000000000000002 36.068181818181806 6171.5000000000009 34.027777777777807 33282.500000000007 0.16843971631205704 14.500000000000002 8791.5000000000018 1.5000000000000002 21.500000000000004 0.065681622088006916 1.0000000180025095e-35 14.436507936507903 11.20714285714285 36.619047619047656 13578.500000000002 1.5000000000000002 7467.5000000000009 3990.5000000000005 1.5000000000000002 18.500000000000004
decision_type=2 2 2 2 2 2 2 2 2 2 2 2 2 2 2 2 2 2 2 2 2 2 2 2 2 2 2 2 2 2
left_child=1 3 6 4 5 11 10 -7 9 -6 17 -1 13 16 23 -15 28 20 -19 -17 -2 -8 -5 -12 -3 -26 -10 -14 -4 -23
right_child=2 24 12 22 8 7 21 -9 26 -11 14 -13 27 15 -16 19 -18 18 -20 -21 -22 29 -24 -25 25 -27 -28 -29 -30 -31
leaf_value=-2.9347575066176974 -4.0420914855105003 -2.695592885275218 -2.9417173443174831 -3.4538088599676806 -4.0175502919044099 -3.3141640764586167 -2.9595850744039796 -3.9565742264946855 -3.8488150132995766 -3.6173583501211128 -3.4090205847392152 -3.6618949656496085 -4.2372362755017861 -4.2544425880952526 -3.0510548410202132 -4.2471742799190704 -4.2465746756039371 -3.3639967705274318 -4.0497373498345723 -3.2465668648681225 -4.2257079506842095 -3.3972168766135633 -2.716841555884927 -4.2527303940354626 -3.0823286788341062 -4.2444615175311773 -3.0816701739626433 -2.7471810433358481 -3.7794088547445872 -4.2479921678305326
leaf_weight=281.40446658991277 47.181178534403443 299.85302949696779 27.798012932762507 5.4559286311268798 200.43235955759883 354.9177224189043 16.258606905117635 39.187762912362814 3.2728040646761682 71.678151262924075 1.0562671087682227 16.389668338000774 0.4235420934855928 10.772087244316937 7.5799927935004234 1.8918213509023178 1.7224045135080803 4.8064974211156395 24.035308465361595 5.8345283903181553 331.63204851932824 1.0280309692025178 168.82578942552209 5.8307628203183413 12.202955307438966 1.2565082106739289 18.051601767539978 37.7625488396734 2.6516089942306271 2.1600646767765284
leaf_count=5216 2935 2725 477 183 12298 11915 270 2301 164 3246 7 754 30 763 130 134 122 137 1499 142 23083 5 1650 413 254 89 397 369 120 153
internal_value=-3.37185 -3.1701 -3.93303 -3.29476 -3.39513 -3.20153 -4.10515 -3.37718 -3.85356 -3.91026 -4.15511 -2.97273 -3.08863 -3.35738 -3.47671 -3.9027 -3.06326 -4.18097 -3.91014 -3.46558 -4.20239 -3.07771 -2.73533 -4.03578 -2.71318 -3.18439 -3.17688 -2.7635 -2.99789 -3.84056
internal_weight=2003.35 1472.93 530.425 1159.62 985.335 691.9 441.569 394.105 293.435 272.111 422.122 297.794 88.8566 50.6705 14.467 18.4984 32.172 407.655 28.8418 7.72635 378.813 19.4467 174.282 6.88703 313.312 13.4595 21.3244 38.1861 30.4496 3.1881
internal_count=71981 41192 30789 38124 36291 20186 28632 14216 16105 15544 28204 5970 2157 1758 550 1039 719 27654 1636 276 26018 428 1833 420 3068 343 561 399 597 158
is_linear=0
shrinkage=1


Tree=1
num_leaves=31
num_cat=3
split_feature=23 28 13 32 20 11 24 13 13 37 12 16 28 30 17 17 39 11 4 16 34 29 17 9 4 16 8 17 39 12
split_gain=40618.6 17260.7 7039.17 9858.82 6905.43 8951.13 6362.43 3570.26 3559.91 3380.73 2846.92 2748.89 2643.17 2447.88 2145.4 2038.66 2020.65 1976.31 1966.17 1964.68 1939.13 1761.59 1735.65 1634.16 1594.28 1442.34 1375.87 1510.24 1364.75 1280.39
threshold=2.5000000000000004 2.5000000000000004 0 1.0000000180025095e-35 1.0000000180025095e-35 13.993006993007002 16.500000000000004 1 2 5385.5000000000009 10.912878787878801 3785.5000000000005 12.500000000000002 1.0000000180025095e-35 5497.0000000000009 2592.5000000000005 1.0851388888888902 13.011904761904752 0.089914700382032309 4991.0000000000009 2.5000000000000004 1.5000000000000002 4685.5000000000009 1.5000000000000002 0.12359889816081701 7991.0000000000009 1.5000000000000002 1463.5000000000002 20.502083333333307 23.709005376344056
decision_type=2 2 9 2 2 2 2 9 9 2 2 2 2 2 2 2 2 2 2 2 2 2 2 2 2 2 2 2 2 2
left_child=4 2 3 18 5 8 9 20 13 10 -3 -9 -11 14 -1 -6 22 -12 -2 -5 24 -13 -4 -15 -7 -14 27 -10 -20 -21
right_child=1 6 16 19 15 7 -8 11 26 12 17 21 25 23 -16 -17 -18 -19 28 29 -22 -23 -24 -25 -26 -27 -28 -29 -30 -31
leaf_value=0.28144758032593858 -0.015910088575277519 0.064834920750421771 0.70873029429722445 0.34701926648463183 0.45128988281955484 0.12527929665690826 0.0097912948049258333 0.40373405275160856 0.28537237289048645 0.12718249233720705 0.55041521241073232 0.23780787084525057 0.13805092942765856 0.031819294654413278 0.62688324968218812 0.37968473852257867 -0.0010003389886980548 0.35492950653727023 0.94663230269049148 0.04247271234406147 0.35187051456531548 0.35694255389458901 -0.01929216848469795 0.32888135344208846 0.28296074160412277 0.39400224192299577 0.32294165615385295 -0.025399736583763308 0.315161178354469 0.28571530346978857
leaf_weight=38.195218201726675 1.8868558313697601 18.215146978385746 3.7165024410933247 22.124364832416177 388.09430800564587 44.655100599862635 48.441861734725535 1019.3552554016933 10.126032179221509 88.970711100846529 43.809179365634918 116.37742622196674 20.09171091299504 29.28002632688731 17.494760651141405 998.72168557532132 350.41493210475892 193.06723973527551 13.180996475741269 75.15572470985353 294.50267574843019 308.59589724428952 3.5130115477368236 18.430266238749027 789.43124565668404 56.351279879920185 8.9221075875684601 79.450793729163706 4.1092332601547232 15.644514771178363
leaf_count=318 92 686 25 437 1382 1263 3048 7115 147 2739 345 2391 487 1234 471 5252 19962 1770 156 3975 758 1224 216 97 11830 485 87 3475 39 475
internal_value=0.320114 0.173133 0.0691037 0.216704 0.353923 0.33074 0.281393 0.343346 0.169173 0.312578 0.370159 0.378182 0.222073 0.262121 0.399153 0.400036 0.00786429 0.393256 0.742847 0.140617 0.29253 0.324959 0.395304 0.15102 0.274682 0.329413 0.0395976 0.012466 0.822129 0.0870655
internal_weight=5120.33 958.693 489.746 132.102 4161.63 2774.82 468.947 2572.92 201.899 420.505 255.092 1444.33 165.414 103.4 55.69 1386.82 357.644 236.876 19.1771 112.925 1128.59 424.973 7.22951 47.7103 834.086 76.443 98.4989 89.5768 17.2902 90.8002
internal_count=71981 34937 25377 5174 37044 30410 9560 24581 5829 6512 2801 10730 3711 2120 789 6634 20203 2115 287 4887 13851 3615 241 1331 13093 972 3709 3622 195 4450
cat_boundaries=0 1 2 3
cat_threshold=70258993 7062693 76548681
is_linear=0
shrinkage=0.025


Tree=2
num_leaves=31
num_cat=1
split_feature=23 11 13 23 28 2 28 11 17 11 4 9 38 1 37 4 38 29 20 23 28 36 17 39 37 29 38 0 38 38
split_gain=18553.2 10912.7 5125.8 5357.43 6378.53 3633.41 2496.64 2590.12 1574.27 2030.22 1350.62 1200.41 1312.76 1183.66 1160.28 1046.62 1023.82 922.692 793.034 1903.79 1188.18 843.029 657.831 625.82 607.725 574.904 548.616 548.082 487.043 741.173
threshold=6.5000000000000009 23.256901840490801 0 1.5000000000000002 3.5000000000000004 43.500000000000007 1.0000000180025095e-35 13.993006993007002 23787.000000000004 39.041666666666657 0.19629623223511203 1.5000000000000002 98754.000000000015 128.50000000000003 5187.0000000000009 0.44569171003233105 22884.000000000004 1.5000000000000002 1.0000000180025095e-35 1.0000000180025095e-35 1.5000000000000002 4993.5000000000009 17952.000000000004 21.060555555555553 34401.500000000007 1.0000000180025095e-35 198345.00000000003 19143.500000000004 119699.50000000001 85070.000000000015
decision_type=2 2 9 2 2 2 2 2 2 2 2 2 2 2 2 2 2 2 2 2 2 2 2 2 2 2 2 2 2 2
left_child=2 11 3 6 5 10 7 13 18 25 -5 -2 -13 -1 22 -14 -16 -9 19 -4 -21 -20 -6 26 -8 -10 28 -26 29 -3
right_child=1 23 8 4 14 -7 24 17 9 -11 -12 12 15 -15 16 -17 -18 -19 21 20 -22 -23 -24 -25 27 -27 -28 -29 -30 -31
leaf_value=-0.025212385149056112 -0.025383288780373131 0.24103900715138993 0.27294329080231344 0.013434311324685911 0.27029224156276521 0.29197912412909427 0.26129196032136243 0.19622906194700346 0.2266902820136546 0.26570698772395235 0.12918576630058684 -0.024288945769742901 -0.020498430069993301 0.43779374943955657 0.22143587045130989 0.42161144065231881 0.038932513114009547 0.26147341487788645 0.30407532633686851 0.18154444834885688 0.25568290293576457 0.26144839686815885 0.46926275825375763 -0.021165576419258637 0.2456026027543847 -0.024903910991421453 -0.020099846958936837 0.08960226559617418 0.31746771785229977 -0.022488047706975926
leaf_weight=41.105209369212389 271.68899265863001 69.684579918161035 1680.3074369225651 218.72145978175104 126.34148964937776 42.23943689186126 1096.7866892367601 694.46183940581977 5.8668825663626185 46.072801138274372 87.686488809064031 15.706607871688904 4.5660314606502643 2.759565830230712 82.199333189986646 10.580963947810231 25.657996697351336 183.92956426739693 747.47880974505097 288.9232958778739 285.08416996523738 606.99210046138614 12.934843390248714 5.0208855569362631 30.617384420707822 31.879263166338205 4.1530777728185049 28.716922407969832 68.993671847507358 7.1669842721894375
leaf_count=1599 16684 639 7879 9795 426 189 4428 8712 6 100 2266 655 270 1 617 104 625 925 2695 6660 1594 2131 76 226 81 1418 247 369 253 311
internal_value=0.233093 0.0791057 0.244145 0.212338 0.146567 0.0773318 0.232132 0.200823 0.26582 0.156161 0.0468802 -0.00843854 0.136807 0.0129688 0.243527 0.295168 0.1788 0.210175 0.269059 0.259249 0.218751 0.285181 0.292002 0.248936 0.25691 0.0189782 0.258074 0.172879 0.266095 0.216458
internal_weight=6824.32 457.562 6366.76 2674.16 595.781 348.647 2078.38 922.256 3692.6 83.8189 306.408 302.543 30.8536 43.8648 247.134 15.147 107.857 878.391 3608.79 2254.31 574.007 1354.47 139.276 155.019 1156.12 37.7461 149.998 59.3343 145.845 76.8516
internal_count=71981 19389 52592 30109 13994 12250 16115 11237 22483 1524 12061 17713 1029 1600 1744 374 1242 9637 20959 16133 8254 4826 502 1676 4878 1424 1450 450 1203 950
cat_boundaries=0 1
cat_threshold=7063204
is_linear=0
shrinkage=0.025


Tree=3
num_leaves=31
num_cat=3
split_feature=23 11 24 28 13 30 10 28 40 16 10 18 28 11 17 10 36 24 39 11 10 16 22 13 10 37 28 6 23 4
split_gain=10908.2 7878.36 3573.51 4193.16 3101.55 3208.13 2792.65 2864.83 1521.22 1291.09 1211.38 980.447 1478.17 2090.55 1064.25 818.796 804.835 779.677 683.645 682.709 785.132 681.248 614.951 564.605 524.638 405.872 507.928 303.495 293.876 280.535
threshold=6.5000000000000009 23.256901840490801 1.0000000180025095e-35 2.5000000000000004 0 2.5000000000000004 60.500000000000007 1.0000000180025095e-35 1.5000000000000002 18869.000000000004 24.500000000000004 1 1.0000000180025095e-35 13.288690476190501 20725.500000000004 49.500000000000007 5491.0000000000009 18.500000000000004 23.780833333333302 45.045454545454554 46.500000000000007 1001.5000000000001 1.5000000000000002 2 43.500000000000007 159.00000000000003 4.5000000000000009 1.5000000000000002 4.5000000000000009 0.24635947000805328
decision_type=2 2 2 2 9 2 2 2 2 2 2 9 2 2 2 2 2 2 2 2 2 2 2 9 2 2 2 2 2 2
left_child=2 18 6 4 9 8 11 23 -6 15 25 12 13 -1 16 -4 -13 24 22 20 -12 -9 -2 29 -3 27 -27 -5 -14 -8
right_child=1 17 3 10 5 -7 7 21 -10 -11 19 14 28 -15 -16 -17 -18 -19 -20 -21 -22 -23 -24 -25 -26 26 -28 -29 -30 -31
leaf_value=0.043001033132417682 -0.019480899574638361 0.21576125510808175 0.1902046862312827 0.27973211647613039 0.041437184697784582 0.20995685519968471 0.07358230246231548 -0.022806473746776062 0.23911327686827738 -0.024518980412424198 0.16602332752660984 0.23723756140962809 0.20921606794373948 0.18027661164642395 -0.023868105210153947 0.040975256063277239 0.20176687577186364 -0.022955886424820864 0.24839921185747837 0.21111542360712421 0.030681661328782195 0.24506804389438411 0.21366162366768249 -0.022507115822800593 -0.022159801019235242 0.11318161815045565 0.22079753694143972 0.21146359142799459 0.086920134895893231 0.25681621675340072
leaf_weight=74.05604031868279 288.81721356324852 175.80985662247986 505.58966250251979 150.35662494879216 406.29088683053851 100.38123313430697 50.77042013220489 6.2432037740945807 24.967205125838518 19.10775088891387 381.50298076495528 1683.2847249023616 1733.9880773518234 1301.4977353364229 10.331725332885979 24.775224342010915 598.29872319847345 9.3905224753543717 5.3473515417426816 243.73720628768206 29.403352846391499 74.78746447339654 6.2501326790079466 61.829625843092799 5.7859116531908503 35.816371853463352 199.83196556475013 85.339867664501071 14.383706938475369 5.1521429754793635
leaf_count=2110 17591 972 5366 313 13866 185 731 100 245 800 3202 6182 4412 9409 319 574 1284 514 76 283 621 149 46 1207 190 317 514 112 274 17
internal_value=0.186012 0.0715619 0.193192 0.165992 0.130576 0.0817795 0.203852 0.110911 0.0534139 0.172923 0.199849 0.207242 0.192148 0.172924 0.225898 0.183329 0.22803 0.196654 -0.00834448 0.177093 0.156443 0.224372 -0.013829 0.0315798 0.208087 0.231006 0.204999 0.256022 0.208262 0.0805686
internal_weight=8313.12 491.401 7821.72 2207.1 1081.11 531.639 5614.62 198.783 431.258 549.473 1125.99 5415.84 3123.93 1375.55 2291.92 530.365 2281.58 190.986 300.415 654.644 410.906 81.0307 295.067 117.752 181.596 471.345 235.648 235.696 1748.37 55.9226
internal_count=71981 19389 52592 26398 21036 14296 26194 2204 14111 6740 5362 23990 16205 11519 7785 5940 7466 1676 17713 4106 3823 249 17637 1955 1162 1256 831 425 4686 748
cat_boundaries=0 1 2 3
cat_threshold=70545937 76 81
is_linear=0
shrinkage=0.025


Tree=4
num_leaves=31
num_cat=4
split_feature=23 11 24 28 23 13 10 28 8 9 39 20 11 13 4 10 23 28 13 9 24 4 13 10 0 10 11 36 33 10
split_gain=7120.19 6047.94 2118.45 2743.88 1783.39 1904.06 1722.9 2022.79 1344.34 977.838 940.012 874.456 1355.06 1776.82 878.545 791.228 980.294 1454.46 689.994 691.033 548.14 508.839 501.148 424.059 400.415 364.734 330.837 269.309 261.128 246.511
threshold=6.5000000000000009 23.256901840490801 1.0000000180025095e-35 1.5000000000000002 1.0000000180025095e-35 0 60.500000000000007 1.0000000180025095e-35 1.5000000000000002 1.5000000000000002 13.128750000000002 1.5000000000000002 13.288690476190501 1 0.0033798092911800004 24.500000000000004 3.5000000000000004 12.500000000000002 2 2.5000000000000004 18.500000000000004 0.44569171003233105 3 49.500000000000007 47044.000000000007 43.500000000000007 54.516666666666659 6351.0000000000009 1.0000000180025095e-35 74.500000000000014
decision_type=2 2 2 2 2 9 2 2 2 2 2 2 2 9 2 2 2 2 9 2 2 2 9 2 2 2 2 2 2 2
left_child=2 9 6 4 18 10 11 22 -7 -2 -6 12 13 -1 -14 -5 26 -18 19 -4 25 -11 29 -20 -23 -3 -17 -13 -9 -8
right_child=1 20 3 15 5 8 7 28 -10 21 -12 27 14 -15 -16 16 17 -19 23 -21 -22 24 -24 -25 -26 -27 -28 -29 -30 -31
leaf_value=0.15973593299853284 -0.02536034394533514 0.17708801818499417 -0.025919107837633688 0.18192480627346913 0.21193624423141461 0.015980069703209577 0.10785381747950543 0.080065645219619841 0.16245750566661737 -0.023484438885818304 0.09097627170699607 0.20903343963178567 0.19596576569936394 0.035152832984003193 0.1661443808631225 0.1432402321014104 0.000404956248685942 0.21521295993768763 0.16765676461809387 0.16318676523883385 -0.022888786952051491 0.22094669782756446 -0.022409195430519807 0.050235151179113563 -0.021382993083215045 -0.022061969917498449 0.17941826371314246 0.174373140204091 0.20092330236080996 -0.024067749957327134
leaf_weight=229.39149992726743 260.74081349745393 208.57833272218704 35.773543694987893 670.31725988164544 78.276710475794971 286.77692872192711 50.293235599994659 15.144228808581827 44.420966508798301 11.809154239483176 87.051218666136265 477.60535289533436 759.40709907561541 132.62802997231483 4526.4108978193253 612.09684950206429 63.940256028436124 27.491347522474825 333.48586115799844 17.055544285103679 9.1880781436339003 19.921357994899157 60.610716883093119 21.57549113035202 5.1198643101379266 5.6721462784335008 247.10908308811486 270.20513424649835 81.658528396859765 10.272009702399371
leaf_count=1831 16684 972 827 1924 951 11780 566 110 352 633 1905 564 1901 2750 16643 3923 1799 253 2099 15 514 210 1207 386 186 190 184 301 139 182
internal_value=0.155729 0.0656599 0.160856 0.141168 0.106038 0.0739607 0.16835 0.0984423 0.0350095 -0.00820355 0.14073 0.170717 0.167233 0.119692 0.170466 0.16069 0.14554 0.0666493 0.144803 0.0311894 0.163646 0.110589 0.0298843 0.1563 0.172386 0.171726 0.153844 0.196763 0.183053 0.0734767
internal_weight=9660.03 521.03 9139 2525.37 904.416 496.526 6613.63 217.979 331.198 297.591 165.328 6395.65 5647.84 362.02 5285.82 1620.95 950.638 91.4316 407.89 52.8291 223.439 36.8504 121.176 355.061 25.0412 214.25 859.206 747.81 96.8028 60.5652
internal_count=71981 19389 52592 26398 18315 14988 26194 2204 12132 17713 2856 23990 23125 4581 18544 8083 6159 2052 3327 842 1676 1029 1955 2485 396 1162 4107 865 249 748
cat_boundaries=0 1 2 3 4
cat_threshold=70258688 68164429 21042382 81
is_linear=0
shrinkage=0.025


Tree=5
num_leaves=31
num_cat=1
split_feature=23 11 13 23 6 39 28 11 10 10 22 3 10 28 16 2 22 37 24 8 24 12 30 39 39 39 20 24 38 38
split_gain=4996.91 4864.97 1748.68 2225.4 2111.58 1375.29 1255.09 1972.83 1115.06 1094.23 693.098 671.383 636.687 601 573.763 655.888 511.847 483.386 451.601 710.776 443.164 369.06 448.147 413.521 341.773 506.224 292.91 830.443 281.668 277.583
threshold=6.5000000000000009 19.988281250000004 0 2.5000000000000004 1.5000000000000002 1.0851388888888902 1.0000000180025095e-35 13.993006993007002 61.500000000000007 46.500000000000007 1.5000000000000002 33.500000000000007 43.500000000000007 1.0000000180025095e-35 23368.000000000004 9.5000000000000018 1.5000000000000002 26271.000000000004 1.0000000180025095e-35 1.5000000000000002 18.500000000000004 14.026315789473701 1.0000000180025095e-35 7.687083333333331 10.560138888888902 9.479027777777782 2.5000000000000004 17.500000000000004 18510.500000000004 3097.5000000000005
decision_type=2 2 9 2 2 2 2 2 2 2 2 2 2 2 2 2 2 2 2 2 2 2 2 2 2 2 2 2 2 2
left_child=2 16 3 6 5 -5 7 11 14 -9 -7 -1 20 24 21 -16 -2 28 -8 -20 26 22 -4 -23 25 -10 27 -3 -6 -15
right_child=1 12 8 4 17 10 18 9 13 -11 -12 -13 -14 29 15 -17 -18 -19 19 -21 -22 23 -24 -25 -26 -27 -28 -29 -30 -31
leaf_value=-0.025596331755962577 -0.025353608568999 0.08978069028378409 0.1638102117951051 0.30846696604595814 0.053775279495762267 0.0029442509037724829 0.15003274712200598 0.12872556403398436 -0.024017064464688265 0.069084041212030586 0.16347788240311956 0.23684717492321261 -0.024138841594335523 -0.021763585671620272 -0.025043962783313497 0.14751169399414618 0.16743477159810677 -0.024807062756350546 0.096516910947923307 0.14643843198030176 -0.02301156236757812 0.1730983932464876 0.14351120821285535 0.13965173130277422 0.001993965894398111 0.20392525375203352 0.16427113839592922 0.49555720730864428 0.15667821969093998 0.18098138782312129
leaf_weight=77.667829583398998 248.20688736159354 87.011935499496758 2119.6209944207221 9.3449134957045299 20.184513273648918 237.91220936365426 1574.9156851992011 1272.9751119613647 9.8927925489842909 231.26477550156415 17.093509715981781 5.6036944389343253 15.473695280030368 4.5849446877837172 25.382071387954056 28.399674485437572 7.9224631898105136 10.776401576586066 317.04227522201836 440.31687653623521 9.8765418063849193 280.20727595966309 1138.6488887351006 2255.9252120964229 59.728965199552476 14.011726239696143 177.12555095460266 2.3451516320928922 156.7548988526687 31.958430904895067
leaf_count=2890 16162 1409 5366 102 135 9377 2894 8017 178 2805 73 1 783 71 919 85 23 184 3174 809 596 503 5690 7794 981 84 389 27 369 91
internal_value=0.13448 0.0607475 0.138381 0.124071 0.071565 0.0258427 0.130423 0.113057 0.148384 0.11961 0.0143114 -0.00530478 0.130356 0.0723246 0.150188 0.0670585 -0.0187527 0.135462 0.142189 0.125699 0.139071 0.150947 0.156763 0.143415 0.0345106 0.112315 0.145151 0.105824 0.145322 0.155575
internal_weight=10888.2 547.962 10340.2 4371.85 452.066 264.351 3919.79 1587.51 5968.36 1504.24 255.006 83.2715 291.833 120.177 5848.18 53.7817 256.129 187.716 2332.27 757.359 276.359 5794.4 3258.27 2536.13 83.6335 23.9045 266.483 89.3571 176.939 36.5434
internal_count=71981 19389 52592 30830 10240 9552 20590 13713 21762 10822 9450 2891 3204 1405 20357 1004 16185 688 6877 3983 2421 19353 11056 8297 1243 262 1825 1436 504 162
cat_boundaries=0 1
cat_threshold=14927492
is_linear=0
shrinkage=0.025


Tree=6
num_leaves=31
num_cat=2
split_feature=23 11 28 23 13 11 14 17 17 36 2 24 22 30 17 11 17 28 16 7 8 23 39 6 12 17 12 15 12 16
split_gain=3670.32 4066.72 1423.21 3559.36 982.989 950.014 875.395 870.195 2095.06 650.029 595.077 485.957 450.504 315.024 313.78 366.253 308.309 535.7 301.176 291.103 274.122 625.155 410.732 262.096 339.386 245.471 205.492 145.363 140.266 291.034
threshold=6.5000000000000009 19.988281250000004 1.5000000000000002 1.5000000000000002 0 4.9309523809523812 1 16291.000000000002 15844.000000000002 4993.5000000000009 46.500000000000007 18.500000000000004 1.5000000000000002 2.5000000000000004 8960.5000000000018 32.023809523809554 9086.0000000000018 1.5000000000000002 18869.000000000004 2.5000000000000004 1.5000000000000002 5.5000000000000009 0.63527777777777761 1.5000000000000002 5.2583333333333355 1996.5000000000002 14.261363636363653 1.0000000180025095e-35 15.341666666666653 5384.5000000000009
decision_type=2 2 2 2 9 2 9 2 2 2 2 2 2 2 2 2 2 2 2 2 2 2 2 2 2 2 2 2 2 2
left_child=2 12 3 5 -5 26 25 8 -6 18 -8 14 -2 -9 15 -3 -16 -18 23 -20 21 22 -11 24 -4 -7 -1 -28 -22 -30
right_child=1 11 9 4 7 6 10 13 -10 20 -12 -13 -14 -15 16 -17 17 -19 19 -21 28 -23 -24 -25 -26 -27 27 -29 29 -31
leaf_value=-0.026074043716814412 -0.025339405683876437 -0.025101383123088402 0.21030660024973347 -0.023112572756948002 0.074780200051774923 0.17193253694469568 0.11403411869990632 -0.025468579638057067 0.41249591453709711 0.26811961149197899 0.14564210861423985 -0.023731720156813498 0.14607301958448768 0.11132391115606222 0.26124691672131228 0.12296395288936667 -0.024042116617564585 0.1342206522380594 -0.024792761588622512 0.15414844234235198 0.13310924781565656 -0.025187359910412245 0.1154156414959947 0.13158529247226197 0.1483774722170412 0.13286707996033761 0.1370221891578223 -0.02225508261164269 0.032372884549234621 0.12063565271075949
leaf_weight=32.95645107422024 242.21317618433386 18.749828445725143 64.080180778168142 81.422374220564961 489.07523714099079 385.43368108384311 4618.0334784761071 69.904119228944182 10.823124913498757 10.733762273564933 420.77556075900793 14.611841257661579 8.985230961814521 11.355630984529851 10.983594320714472 21.719577109441161 13.825246602296827 240.96727633103728 13.448849723674357 8.5356889385730028 1740.2298111403361 19.284886875189841 1200.5573699735105 721.43100945465267 1122.3972996156663 168.58851178828627 9.4766776338219625 5.0260347407311192 27.240494184195995 216.38751019909978
leaf_count=721 16162 566 139 2627 10288 659 22769 2914 144 42 301 935 23 23 11 49 584 1059 314 5 2075 520 5166 392 2332 461 3 95 176 426
internal_value=0.118614 0.0566645 0.121705 0.113662 0.0587095 0.120105 0.121051 0.0694022 0.0829059 0.131534 0.116471 0.115505 -0.0186433 -0.00520121 0.122212 0.0553526 0.132138 0.125563 0.143225 0.0482579 0.124473 0.114742 0.116991 0.144292 0.151899 0.157473 0.00848231 0.0837871 0.130446 0.11095
internal_weight=12019.3 572.056 11447.2 6302.87 662.58 5640.29 5592.83 581.158 499.898 5144.33 5038.81 320.857 251.198 81.2598 306.246 40.4694 265.776 254.793 1929.89 21.9845 3214.43 1230.58 1211.29 1907.91 1186.48 554.022 47.4592 14.5027 1983.86 243.628
internal_count=71981 19389 52592 41005 15996 25009 24190 13369 10432 11587 23070 3204 16185 2937 2269 615 1654 1643 3182 319 8405 5728 5208 2863 2471 1120 819 98 2677 602
cat_boundaries=0 1 2
cat_threshold=5204840 262
is_linear=0
shrinkage=0.025


Tree=7
num_leaves=31
num_cat=4
split_feature=24 11 36 28 11 14 12 12 4 38 14 18 29 39 39 16 7 39 38 14 39 24 19 32 4 20 8 29 37 4
split_gain=2670.44 3104.25 1595.48 972.162 1231.31 1102.47 909.861 1177.58 762.104 919.703 572.267 620.154 725.415 563.874 526.431 477.136 471.458 495.358 469.311 467.705 820.577 455.323 389.078 607.77 543.394 377.31 755.398 818.6 341.728 456.721
threshold=3.5000000000000004 24.504901960784306 13104.000000000002 1.0000000180025095e-35 13.288690476190501 0 13.461904761904776 8.9838709677419377 0.79565643432385513 23996.000000000004 1 2 1.5000000000000002 0.28236111111111156 22.512361111111101 14996.500000000002 3.5000000000000004 1.0851388888888902 10070.500000000002 3 10.409027777777801 1.0000000180025095e-35 0.18770973154362403 1.0000000180025095e-35 0.89039246523629512 2.5000000000000004 1.5000000000000002 1.5000000000000002 5959.0000000000009 0.47292217925700908
decision_type=2 2 2 2 2 9 2 2 2 2 9 9 2 2 2 2 2 2 2 9 2 2 2 2 2 2 2 2 2 2
left_child=3 2 19 4 5 6 7 -1 9 13 -6 12 -12 -4 -8 -13 17 -7 -3 20 -2 -5 23 -10 -24 26 27 -23 -20 -30
right_child=1 18 8 21 10 16 14 -9 22 -11 11 15 -14 -15 -16 -17 -18 -19 28 -21 -22 25 24 -25 -26 -27 -28 -29 29 -31
leaf_value=0.027444431542977911 0.15444891689317736 -0.025681771554988027 0.38094195793984897 0.11948776714606038 0.14021300348914961 0.16581393972480021 -0.026009526100833548 0.22090990578712769 0.18091253998653256 -0.025168172380027005 0.082372645144773882 0.11642334631480276 0.11796863882871503 0.082147133611799025 0.20130277054740753 -0.024845263315149666 0.17959568980014817 -0.025781264236734266 0.12887935452775887 -0.024528607527331811 -0.025302240112877614 0.060505052114938819 0.36572180573840729 -0.024502948926399194 0.13913033688612306 0.12651331583130029 0.1151694376864012 0.11073285563670901 0.028511036619486382 0.11356682717660981
leaf_weight=30.933474289253354 27.363695194013417 14.970145702362059 3.2829492762684813 5155.3247040109709 376.46805438306183 8.0238587642088515 37.229480144567788 54.687831840477884 15.630238271318374 68.24473615642637 1848.0040346626192 1536.4195420509204 452.96920278575271 77.382606792263687 6.6424850746989241 14.736372442916034 7.3928298950195304 128.72672025859356 357.98582382500172 255.11625051125884 35.464388608932495 466.49986383132637 7.8347736038267604 19.135920680128038 40.07795369438827 459.1917087957263 1015.333518604748 366.22416051756591 60.138885621912777 119.12554730568081
leaf_count=587 260 259 3 8153 605 51 834 566 79 3979 13162 5819 1175 1047 41 421 1 4659 1671 15145 1430 6301 30 906 161 552 1613 1130 906 435
internal_value=0.106256 0.0688898 0.0267419 0.10969 0.100413 0.0487429 0.0976916 0.152167 0.0765048 0.0422099 0.103744 0.0995215 0.0890425 0.0988539 0.0120704 0.114328 -0.00216523 -0.0133991 0.110704 -0.00962347 0.0468062 0.115273 0.137 0.0702544 0.182954 0.105807 0.100595 0.0827041 0.114549 0.085363
internal_weight=13066.6 1101.75 549.534 11964.8 4502.23 273.637 129.493 85.6213 231.589 148.91 4228.6 3852.13 2300.97 80.6656 43.872 1551.16 144.143 136.751 552.22 317.944 62.8281 7462.57 82.6789 34.7662 47.9127 2307.25 1848.06 832.724 537.25 179.264
internal_count=71981 26311 23040 45670 27921 6739 2028 1153 6205 5029 21182 20577 14337 1050 875 6240 4711 4710 3271 16835 1690 17749 1176 985 191 9596 9044 7431 3012 1341
cat_boundaries=0 1 2 3 4
cat_threshold=305 260 108 16
is_linear=0
shrinkage=0.025


Tree=8
num_leaves=31
num_cat=4
split_feature=23 25 9 10 23 28 24 13 28 13 12 10 24 17 24 40 17 32 37 13 8 4 24 9 13 39 39 6 16 19
split_gain=2307.3 2088.5 1257.67 1041.2 823.213 2168.35 819.708 1574.48 740.393 1647.6 608.376 565.237 560.416 424.596 403.321 535.964 450.968 380.744 375.411 640.387 374.185 339.667 300.4 259.986 327.69 533.295 298.933 184.304 166.513 140.411
threshold=6.5000000000000009 2.5000000000000004 1.5000000000000002 46.500000000000007 1.0000000180025095e-35 2.5000000000000004 1.0000000180025095e-35 0 1.0000000180025095e-35 1 22.775000000000002 61.500000000000007 2.5000000000000004 12503.000000000002 1.0000000180025095e-35 1.5000000000000002 9170.5000000000018 2.5000000000000004 5959.0000000000009 2 2.5000000000000004 0.44569171003233105 18.500000000000004 2.5000000000000004 3 18.999305555555555 21.547083333333301 1.5000000000000002 11001.500000000002 0.36602870813397154
decision_type=2 2 2 2 2 2 2 9 2 9 2 2 2 2 2 2 2 2 2 9 2 2 2 2 9 2 2 2 2 2
left_child=3 2 20 4 23 6 10 -8 9 17 -6 13 -13 -11 -10 16 -16 -5 27 -20 -2 -4 -3 24 25 -1 -26 -7 29 -23
right_child=1 22 21 8 5 18 7 -9 14 11 -12 12 -14 -15 15 -17 -18 -19 19 -21 -22 28 -24 -25 26 -27 -28 -29 -30 -31
leaf_value=0.095829217045932238 -0.025426921320566776 0.10584415350895711 -0.023916300864135074 -0.027047711622170303 0.077406336608130025 0.12646751589712027 0.081622389609402768 0.0066232708431352557 0.10517672036432138 0.092980509582935897 0.12724489493465968 0.017376812477800218 0.26601762480361518 -0.02495196183250506 -0.026985059445327364 0.11293041611256856 0.071150457576606332 0.12351467368468519 0.014571483832741717 0.10121427021950824 0.1195295614937846 -0.023743913606629904 -0.023329230622303285 0.12032320415016112 0.10625253317770651 0.051903572122430852 0.12461399544181417 0.10772598577478415 0.1366908271237682 0.10226743658895038
leaf_weight=1077.5641919225454 250.22125005442649 263.80272226408124 13.171585445292292 133.41640289034694 951.46129781752825 669.99210420995951 429.90008131694049 306.77000170666724 732.77709604240954 607.44046624656767 185.8476519305259 115.26997699681669 4.9741882756352416 19.274905606172979 49.811555200256407 82.910886151716113 68.451207329519093 10.394835654646156 75.46886995062232 789.07621745020151 10.659756850451229 8.9910395164042711 11.377090590074657 804.19391159713268 4591.3596970271319 210.82200873084366 676.99296422861516 814.26059064269066 50.809485032223165 12.059154173359275
leaf_count=2931 16411 1193 628 2385 7053 1484 5255 8818 1283 3701 584 1475 105 617 989 135 826 9 754 2366 13 275 711 250 8866 1177 952 577 150 8
internal_value=0.0963961 0.0491627 0.00819992 0.0985799 0.101359 0.0924609 0.0723216 0.0516416 0.0808879 0.0644236 0.0856573 0.0787369 0.0297923 0.0893155 0.0965026 0.0645308 0.0299157 -0.014377 0.10849 0.0950171 -0.0190606 0.0911151 0.100429 0.106451 0.104731 0.0880068 0.10843 0.116267 0.112273 0.0496957
internal_weight=14029.5 621.092 345.912 13408.4 11583.7 4222.78 1873.98 736.67 1824.72 890.771 1137.31 746.96 120.244 626.715 933.951 201.174 118.263 143.811 2348.8 864.545 260.881 85.0313 275.18 7360.93 6556.74 1288.39 5268.35 1484.25 71.8597 21.0502
internal_count=71981 19389 17485 52592 41067 26891 21710 14073 11525 8292 7637 5898 1580 4318 3233 1950 1815 2394 5181 3120 16424 1061 1904 14176 13926 4108 9818 2061 433 283
cat_boundaries=0 1 2 3 4
cat_threshold=70267520 31548324 83903105 7030440
is_linear=0
shrinkage=0.025


Tree=9
num_leaves=31
num_cat=3
split_feature=23 4 19 11 10 18 11 23 39 17 9 18 39 39 34 12 8 39 4 39 11 17 4 11 4 19 17 19 18 10
split_gain=1911.99 1885.81 1137.74 1006.21 867.65 844.51 842.432 753.636 571.15 550.088 517.345 706.896 514.747 493.27 565.26 478.443 392.452 351.369 347.204 369.797 332.612 540.261 509.985 289.465 267.961 342.249 262.65 258.463 604.829 532.788
threshold=2.5000000000000004 0.24181994954351052 0.64583333333333359 23.015306122449001 46.500000000000007 0 14.830459770114951 6.5000000000000009 0.28236111111111156 8960.5000000000018 2.5000000000000004 1 11.732083333333302 7.8127777777777814 2.5000000000000004 9.9893617021276615 1.5000000000000002 1.0851388888888902 0.24635947000805328 19.501250000000002 37.58571428571431 10395.500000000002 0.080316509987658422 14.904586834733902 0.0033754994815575505 0.64583333333333359 13866.000000000002 0.18770973154362403 2 44.500000000000007
decision_type=2 2 2 2 2 9 2 2 2 2 2 9 2 2 2 2 2 2 2 2 2 2 2 2 2 2 2 2 9 2
left_child=4 2 3 5 10 7 12 -2 -5 -10 11 24 -6 23 -15 16 -3 -7 19 -14 21 22 -8 -13 25 -1 -18 28 29 -17
right_child=1 15 -4 8 6 17 20 -9 9 -11 -12 13 18 14 -16 27 26 -19 -20 -21 -22 -23 -24 -25 -26 -27 -28 -29 -30 -31
leaf_value=0.063127107247473765 0.068295297094199764 -0.025623222534189985 0.12229248547076066 0.34708502022598919 -0.027085430052085732 0.10816430585150796 0.11243495677121672 -0.025038567463341516 -0.026542692295281702 0.081397256908548571 0.11048307019602926 0.069305946542843985 0.053134904765702574 0.077695468136962292 0.096927905542178852 0.092351931255710853 -0.024662415225214871 -0.025753623036930691 0.093374308988823027 -0.026825220328576108 0.10146739172589446 -0.026290150518766243 0.067931078787111951 0.11720020942147927 0.10331939503039536 0.11077043314178721 0.14297863780034553 0.10500351764190692 -0.020973467975350768 -0.025641727122525267
leaf_weight=254.43011807277799 195.64944754727185 41.507863374426961 89.574920523911715 3.6692282408475867 57.048960260115564 11.825972176156936 216.26841120421886 73.926920836791396 34.012592145241797 201.43689424078912 1157.5796118453145 103.05199692863971 167.61133715230972 3621.0518085677177 1332.7791707143188 518.40172895882279 7.8255421407520798 277.7186980061233 96.655714139342308 45.297109458595514 476.39424490369856 31.126462863758206 672.40422790311277 440.48579681478441 4073.4588836869225 156.25774856284261 19.127602319233119 479.95161867886782 37.652416236698627 24.634132412262261
leaf_count=1136 3633 1647 185 7 886 161 491 5329 772 1987 411 547 1555 16048 1234 3710 148 13987 348 739 435 599 3859 621 8004 131 64 1323 1131 853
internal_value=0.088312 0.0655983 0.0382664 0.028693 0.0918572 0.0102852 0.0754249 0.0411712 0.0715025 0.0657476 0.0944504 0.0925799 0.0415137 0.0852627 0.0828888 0.0870344 0.0225446 -0.019259 0.0542102 0.0360655 0.0842915 0.0752922 0.0788786 0.108268 0.101113 0.0814855 0.0950755 0.0911695 0.0795702 0.0853879
internal_weight=14918.8 2016.92 887.815 798.24 12901.9 559.121 1762.81 269.576 239.119 235.449 11139.1 9981.52 366.613 5497.37 4953.83 1129.1 68.461 289.545 309.564 212.908 1396.19 919.799 888.673 543.538 4484.15 410.688 26.9531 1060.64 580.688 543.036
internal_count=71981 34937 26061 25876 37044 23110 8912 8962 2766 2759 28132 27721 3528 18450 17282 8876 1859 14148 2642 2294 5384 4949 4350 1168 9271 1267 212 7017 5694 4563
cat_boundaries=0 1 2 3
cat_threshold=69 51 89
is_linear=0
shrinkage=0.025


Tree=10
num_leaves=31
num_cat=4
split_feature=24 11 13 6 28 10 14 11 38 17 10 4 24 10 38 10 13 38 17 4 39 24 13 10 2 33 16 6 4 36
split_gain=1569.74 1935.71 1319.84 929.752 751.814 940.153 837.467 1264.68 714.151 579.19 540.528 499.188 485.671 484.47 433.986 380.099 358.832 339.942 333.222 314.12 305.487 289.908 494.306 390.028 667.913 271.114 602.441 251.256 242.648 196.478
threshold=3.5000000000000004 24.504901960784306 0 2.5000000000000004 1.0000000180025095e-35 60.500000000000007 1 13.993006993007002 20493.500000000004 13741.500000000002 46.500000000000007 0.79565643432385513 2.5000000000000004 58.500000000000007 22884.000000000004 77.500000000000014 2 10070.500000000002 5085.5000000000009 0.11214241496737952 19.360138888888901 1.0000000180025095e-35 3 24.500000000000004 2.5000000000000004 2.5000000000000004 10556.000000000002 1.5000000000000002 0.00026001537412905006 11037.500000000002
decision_type=2 2 9 2 2 2 9 2 2 2 2 2 2 2 2 2 9 2 2 2 2 2 9 2 2 2 2 2 2 2
left_child=4 2 9 11 5 6 7 19 13 27 -9 -4 16 -8 -13 -14 -7 -3 -19 -1 28 29 -23 -24 -25 26 -20 -2 -11 -6
right_child=1 17 3 -5 21 12 8 10 -10 20 -12 14 15 -15 -16 -17 -18 18 25 -21 -22 22 23 24 -26 -27 -28 -29 -30 -31
leaf_value=0.047484260865185417 -0.02533500535880602 -0.026245104503488693 -0.025661307361562843 0.12417398277355157 0.094582720372117249 0.0440999720920041 0.09773159785632532 0.077897362941253767 -0.025829568239829532 -0.021654371631270222 0.045546353399844468 0.10158270583583413 -0.017653142953439189 -0.027425652393898922 -0.02499938474878213 0.36223969428917613 -0.023891719550856696 0.13839414088501759 0.078502031738639289 -0.012836551375461717 -0.023086352974560357 -0.021546356501971325 0.094182315798242697 0.05606653466392103 0.08869322575914676 0.092509663668936357 -0.026638960978871969 0.072088616673615075 0.14247137438610533 0.084826564898869944
leaf_weight=91.491802403703332 31.951871185563505 16.656843701377511 328.8205534350127 32.530217891559005 4180.139795800671 88.882632151246071 1716.4616911252961 2925.2397209694609 30.014357383362949 5.7144404696300617 368.93736613634974 39.095923826098442 2.4396997317671767 19.12461780756712 28.686327019706368 3.4881312847137451 85.501171998679638 70.535466180182993 157.87186220660806 128.64634046703577 8.2702567512169463 30.989264849573374 1117.4726456133649 696.88263126742095 923.82433214504272 386.52890338562429 42.773620350286365 32.421768283471465 89.417508767917752 2064.7532755807042
leaf_count=1624 1045 259 18721 46 5460 771 4224 11836 820 272 2892 408 89 175 1413 1 1445 109 1068 4044 354 395 2251 5388 1562 866 969 122 659 2693
internal_value=0.0815225 0.0547978 0.0219479 -0.00219623 0.0838656 0.0764819 0.0783994 0.0702138 0.0937139 0.0788249 0.0742898 -0.0129091 0.0201962 0.096336 0.0483906 0.225548 0.0119552 0.0837953 0.0866215 0.0123235 0.119897 0.088329 0.0814361 0.0823878 0.0747089 0.0801732 0.0560547 0.0240463 0.132464 0.0913715
internal_weight=15745.6 1271.28 596.909 429.133 14474.3 5460.23 5279.92 3514.32 1765.6 167.776 3294.18 396.603 180.312 1735.59 67.7823 5.92783 174.384 674.367 657.71 220.138 103.402 9014.06 2769.17 2738.18 1620.71 587.174 200.645 64.3736 95.1319 6244.89
internal_count=71981 26311 23040 20588 45670 27921 25615 20396 5219 2452 14728 20542 2306 4399 1821 90 2216 3271 3012 5668 1285 17749 9596 9201 6950 2903 2037 1167 931 8153
cat_boundaries=0 1 2 3 4
cat_threshold=3145730 1752 81 66626
is_linear=0
shrinkage=0.025


Tree=11
num_leaves=31
num_cat=6
split_feature=23 28 13 32 28 10 23 11 13 13 11 13 38 14 11 17 10 38 38 5 17 24 17 17 24 19 10 11 37 13
split_gain=1393.24 1541.9 1455.59 874.038 726.843 782.578 744.989 1220.66 748.379 732.374 667.702 520.646 516.856 569.015 479.355 451.67 424.511 423.438 448.464 372.059 371.666 359.906 346.108 316.136 303.184 397.803 274.61 259.571 245.647 226.338
threshold=2.5000000000000004 2.5000000000000004 0 1.0000000180025095e-35 1.0000000180025095e-35 61.500000000000007 1.0000000180025095e-35 20.989583333333353 1 2 22.673875968992252 3 14124.500000000002 4 23.015306122449001 25772.500000000004 26.500000000000004 44080.500000000007 24902.500000000004 1.5000000000000002 3389.0000000000005 2.5000000000000004 7567.0000000000009 3082.0000000000005 16.500000000000004 0.95454545454545459 77.500000000000014 4.0079365079365106 67268.000000000015 5
decision_type=2 2 9 2 2 2 2 2 9 9 2 9 2 9 2 2 2 2 2 2 2 2 2 2 2 2 2 2 2 9
left_child=4 2 3 22 5 6 8 9 16 -8 20 19 27 -14 -9 24 -1 18 -12 -3 23 29 -2 -4 28 -26 -23 -5 -13 -7
right_child=1 11 10 12 -6 21 7 14 -10 -11 17 15 13 -15 -16 -17 -18 -19 -20 -21 -22 26 -24 -25 25 -27 -28 -29 -30 -31
leaf_value=0.075670340894768984 -0.025743944195532366 -0.027420758994050803 -0.024852783511285892 0.26920523592101903 0.083153526057655247 0.034305240444612882 0.057586333517557348 0.15090306758155081 0.081796514188015035 -0.0062874622863898222 -0.025071928988404765 0.083177996118252745 0.087746195725595097 -0.0031441310215948553 0.071760959752296155 -0.025211588163165821 0.037861862366548288 -0.02571899546476843 0.12021471028642497 0.079719386646565027 -0.025637415521795562 -0.018757867646657739 0.14774775490992753 0.1099654514029747 -0.024876358991309133 0.15909178740984065 0.2709036082063685 0.088889716618704567 -0.025356401837553989 -0.023390385084911661
leaf_weight=305.24694241210818 7.5053552705794564 58.515288826078176 18.547559905797243 4.8943975418806067 8704.3819101098925 77.048217546194792 193.87412278912961 56.933064185082912 3847.2576135154814 249.75681572686881 16.799461175687611 1208.8947938652709 50.86515050008893 146.90296010952443 317.92320886440575 25.690962919965386 484.02140252105892 28.194285170175135 56.887838498689234 29.718182081356645 316.40652310568839 2.9315191665664306 86.660363444127142 24.171290664002299 34.267095721326768 8.2845344543457013 4.857047650963068 57.333501596003771 12.723198291845618 72.167633794248104
leaf_count=724 89 1231 617 18 13087 705 2034 469 9275 5078 452 4522 561 3968 1499 1086 2909 802 459 49 17550 87 198 323 2351 1 3 340 320 1174
internal_value=0.0757555 0.0571356 0.0298231 0.066927 0.0786037 0.0715328 0.0731169 0.0509947 0.0770097 0.0228413 -0.000203316 0.0732563 0.0448532 0.0248001 0.0841572 0.077034 0.0519077 0.0559561 0.0871661 0.00820671 -0.0162591 0.0163644 0.133768 0.0521437 0.079741 0.0137142 0.171865 0.107145 0.0820257 0.00714101
internal_weight=16509.7 2193.26 815.169 354.162 14316.4 5612.02 5455.01 818.487 4636.53 443.631 461.007 1378.09 259.996 197.768 374.856 1289.86 789.268 101.882 73.6873 88.2335 359.125 157.004 94.1657 42.7189 1264.17 42.5516 7.78857 62.2279 1221.62 149.216
internal_count=71981 34937 25377 5174 37044 23957 21988 9080 12908 7112 20203 9560 4887 4529 1968 8280 3633 1713 911 1280 18490 1969 287 940 7194 2352 90 358 4842 1879
cat_boundaries=0 1 2 3 4 5 6
cat_threshold=70258993 6358696 76548105 2256464 1536 65
is_linear=0
shrinkage=0.025


Tree=12
num_leaves=31
num_cat=9
split_feature=23 28 13 32 28 11 39 13 11 17 38 14 23 13 34 17 13 18 39 14 17 37 17 16 23 9 18 11 13 17
split_gain=1184.82 1345.17 1293.84 691.286 671.77 675.311 625.799 600.226 462.526 461.081 431.68 509.095 410.755 442.948 396.18 712.544 372.863 322.523 282.918 280.647 276.68 264.771 252.639 239.636 233.87 223.848 305.762 348.057 610.74 256.6
threshold=2.5000000000000004 2.5000000000000004 0 1.0000000180025095e-35 1.0000000180025095e-35 5.8054054054054056 1.0851388888888902 1 22.673875968992252 25772.500000000004 14124.500000000002 2 1.5000000000000002 3 1.5000000000000002 1.0000000180025095e-35 4 5 11.607083333333302 6 7567.0000000000009 67268.000000000015 4685.5000000000009 3490.5000000000005 39.500000000000007 2.5000000000000004 7 38.026315789473706 8 4954.0000000000009
decision_type=2 2 9 2 2 2 2 9 2 2 2 9 2 9 2 2 9 9 2 9 2 2 2 2 2 2 9 2 9 2
left_child=4 2 3 20 5 -1 22 14 19 16 23 -12 17 -14 15 -7 -3 -9 -10 -8 -2 24 -4 -5 -18 26 27 28 -6 -28
right_child=1 9 6 10 25 7 8 12 18 -11 11 -13 13 -15 -16 -17 21 -19 -20 -21 -22 -23 -24 -25 -26 -27 29 -29 -30 -31
leaf_value=-0.026188566068428256 -0.025596075081426452 0.01092648042014902 0.17652560486709748 -0.025216220820632098 0.0064467992980460692 0.052593378965666716 0.07404309143062697 0.066067104151979625 0.087457229473663023 -0.025453298035287026 0.081321329411288654 -0.0030789340945499596 0.072185996048593798 -0.0076045633605291959 0.07671254605380913 -0.0052788011812935597 0.076559822675148617 0.083336485846540187 0.0029661464188914044 -0.024910651239649084 0.12990838778648586 -0.025312143950750762 -0.02143662017780654 0.11457595915402599 -0.02353279728077641 0.087943818573492427 0.086149614535186214 0.079609770605837044 0.065255456300978287 0.074422927125291236
leaf_weight=47.98076743632555 7.367509499192237 80.454327679239213 15.892524456605317 8.3889290522783977 132.92095070518553 893.43465209379792 8.8583253733813763 2455.5277677224949 43.479548024013638 31.390869067050517 54.334314065985382 146.50138534139842 76.74574754294008 88.97879262175411 300.13552192226052 155.89557482022792 1292.9430822590366 1845.4720700904727 56.206988964229822 330.02069601789117 96.101052328012884 16.024289848282933 4.999394178390502 58.744797710329294 14.298694709315894 1193.7377370893955 2718.5171384233981 1059.0785276219249 1779.2441616337746 2201.0213966406882
leaf_count=1146 89 1031 25 107 865 3956 46 8898 432 1300 561 3968 562 1804 1009 2630 5498 3952 1263 18221 198 582 216 251 1149 384 2461 866 4413 4098
internal_value=0.0707985 0.0538918 0.0285224 0.0623219 0.0733574 0.0667117 -0.000221225 0.0674829 -0.00672808 0.0685483 0.0425112 0.0239087 0.0721894 0.0334157 0.0509487 0.0439963 0.0706688 0.0738426 0.0403454 -0.0206608 0.118673 0.0736496 0.130224 0.0969573 0.0754459 0.0776392 0.076069 0.0677841 0.0615491 0.0807556
internal_weight=17214.7 2266.01 830.895 371.438 14948.7 5864.17 459.457 5816.19 438.566 1435.11 267.969 200.836 4466.72 165.725 1349.47 1049.33 1403.72 4301 99.6865 338.879 103.469 1323.27 20.8919 67.1337 1307.24 9084.52 7890.78 2971.24 1912.17 4919.54
internal_count=71981 34937 25377 5174 37044 23957 20203 22811 19962 9560 4887 4529 15216 2366 7595 6586 8260 12850 1695 18267 287 7229 241 358 6647 13087 12703 6144 5278 6559
cat_boundaries=0 1 2 3 4 5 6 7 8 9
cat_threshold=70258993 23291553 1536 9437186 2255440 108 4 12 4262081
is_linear=0
shrinkage=0.025


Tree=13
num_leaves=31
num_cat=10
split_feature=24 31 13 29 28 23 10 13 4 18 13 39 13 4 14 24 13 36 13 8 8 13 4 16 3 16 16 33 23 13
split_gain=1068.59 1194.54 1196.62 798.643 657.027 988.399 633.558 580.701 576.462 525.081 594.269 452.556 1035.28 377.294 355.459 324.48 298.257 276.852 234.998 232.213 230.142 477.177 337.747 199.924 184.216 182.391 207.388 329.637 216.274 178.78
threshold=3.5000000000000004 1.5000000000000002 0 2.5000000000000004 1.5000000000000002 1.5000000000000002 61.500000000000007 1 0.79565643432385513 2 3 13.000555555555552 4 0.00023056911629240002 5 2.5000000000000004 6 4993.5000000000009 7 2.5000000000000004 1.5000000000000002 8 1.3283168482157452 18869.000000000004 18.500000000000004 4041.5000000000005 8062.5000000000009 2.5000000000000004 4.5000000000000009 9
decision_type=2 2 9 2 2 2 2 9 2 9 9 2 9 2 9 2 9 2 9 2 2 9 2 2 2 2 2 2 2 9
left_child=4 2 13 8 5 6 9 -7 19 10 -1 14 -13 -2 -9 18 -10 23 -8 -4 21 22 -19 -6 -25 -3 28 -28 -27 -11
right_child=1 25 3 -5 17 7 15 11 16 29 -12 12 -14 -15 -16 -17 -18 20 -20 -21 -22 -23 -24 24 -26 26 27 -29 -30 -31
leaf_value=0.049886922264959513 -0.025733552399827095 -0.025913349107950429 -0.02194558372936433 0.083570827528127528 0.080948086646677603 -0.023820944392420572 0.032864722510821509 0.031595366185389294 0.065813388057811895 0.054406030670144906 0.069510197486419359 -0.0063095956835379774 0.071931710185212008 0.079323052888240209 0.096344075529680329 0.17121031124471611 -0.020438046533105991 0.023359786691570104 -0.023213807436520673 0.074349821873362226 0.074545829211241879 0.070399757163310123 0.074053220992626442 -0.026373771839288265 0.089058286310078227 0.083780436050046231 0.0046577382326191547 0.075167300883050375 0.15094803656259015 0.078480440701229906
leaf_weight=2068.8674681959674 22.742943891324103 10.413463685661553 391.33552670478821 73.071839457377791 2755.5745606990531 85.268560831435025 133.00609678123146 137.60626606736332 82.089925416745245 449.66755639761686 2656.0688992477953 244.39065592642874 176.95823286194354 263.53637458849698 142.26614094339311 7.7799897082149974 32.993012554943562 308.11550414562225 61.340781331993639 15.329605242237447 2748.5595077257603 1297.1102886162698 111.99363050144166 21.036424790509045 13.270136810839174 191.22841652203351 50.533310593105853 234.84413529839367 37.500291699543595 3041.103824746795
leaf_count=8973 713 177 19569 94 2534 2157 1053 2472 1093 1449 5932 5495 1392 1809 953 35 903 1724 874 44 2199 2442 272 386 2 388 934 346 241 5326
internal_value=0.0664854 0.0454925 0.0276552 0.00663852 0.0682751 0.0638094 0.0663164 0.0369238 -0.00414348 0.0673929 0.0610543 0.0440492 0.0281905 0.0685226 0.0692986 0.0224325 0.0450103 0.0739302 0.0156179 -0.018136 0.0699956 0.0626719 0.0361647 0.0802002 0.0194635 0.0753417 0.0774439 0.0627504 0.0954126 0.0755606
internal_weight=17865.6 1405.62 881.099 594.82 16460 9204.32 8417.83 786.49 521.748 8215.71 4724.94 701.221 421.349 286.279 279.872 202.127 115.083 7255.66 194.347 406.665 4465.78 1717.22 420.109 2789.88 34.3066 524.52 514.106 285.377 228.729 3490.77
internal_count=71981 26311 24225 21703 45670 36111 23642 12469 21609 21680 14905 10312 6887 2522 3425 1962 1996 9559 1927 19613 6637 4438 1996 2922 388 2086 1909 1280 629 6775
cat_boundaries=0 1 2 3 4 5 6 7 8 9 10
cat_threshold=17891330 1010536 76 6669980 72385680 1193 32768 36929 7004368 32203936
is_linear=0
shrinkage=0.025


Tree=14
num_leaves=31
num_cat=5
split_feature=24 31 13 29 2 18 13 17 29 36 37 28 13 0 10 12 20 36 13 17 28 19 36 16 16 21 19 10 29 0
split_gain=929.239 1046.84 1063.9 726.594 632.443 624.399 820.227 785.156 742.895 489.187 469.763 582.458 436.222 425.738 355.002 333.681 318.888 357.982 253.861 220.689 239.126 217.384 209.237 162.274 164.327 294.688 151.699 137.948 232.198 136.422
threshold=3.5000000000000004 1.5000000000000002 0 2.5000000000000004 2.5000000000000004 1 2 15144.500000000002 1.5000000000000002 14890.500000000002 2884.0000000000005 2.5000000000000004 3 4984.5000000000009 22.500000000000004 13.881944444444452 2.5000000000000004 37753.500000000007 4 12749.000000000002 2.5000000000000004 0.47338935574229707 13299.500000000002 4041.5000000000005 8062.5000000000009 1.0000000180025095e-35 0.39009661835748805 49.500000000000007 2.5000000000000004 88947.000000000015
decision_type=2 2 9 2 2 9 9 2 2 2 2 2 9 2 2 2 2 2 9 2 2 2 2 2 2 2 2 2 2 2
left_child=4 2 15 9 5 6 8 10 13 -4 18 -12 -11 -1 21 -2 17 -8 -7 20 -17 -9 -6 -3 -25 26 -26 -24 -29 -21
right_child=1 23 3 -5 22 7 16 14 -10 12 11 -13 -14 -15 -16 19 -18 -19 -20 29 -22 -23 27 24 25 -27 -28 28 -30 -31
leaf_value=0.036704882904349569 -0.025154496271490509 -0.025788941521002036 -0.025848762555753677 0.078139902164691799 0.078822258350830676 0.050196762412686162 0.06100890516565978 0.014457413796560768 0.067143456006340613 0.045984444973977107 -0.029577057994149399 0.058124775397425457 -0.023700082769703788 -0.01436341581919473 -0.027655987817452401 -0.026089195567250353 0.083637456627670304 0.014791938413107084 0.073612300195900648 0.083107274267233411 0.064162621007814183 0.11153244086896744 0.068493074690852085 0.087985602652967079 -0.026489297450822652 0.070866265975151652 0.062531501380397869 -0.030069567672360555 0.071621727353464781 0.15860285279357381
leaf_weight=1410.2847485840321 22.571792047470808 10.209498338401316 286.55067581404001 76.223998051136732 1929.5445277970284 530.20494743622839 4523.1494365688413 36.53454633615911 542.60109499655664 151.61343122925609 62.537545348517597 186.78180265333503 79.663482289761305 109.39111384004354 74.556347480043769 22.520754153840244 391.76365367975086 108.13854402303696 4644.3144093388692 148.76525665447116 87.295350375585258 23.283232308924198 2399.3808087361977 241.76311350334436 33.40585907548666 242.8388529419899 17.34173077903688 23.953780177980661 31.384828671813011 17.562908929772675
leaf_count=10685 882 177 16084 94 1312 1925 13796 426 1032 2934 713 543 2591 1273 1509 501 250 654 8815 767 281 39 2491 629 890 345 45 192 15 91
internal_value=0.0626943 0.0433316 0.0266062 0.00649185 0.064327 0.0614699 0.0559726 0.0682425 0.0418249 -0.00405505 0.0698441 0.036086 0.0229315 0.0330202 0.00857945 0.064089 0.0616765 0.0599337 0.0714629 0.0737697 0.0455631 0.0534962 0.07255 0.0705982 0.0724857 0.0594579 0.00450357 0.0675886 0.027807 0.0919942
internal_weight=18466.1 1438.33 892.768 594.052 17027.8 12643.5 7085.33 5558.21 2062.28 517.828 5423.84 249.319 231.277 1519.68 134.374 298.716 5023.05 4631.29 5174.52 276.144 109.816 59.8178 4384.26 545.559 535.35 293.586 50.7476 2454.72 55.3386 166.328
internal_count=71981 26311 24225 21703 45670 41660 27690 13970 12990 21609 11996 1256 5525 11958 1974 2522 14700 14450 10740 1640 782 465 4010 2086 1909 1280 935 2698 207 858
cat_boundaries=0 1 2 3 4 5
cat_threshold=17891330 76 4572308 32768 11224224
is_linear=0
shrinkage=0.025


Tree=15
num_leaves=31
num_cat=4
split_feature=23 28 13 28 4 12 39 13 17 23 38 34 24 12 1 16 0 24 13 37 13 4 24 12 17 4 4 12 9 24
split_gain=848.509 1015.04 826.435 644.987 539.302 499.941 648.837 480.979 470.758 467.76 626.388 451.67 556.592 398.42 306.138 292.678 282.468 279.236 274.095 265.662 453.045 385.067 262.07 244.867 235.292 225.492 213.702 207.214 197.886 193.722
threshold=2.5000000000000004 3.5000000000000004 0 1.0000000180025095e-35 0.0086859049982667517 16.341085271317805 1.0851388888888902 1 3790.5000000000005 1.0000000180025095e-35 4499.5000000000009 1.5000000000000002 1.0000000180025095e-35 8.9838709677419377 63.000000000000007 21697.000000000004 161.00000000000003 7.5000000000000009 2 5959.0000000000009 3 0.35103119390116005 3.5000000000000004 27.583333333333353 5475.5000000000009 7.5329737839744567e-05 0.24181994954351052 17.022727272727256 2.5000000000000004 1.0000000180025095e-35
decision_type=2 2 9 2 2 2 2 9 2 2 2 2 2 2 2 2 2 2 9 2 9 2 2 2 2 2 2 2 2 2
left_child=3 2 4 7 8 6 -4 11 -2 18 23 12 25 -6 -8 19 27 -15 24 -3 21 -21 -12 -11 -9 -1 -13 -7 29 -5
right_child=1 15 5 28 13 16 14 9 -10 10 22 26 -14 17 -16 -17 -18 -19 -20 20 -22 -23 -24 -25 -26 -27 -28 -29 -30 -31
leaf_value=-0.028849255441183493 0.16202912354471949 0.069929747104101297 0.11213936251958921 0.066471015300120798 -0.026051481581972402 0.12437232723564545 -0.025918115498026362 0.053896361152524823 -0.026728294514306861 -0.015749984232607789 0.057045278904154263 0.070238289610719248 -0.026763524070495953 0.068848968407716482 0.094865205989321744 -0.025673602304972721 -0.026124940708130807 -0.025098794148143602 0.074019454026516232 -0.026687546430616379 -0.02334980384195821 0.062644943144710141 -0.025577353604439093 0.094540086354283875 0.072860894523172584 0.041842762787331074 -0.027118229767137614 0.041103538707684489 0.074566359202312721 0.058225974106636984
leaf_weight=28.136019380763173 8.1850705333054048 868.37387115973979 23.53058401402086 6039.5905428677797 31.727698437869549 21.742945649661124 322.11712842062116 2287.9892716296017 80.86607004608959 133.6885050162673 490.42386728804559 381.32243598252535 81.524569266475737 447.16744395159185 12.695445254445074 23.819524308666587 32.677425533533096 20.165028772316873 1306.2650467976928 32.210561241954565 51.272241741418839 373.90472253412008 24.637671395204961 12.87825604714453 511.63927200809121 1275.2601994099095 14.098266113549469 120.03424513246864 1311.0793558582664 2657.214533932507
leaf_count=269 21 2502 201 5817 941 321 16771 6039 2304 1685 3778 1029 1697 3050 2 906 1088 776 1778 941 979 1838 719 16 957 5832 158 2296 384 6886
internal_value=0.0593051 0.0455888 0.0279625 0.0613488 0.0480164 0.00478429 -0.0120206 0.0552143 -0.00774439 0.0595992 0.0400917 0.0428686 0.0363282 0.058927 -0.0210619 0.0601951 0.0394615 0.0647449 0.0628767 0.061758 0.0461193 0.0541747 0.0530463 -0.00546729 0.0571837 0.0402939 0.0667012 0.0546728 0.0653563 0.0639591
internal_weight=19026.2 2470.49 1120.91 16555.7 588.111 532.798 358.343 6547.86 89.0511 4767.52 661.628 1780.34 1384.92 499.06 334.813 1349.58 174.455 467.332 4105.89 1325.76 457.388 406.115 515.062 146.567 2799.63 1303.4 395.421 141.777 10007.9 8696.81
internal_count=71981 34937 27771 37044 7092 20679 16974 23957 2325 14972 6198 8985 7798 4767 16773 7166 3705 3826 8774 6260 3758 2779 4497 1701 6996 6101 1187 2617 13087 12703
cat_boundaries=0 1 2 3 4
cat_threshold=70783293 23291561 76840976 84971660
is_linear=0
shrinkage=0.025


Tree=16
num_leaves=31
num_cat=3
split_feature=13 34 17 18 24 10 32 24 17 6 28 24 10 10 28 13 11 24 28 28 36 24 25 11 22 19 10 11 8 11
split_gain=796.747 868.568 1337.29 637.068 545.596 442.97 452.073 381.502 343.6 808.431 323.854 289.364 285.086 274.663 256.548 336.861 307.746 289.032 238.082 169.815 96.6863 121.137 95.9418 119.15 178.479 344.605 77.4392 29.3589 95.0982 260.279
threshold=0 2.5000000000000004 9716.5000000000018 1 4.5000000000000009 30.500000000000004 1.0000000180025095e-35 8.5000000000000018 2297.0000000000005 1.5000000000000002 1.5000000000000002 11.500000000000002 66.500000000000014 43.500000000000007 1.5000000000000002 2 14.830459770114951 3.5000000000000004 1.0000000180025095e-35 29.500000000000004 4993.5000000000009 10.500000000000002 1.0000000180025095e-35 55.535714285714306 1.5000000000000002 0.21583850931677004 27.500000000000004 35.041666666666657 1.5000000000000002 19.011111111111102
decision_type=9 2 2 9 2 2 2 2 2 2 2 2 2 2 2 9 2 2 2 2 2 2 2 2 2 2 2 2 2 2
left_child=1 2 3 7 5 10 -7 13 18 -10 -4 12 14 -1 15 16 -2 -17 -5 -13 26 -22 27 24 25 -24 -16 28 29 -3
right_child=11 22 4 8 -6 6 -8 -9 9 -11 -12 19 -14 -15 20 17 -18 -19 -20 -21 21 -23 23 -25 -26 -27 -28 -29 -30 -31
leaf_value=0.063856573675053235 0.026121241033461574 0.056971597440215765 0.0080311097090828096 0.04176180097408802 -0.025828320580832467 0.036704359384149073 -0.027501436038695887 -0.025145403385774735 0.013393747022723 0.056042850942093519 0.063127489432838399 -0.026582694549797482 -0.026557502473301284 0.040729952447919653 0.066557838445758188 0.066783289058172546 0.053963189365411862 -0.025803214884977291 0.060366505499376971 0.069167053464749051 0.06273534128853471 0.12206557619353307 0.045777122605391685 0.067105700402188911 0.06461952429682874 -0.032430078435552727 0.077804584576528071 0.068719049323605674 0.069736685408790342 -0.030080294937642228
leaf_weight=2210.7061028648168 277.50360511150211 218.92991347890347 97.51175447832793 1327.0767216403037 165.16351635381579 126.86144375428557 146.72121604718268 32.411525627598166 687.22047214582562 466.47419851366431 212.87038366496563 36.839320467785001 22.300278547219932 384.60559870954603 1160.9452548595145 2396.0012315455824 2630.957750858739 20.737681132741272 650.78732411563396 15.678190737031398 3085.3953112112358 21.900814821012318 295.39343513641506 378.53866955265403 253.58156859781593 39.203071084804833 668.94686068128794 1148.8411531802267 337.11963413655758 23.130227666348219
leaf_count=5625 3431 373 2230 5596 9591 1084 3445 2139 11228 691 747 1449 296 2492 1033 4097 7016 582 965 29 4224 93 1166 176 285 286 808 414 160 230
internal_value=0.056281 0.0505267 0.0456211 0.0497082 0.0141723 0.0255148 0.0022872 0.0591565 0.0414417 0.0306739 0.0459074 0.0612903 0.0616484 0.0604474 0.0618429 0.0579822 0.0511417 0.0657057 0.0479121 0.00271332 0.0659939 0.0631935 0.0625399 0.0559946 0.0487377 0.0365372 0.0707109 0.0661656 0.0609867 0.0485535
internal_weight=19540.4 9203.15 6508.41 5759.28 749.128 583.965 273.583 2627.72 3131.56 1153.69 310.382 10337.2 10284.7 2595.31 10262.4 5325.2 2908.46 2416.74 1977.86 52.5175 4937.19 3107.3 2694.74 966.717 588.178 334.597 1829.89 1728.02 579.18 242.06
internal_count=71981 48923 45833 28736 17097 7506 4529 10256 18480 11919 2977 23058 21580 8117 21284 15126 10447 4679 6561 1478 6158 4317 3090 1913 1737 1452 1841 1177 763 603
cat_boundaries=0 1 2 3
cat_threshold=7063237 19 26476600
is_linear=0
shrinkage=0.025


Tree=17
num_leaves=31
num_cat=2
split_feature=2 24 11 28 23 11 10 14 37 37 37 39 19 5 14 17 17 9 10 11 22 24 10 11 34 36 36 3 37 17
split_gain=716.353 869.005 793.266 613.003 1364.85 881.585 618.412 529.882 461.22 418.899 302.85 268.923 254.521 207.968 259.784 190.42 222.812 176.346 140.369 120.075 106.367 100.029 255.407 205.059 66.3557 59.9944 50.8633 49.0553 43.0929 31.5886
threshold=2.5000000000000004 8.5000000000000018 26.809090909090902 1.5000000000000002 1.0000000180025095e-35 21.858641358641403 61.500000000000007 0 11984.500000000002 90.500000000000014 5187.0000000000009 11.060555555555551 0.11180555555555551 1.5000000000000002 1 5085.5000000000009 5575.5000000000009 2.5000000000000004 32.500000000000007 27.980769230769251 1.5000000000000002 1.0000000180025095e-35 48.500000000000007 28.383152173913054 2.5000000000000004 6351.0000000000009 4098.5000000000009 35.500000000000007 44176.500000000007 6290.5000000000009
decision_type=2 2 2 2 2 2 2 9 2 2 2 2 2 2 9 2 2 2 2 2 2 2 2 2 2 2 2 2 2 2
left_child=1 3 -3 4 6 7 8 -6 -1 15 -7 -8 18 14 -11 26 -17 20 19 -4 21 27 23 -23 25 -19 -5 28 -2 -15
right_child=17 2 12 9 5 10 11 -9 -10 13 -12 -13 -14 29 -16 16 -18 24 -20 -21 -22 22 -24 -25 -26 -27 -28 -29 -30 -31
leaf_value=0.05451343614272091 0.060976221661942977 -0.025518004286960383 0.1391969891978346 0.070695686818637152 0.032052627960388325 0.053972798006383785 0.04847803721741395 7.7475453161333327e-05 -0.030697003992763636 0.021770594415684075 -0.028117308811996228 -0.013903385055672552 -0.027720526089555469 0.049782559089337451 0.050485790898683172 -0.029280575108079066 0.057343191767827789 0.091116391666404326 -0.023899921322004174 0.066820568364017174 0.067972028710112598 0.039369593754383342 -0.028748456727963442 0.060034399657832332 0.065032786049470923 0.070578866451047051 0.061823888773284069 0.089069632591936676 0.041723710913816943 0.070550543228619547
leaf_weight=7121.2686489429325 1601.6140790302306 175.21617271844298 19.52874821331352 1431.2037254106253 691.41980355978012 750.85430266242474 65.538244878873229 611.60142948757857 39.292739409953356 366.75906101148576 28.552736763842404 122.14543150551617 17.109386884607375 76.220754554495215 636.40757939219475 18.161698325537145 1671.1603870512918 149.41777315083891 7.6817869441583744 66.807721915654838 665.59023782424629 469.36572904326022 23.740838919766247 885.33274300582707 940.52542595844716 334.69396703504026 691.15241543203592 41.067989185452461 86.736740328371525 207.35847314633429
leaf_count=14786 1200 11931 28 682 7574 3646 378 14569 305 2387 423 1265 265 62 1962 182 4062 46 212 158 329 2789 345 1061 270 188 599 10 149 118
internal_value=0.0535596 0.0507454 0.00757737 0.0515954 0.0478017 0.0299093 0.0528671 0.0173043 0.0540413 0.0586014 0.0509301 0.00800814 0.0595437 0.0461741 0.0407417 0.0627828 0.0563937 0.0615689 0.0755749 0.0846266 0.058675 0.0566619 0.0514827 0.0529108 0.0691855 0.0770975 0.0678382 0.0607564 0.0600139 0.0651718
internal_weight=20013.5 14815.4 286.344 14529.1 9430.67 2082.43 7348.25 1303.02 7160.56 5098.42 779.407 187.684 111.128 1286.75 1003.17 3811.68 1689.32 5198.09 94.0183 86.3365 3773.45 3107.86 1378.44 1354.7 1424.64 484.112 2122.36 1729.42 1688.35 283.579
internal_count=71981 65594 12594 53000 42946 26212 16734 22143 15091 10054 4069 1643 663 4529 4349 5525 4244 6387 398 186 5883 5554 4195 3850 504 234 1281 1359 1349 180
cat_boundaries=0 1 2
cat_threshold=437 1857
is_linear=0
shrinkage=0.025


Tree=18
num_leaves=31
num_cat=3
split_feature=13 34 38 18 16 40 24 16 24 14 28 10 11 24 10 10 39 10 21 24 28 25 12 37 8 24 34 10 38 12
split_gain=698.952 803.045 1100.83 534.807 597.62 399.78 544.631 392.487 272.483 253.986 440.374 459.108 346.681 291.58 281.297 237.855 207.069 153.632 148.64 142.471 131.661 90.7152 154.339 102.846 205.372 93.5711 86.123 79.36 337.059 77.1627
threshold=0 2.5000000000000004 55565.500000000007 1 9695.5000000000018 1.5000000000000002 1.0000000180025095e-35 36592.000000000007 8.5000000000000018 2 1.5000000000000002 46.500000000000007 13.993006993007002 3.5000000000000004 45.500000000000007 49.500000000000007 7.8127777777777814 50.500000000000007 6.5000000000000009 11.500000000000002 29.500000000000004 1.0000000180025095e-35 12.757352941176451 16843.500000000004 1.5000000000000002 14.500000000000002 1.5000000000000002 58.500000000000007 3291.0000000000005 4.0172413793103461
decision_type=9 2 2 9 2 2 2 2 2 9 2 2 2 2 2 2 2 2 2 2 2 2 2 2 2 2 2 2 2 2
left_child=1 2 3 4 8 6 -5 -6 -1 10 11 12 14 27 -2 -13 -14 -17 -15 29 -21 -3 -23 25 -25 -24 -7 -11 -29 -12
right_child=9 21 -4 5 7 26 -8 -9 -10 13 19 15 16 18 -16 17 -18 -19 -20 20 -22 22 23 24 -26 -27 -28 28 -30 -31
leaf_value=0.054107871535979457 0.014764097726003159 0.060624453174963157 -0.025777409187795326 0.039190482979261823 -0.02736737529943158 0.073698107147493599 0.015562639142034533 0.13190361534389169 -0.025226349538722038 0.064721362873109325 0.078092796238876133 -0.030059614505174432 0.069599242265097575 -0.026992139878671259 0.15254579497166423 0.066243953090276156 0.049144114255366182 0.018871265670375514 0.063112988314788704 -0.026893145409069459 0.063240987859652015 -0.027120667484336093 0.052858008510245302 -0.031235536927271931 0.04589248507352342 0.083192462370760001 0.0402479854364588 -0.028638427113639467 0.066040023872370471 0.05824914554529359
leaf_weight=2791.7539537157863 233.10171721316874 1795.8296416923404 149.15391381643713 2690.4317832039669 86.52338386233896 202.35500041488558 791.24761262442917 9.8736008182167989 26.740627476014197 2964.8053899062797 135.71340711694211 52.033298964612186 357.08678005542606 33.668833151459694 8.6718055643141252 51.77105522248894 2707.4553178856149 236.74528330750763 16.07768440246582 23.274020128883421 16.404720036312938 14.968091656453906 770.82903734501451 25.373906481079757 122.29764729272574 72.6186746917665 69.229295785538852 30.059410972520709 98.84102451056242 3864.2808355968446
leaf_count=8718 3123 1177 9209 10348 2135 160 13375 47 1564 3161 144 529 424 895 46 158 6934 1460 1 778 26 254 993 279 185 202 277 272 112 4995
internal_value=0.051095 0.0458416 0.0412426 0.0427458 0.0510773 0.0360307 0.0338275 -0.00984135 0.0533456 0.0556624 0.0526968 0.0464263 0.0492745 0.0627041 0.0203243 0.0187035 0.0515503 0.0275799 0.0027497 0.0584744 0.0109489 0.0571753 0.0509622 0.0521701 0.0325021 0.0555681 0.0653595 0.0638687 0.0438914 0.0589424
internal_weight=20449.2 9619.23 6817.31 6668.16 2914.89 3753.26 3481.68 96.397 2818.49 10830 7686.54 3646.87 3306.32 3143.45 241.774 340.55 3064.54 288.516 49.7465 4039.67 39.6787 2801.92 1006.09 991.119 147.672 843.448 271.584 3093.71 128.9 3999.99
internal_count=71981 48923 45833 36624 12464 24160 23723 2182 10282 23058 18617 12674 10527 4441 3169 2147 7358 1618 896 5943 804 3090 1913 1659 464 1195 437 3545 384 5139
cat_boundaries=0 1 2 3
cat_threshold=7063237 19 632
is_linear=0
shrinkage=0.025


Tree=19
num_leaves=31
num_cat=3
split_feature=9 13 6 24 11 19 10 11 11 14 28 11 13 0 24 36 4 4 6 24 28 10 37 36 11 11 37 16 12 11
split_gain=649.869 770.938 745.706 953.071 773.634 920.887 458.17 442.402 414.93 306.192 319.894 417.228 290.482 273.03 255.713 249.492 151.871 158.998 136.325 113.627 123.664 101.381 100.609 143.759 176.134 120.743 200.528 88.806 77.1373 43.2675
threshold=2.5000000000000004 0 1.5000000000000002 1.0000000180025095e-35 20.989583333333353 0.64583333333333359 46.500000000000007 22.007246376811604 37.58571428571431 1 1.5000000000000002 13.993006993007002 2 41754.000000000007 3.5000000000000004 41847.500000000007 0.20475147399958252 0.0033754994815575505 2.5000000000000004 11.500000000000002 29.500000000000004 55.500000000000007 5959.0000000000009 30484.500000000004 47.062500000000007 45.045454545454554 8873.5000000000018 6899.0000000000009 4.0172413793103461 27.026785714285705
decision_type=2 9 2 2 2 2 2 2 2 9 2 2 9 2 2 2 2 2 2 2 2 2 2 2 2 2 2 2 2 2
left_child=1 2 3 6 5 -5 15 -6 -8 10 11 12 -3 -13 16 -1 17 -11 -16 28 -21 -18 23 -4 -25 26 -24 -27 -12 -2
right_child=29 9 22 4 7 -7 8 -9 -10 14 19 13 -14 -15 18 -17 21 -19 -20 20 -22 -23 25 24 -26 27 -28 -29 -30 -31
leaf_value=0.04680256812723492 0.067263279760068836 0.029851577991021283 0.059434177438613206 -0.0092388298163838204 0.11137575951341838 0.059971207332478453 0.016709241385395392 0.033561154673103319 0.062276003038010119 0.048260936526688905 0.073443995880077467 0.046866974546044937 -0.024324385528450797 -0.03038352177220649 -0.026833188263381925 -0.029954276974590889 0.056380569422322661 0.07034791257921387 0.059175619679005004 -0.026621731859649795 0.061187020480683432 0.022486983445998084 -0.03290178588019501 -0.032148892568305443 0.054136541421158701 0.02817752026754558 0.042948119636491172 0.065378717476969703 0.053998274113271107 0.058863522073403229
leaf_weight=3684.9448301400989 937.17160357441753 195.9959522401914 1358.8823980987072 672.34336945414543 48.648555743508041 145.25390288513154 655.69671339262277 616.32517760898918 153.80099672824144 257.59731798805296 140.56908133905381 3637.9319365778938 79.969337136484683 28.146302726119757 32.254451063461602 25.986781432293355 1477.1985052414238 1221.7880971431732 16.618903594091535 22.302435818128288 16.620144297368824 59.40820893086493 21.903854083269835 24.028003891929984 35.347924701869488 50.166762344539165 575.59474676195532 263.54761190712452 3554.0172078832984 843.91396734304726
leaf_count=10456 359 2055 944 24076 711 462 4248 4339 107 452 149 9499 1697 312 886 218 1816 995 4 781 25 251 157 204 13 85 1244 82 5071 283
internal_value=0.0488382 0.0474825 0.0414532 0.0368291 0.0194129 0.00311218 0.042535 0.0394164 0.025436 0.0520685 0.048975 0.044033 0.0143118 0.0462651 0.059612 0.0462565 0.0607255 0.0665389 0.00296324 0.0543103 0.0114039 0.0550873 0.0535253 0.0577672 0.0192234 0.0468642 0.040113 0.0595462 0.0547585 0.06332
internal_weight=20854 19072.9 8332.47 6003 1482.57 817.597 4520.43 664.974 809.498 10740.4 7675.55 3942.04 275.965 3666.08 3064.87 3710.93 3015.99 1479.39 48.8734 3733.51 38.9226 1536.61 2329.47 1418.26 59.3759 911.213 597.499 313.714 3694.59 1781.09
internal_count=71981 71339 47346 44617 29588 24538 15029 5050 4355 23993 19589 13563 3752 9811 4404 10674 3514 1447 890 6026 806 2067 2729 1161 217 1568 1401 167 5220 642
cat_boundaries=0 1 2 3
cat_threshold=7063173 632 1048584
is_linear=0
shrinkage=0.025


Tree=20
num_leaves=31
num_cat=5
split_feature=2 13 23 11 6 17 18 29 4 4 14 10 24 13 20 32 39 13 20 17 29 12 4 36 10 8 24 36 11 16
split_gain=668.513 724.482 592.2 953.01 489.425 395.388 380.018 456.855 353.009 335.048 409.526 345.891 336.183 320.517 302.194 281.954 268.485 246.583 233.901 219.949 201.826 175.228 203.679 129.389 208.814 167.342 226.602 371.253 143.86 103.978
threshold=2.5000000000000004 0 1.5000000000000002 21.858641358641403 1.5000000000000002 26246.000000000004 1 2.5000000000000004 0.12359889816081701 0.0001115884729076 2 54.500000000000007 2.5000000000000004 3 3.5000000000000004 1.0000000180025095e-35 21.329861111111104 4 1.0000000180025095e-35 8502.5000000000018 1.5000000000000002 6.338095238095236 1.0420243369280053 15073.500000000002 49.500000000000007 1.5000000000000002 1.0000000180025095e-35 41847.500000000007 96.266666666666666 32597.500000000004
decision_type=2 9 2 2 2 2 9 2 2 2 9 2 2 9 2 2 2 9 2 2 2 2 2 2 2 2 2 2 2 2
left_child=1 2 6 4 15 9 8 16 -1 10 12 13 -3 -11 -12 -4 -8 -13 -6 -10 -7 -5 -23 -2 25 26 -25 -28 -26 -22
right_child=23 5 3 21 18 20 7 -9 19 11 14 17 -14 -15 -16 -17 -18 -19 -20 -21 29 22 -24 24 28 -27 27 -29 -30 -31
leaf_value=-0.029986956170383373 0.058614003185053533 0.045844974219554697 0.02981109635306714 0.15133550223424452 -0.029348585052140327 -0.026366670607694931 0.02647248670254175 0.058837646793220968 0.057159618302124293 0.047163163294985905 -0.030344253011342245 -0.002800915606224605 -0.027327345924413545 0.058364590393288333 0.053851475050696013 -0.018834845536333633 0.050463422365324279 0.038692491565602921 0.059290545785193355 0.0019601034695762554 -0.028230938162347785 0.029649312808597474 0.061486220389277813 0.051481354043750573 -0.03146515200809729 0.055142458255898488 -0.015701161798495043 0.044972249119851017 0.056685023943621772 0.061793696294729729
leaf_weight=30.652336472645402 2483.3483939999714 610.34655905421823 88.889434361830354 8.7581887850537878 21.862120772711933 66.571068343706429 1854.6132852425799 417.70419418811798 1183.4730307618156 6136.4697895506397 99.947276638820767 114.42409308999777 41.252189439721406 3025.7097033364698 35.203177583403885 433.87377629987895 347.50411536637694 515.95781997032464 105.52579016052186 47.075349014252424 9.6666029226034862 298.62744524050504 221.40408731531352 489.51059188134968 31.969866829924285 2181.3067379407585 98.689076282083988 171.22258977405727 16.827292397618294 34.55293052084744
leaf_count=297 2201 1221 1666 62 259 2100 8713 176 2007 14712 1338 748 968 4811 29 19744 1067 1955 240 368 102 2684 266 430 308 1643 934 869 2 61
internal_value=0.0467788 0.0441534 0.0359652 0.0204877 0.000201833 0.0479466 0.0407524 0.034723 0.052546 0.0484834 0.0326963 0.0497481 0.0405525 0.0509837 -0.00760227 -0.0105173 0.0302807 0.0317328 0.0439489 0.0550533 0.000976779 0.0453771 0.0433007 0.0543245 0.0507421 0.0515929 0.0413351 0.0228026 -0.000489212 0.0418695
internal_weight=21222.9 15750.1 5059.96 1178.94 650.151 10690.1 3881.02 2619.82 1261.2 10579.3 786.749 9792.56 651.599 9162.18 135.15 522.763 2202.12 630.382 127.388 1230.55 110.791 528.79 520.032 5472.87 2989.53 2940.73 759.422 269.912 48.7972 44.2195
internal_count=71981 65594 37549 24921 21909 28045 12628 9956 2672 25782 3556 22226 2189 19523 1367 21410 9780 2703 499 2375 2263 3012 2950 6387 4186 3876 2233 1803 310 163
cat_boundaries=0 1 2 3 4 5
cat_threshold=6538372 17 340 94110280 84416544
is_linear=0
shrinkage=0.025


Tree=21
num_leaves=31
num_cat=5
split_feature=2 23 28 37 6 13 11 17 28 37 10 13 24 12 39 30 4 24 36 0 6 13 18 36 9 0 17 22 13 23
split_gain=642.721 675.118 1032.55 480.645 553.211 479.803 525.273 448.966 414.866 508.178 468.953 724.596 363.782 339.989 337.516 305.35 300.566 231.569 189.421 161.496 310.434 425.529 189.206 244.713 148.4 102.441 98.6805 94.4256 161.694 230.186
threshold=2.5000000000000004 1.5000000000000002 2.5000000000000004 90.500000000000014 1.5000000000000002 0 21.858641358641403 3389.0000000000005 1.0000000180025095e-35 1761.0000000000002 43.500000000000007 1 1.0000000180025095e-35 8.9838709677419377 0.28236111111111156 1.5000000000000002 0.0086859049982667517 13.500000000000002 17525.500000000004 1896.0000000000002 1.5000000000000002 2 3 23208.500000000004 2.5000000000000004 5457.5000000000009 5604.0000000000009 1.5000000000000002 4 1.5000000000000002
decision_type=2 2 2 2 2 9 2 2 2 2 2 9 2 2 2 2 2 2 2 2 2 9 9 2 2 2 2 2 9 2
left_child=1 8 5 17 14 13 7 -7 9 10 12 -12 -1 -3 -5 -8 -15 25 -6 22 21 -21 23 -10 27 -4 -24 28 -2 -30
right_child=24 2 3 4 18 6 15 -9 19 -11 11 -13 -14 16 -16 -17 -18 -19 -20 20 -22 -23 26 -25 -26 -27 -28 -29 29 -31
leaf_value=0.046786949186117706 0.053729362868566659 -0.027169176636114067 0.055961035687377571 0.12041705623409832 -0.0312913600150629 0.030841256504328313 0.048668361479397994 -0.026107707116103041 0.044759414448912488 -0.030135420378902586 -0.013405465543510046 0.035919058504207103 0.021493383793781677 0.0025897856087612149 -0.018865887934248399 -0.027917374233965665 0.04259773674675435 -0.025113990683886103 0.051480663952001654 0.043829379317160029 0.051823315110650185 -0.0012258629508405028 0.059146002690115822 -0.032802416217814066 0.058989050316584572 0.022144446939507876 0.048622838456126249 0.05812262376804133 0.045876219336532714 0.022658083902688517
leaf_weight=4790.2822107616812 1790.1324252588674 59.029754254035652 1210.9508606130257 10.595481183379887 17.873011538758874 111.70069420803338 171.349817994982 372.04971401114017 1534.9058139286935 62.086501187644899 215.6705579534173 1300.5320321843028 386.94686578493565 146.16167739406228 174.41457769088447 39.368626171723008 600.2506840787828 22.748363926075399 249.80059419199824 357.58865776099265 850.34759134799242 211.36548489890993 2234.0769652463496 25.139294335618615 1518.4143130900338 60.806776352226734 797.30172668211162 709.38815471343696 1181.3101390767843 349.4187215315178
leaf_count=9276 1905 1445 1991 15 160 1350 1568 18082 2196 624 1865 5160 2944 2034 3911 656 4734 1499 545 751 533 1219 1423 164 504 357 1092 329 1383 2266
internal_value=0.0448842 0.0423341 0.0321308 0.0451908 0.0229351 0.016896 0.0014102 -0.0129162 0.0449265 0.0406536 0.041315 0.0290455 0.0449015 0.0298393 -0.0102713 0.0342837 0.0347807 0.0529479 0.0458486 0.0497207 0.042246 0.0278618 0.0520211 0.0432109 0.0522341 0.0543648 0.0562106 0.0496746 0.0478522 0.0403328
internal_weight=21562 16013.3 3247.1 1747.19 452.684 1499.91 694.469 483.75 12766.2 6755.52 6693.43 1516.2 5177.23 805.442 185.01 210.718 746.412 1294.51 267.674 6010.73 1419.3 568.954 4591.42 1560.05 5548.66 1271.76 3031.38 4030.25 3320.86 1530.73
internal_count=71981 65594 38347 8478 4631 29869 21656 19432 27247 19869 19245 7025 12220 8213 3926 2224 6768 3847 705 7378 2503 1970 4875 2360 6387 2348 2515 5883 5554 3649
cat_boundaries=0 1 2 3 4 5
cat_threshold=78655799 31548324 9700105 12 76560744
is_linear=0
shrinkage=0.025


Tree=22
num_leaves=31
num_cat=4
split_feature=34 23 13 10 13 16 16 24 8 28 28 16 10 13 13 12 8 19 12 17 17 4 10 4 4 24 16 6 16 8
split_gain=666.634 1131.67 652.925 601.408 544.784 421.88 397.038 367.414 323.266 314.333 308.202 263.033 244.566 208.788 180.271 134.945 100.554 88.2851 86.0423 87.1212 94.622 172.487 89.0163 46.991 79.1999 33.4349 53.2999 133.925 52.2601 125.271
threshold=2.5000000000000004 9.5000000000000018 0 43.500000000000007 1 6290.5000000000009 6997.0000000000009 3.5000000000000004 2.5000000000000004 1.5000000000000002 4.5000000000000009 9695.5000000000018 58.500000000000007 2 3 11.975000000000001 1.5000000000000002 0.95454545454545459 14.513157894736851 5575.5000000000009 17389.500000000004 0.25853188884054906 21.500000000000004 0.73266123253695015 0.20092012835628403 1.0000000180025095e-35 19700.500000000004 2.5000000000000004 2985.5000000000005 1.5000000000000002
decision_type=2 2 9 2 9 2 2 2 2 2 2 2 2 9 9 2 2 2 2 2 2 2 2 2 2 2 2 2 2 2
left_child=1 2 3 7 11 12 -7 10 -9 -8 -1 -5 13 -4 16 -14 -3 -6 25 22 23 -22 -20 24 -21 -2 28 -28 29 -27
right_child=18 14 5 4 17 6 9 8 -10 -11 -12 -13 15 -15 -16 -17 -18 -19 19 20 21 -23 -24 -25 -26 26 27 -29 -30 -31
leaf_value=0.037343684188490385 0.053601615071720211 -0.021163404053139111 0.045496531475206825 0.030314149030425938 -0.020635499162243887 -0.029797746963510952 0.019327323364012036 0.0024049258153504781 0.07304799694335222 0.045951647373911275 0.051657445075958736 -0.026810178077499632 0.063308174735376269 0.056287500387253109 -0.024389261655842629 0.0068778079415837291 0.11125570281400975 0.028845100378927721 0.041856473020334892 0.047556178250978701 -0.030295321171717945 0.043560211552575653 -0.0333548799668155 0.053708786735955728 0.025184627615979317 -0.033358943383323673 -0.029565748809244036 0.068300321464060107 0.050463415181453412 0.04488486962217756
leaf_weight=4357.5024637337774 2884.9432719927281 4.6207358445972195 4718.4515721742064 1089.4946507019922 203.20598699338734 59.798927998170257 450.36279724724591 273.77722799498588 46.54483215790242 731.05984159279615 1212.3937715999782 52.030454376712441 32.232771962881088 2312.2752325134352 190.08398216217756 132.72730496432632 11.285748980939388 24.412788104265928 19.707887932658195 444.66318000294268 28.098143942654133 61.153983877040446 17.736534538678825 445.64295494183898 132.83245755080134 15.447261782363055 17.62297027464956 15.538953617215155 1818.9564079456031 58.711242228746414
leaf_count=17017 1028 225 7479 6268 2949 671 4668 7012 32 2085 1207 1394 29 2150 12741 817 13 60 17 643 392 151 148 215 368 100 266 2 1784 50
internal_value=0.043152 0.0404705 0.0412347 0.0354507 0.020547 0.0461096 0.0326442 0.0389707 0.012873 0.0358294 0.0404685 0.0274468 0.0484912 0.0491981 -0.0176645 0.0182342 0.0462865 -0.0145771 0.0502971 0.0439906 0.0452529 0.0202034 0.00622468 0.0474137 0.0424671 0.0517943 0.0490597 0.0168759 0.049613 0.0283264
internal_weight=21863.3 15902.3 15696.3 7259.36 1369.14 8436.91 1241.22 5890.22 320.322 1181.42 5569.9 1141.53 7195.69 7030.73 205.99 164.96 15.9065 227.619 5961.06 1149.84 1112.39 89.2521 37.4444 1023.14 577.496 4811.22 1926.28 33.1619 1893.11 74.1585
internal_count=71981 66817 53838 35939 10671 17899 7424 25268 7044 6753 18224 7662 10475 9629 12979 846 238 3009 5164 1934 1769 543 165 1226 1011 3230 2202 268 1934 150
cat_boundaries=0 1 2 3 4
cat_threshold=14927509 4359697 85196904 67108864
is_linear=0
shrinkage=0.025


Tree=23
num_leaves=31
num_cat=1
split_feature=34 23 18 17 9 20 29 2 11 10 10 11 8 17 24 11 17 17 0 10 2 36 24 0 28 31 37 6 38 30
split_gain=656.215 1048.36 621.742 550.865 478.174 431.176 540.62 422.847 345.127 249.484 218.851 236.585 127.755 160.091 112.075 97.6114 150.968 113.578 88.8499 59.8091 187.699 297.037 45.7183 41.2595 36.5226 33.4515 32.4926 26.1087 9.79679 10.5265
threshold=2.5000000000000004 9.5000000000000018 0 10040.500000000002 2.5000000000000004 2.5000000000000004 1.0000000180025095e-35 11.500000000000002 50.050000000000004 27.500000000000004 43.500000000000007 15.988372093023251 1.5000000000000002 25772.500000000004 1.5000000000000002 54.516666666666659 26246.000000000004 78577.500000000015 15647.500000000002 26.500000000000004 16.500000000000004 22468.500000000004 14.500000000000002 95481.000000000015 1.0000000180025095e-35 1.5000000000000002 62242.000000000007 1.5000000000000002 8581.0000000000018 2.5000000000000004
decision_type=2 2 9 2 2 2 2 2 2 2 2 2 2 2 2 2 2 2 2 2 2 2 2 2 2 2 2 2 2 2
left_child=1 2 4 10 5 6 -1 8 -5 -9 14 -12 -3 -14 -4 16 19 -18 -7 22 21 -21 26 -22 -24 27 -2 -6 29 -17
right_child=15 12 3 7 25 18 -8 9 -10 -11 11 -13 13 -15 -16 28 17 -19 -20 20 23 -23 24 -25 -26 -27 -28 -29 -30 -31
leaf_value=0.038023247205546472 0.048280329835346254 -0.025515031541034707 0.050640168727162843 -0.0011423982209538277 0.063607666671871441 0.059733244110762279 0.02482540638695523 -0.029905896272853439 0.059455025746084911 0.070356573135128705 0.024441854886742262 0.049120400482411952 -0.025476314163858822 0.090882707182545416 0.038849288936433746 0.042383214797576702 -0.029558046108851599 0.047879765992457683 0.024674278129086229 0.036630477250231185 0.047361901283137456 -0.033665037259288176 0.11635253019034544 0.062197474423975101 0.059736380548738172 0.075779555300752491 0.067358160631440761 0.049534466586320172 0.053003331245252153 0.05205584219984935
leaf_weight=4397.5128515250981 1470.4222402609885 174.51185381039977 4930.1845462759957 352.02723958995193 183.92901161313057 449.36362856347114 3491.3881259355694 17.03792161308229 69.481717385351658 127.62295381259173 504.03251751232892 475.85000892635435 14.520336580462756 13.323442207649348 584.26145931426436 177.66883163154125 28.676838397979736 18.690702990628779 52.680951045826077 620.16790858656168 928.07178993523121 39.191425518132746 10.874577086418865 149.33783164154738 35.582414372824132 75.598290156573057 64.926224431954324 215.30084934458137 2259.079628136009 212.15625835955143
leaf_count=9091 1185 12445 5950 5198 106 364 25888 185 40 198 2451 1119 456 78 2974 116 421 69 185 1327 690 353 6 85 135 25 43 64 686 48
internal_value=0.0415351 0.0388987 0.0396173 0.0453263 0.0349754 0.033625 0.0321865 0.0216773 0.00895767 0.0584064 0.0474537 0.0364666 -0.0175645 0.0313361 0.0493986 0.0485963 0.0457033 0.00130453 0.0561157 0.0463357 0.0430186 0.0324038 0.0499467 0.0494763 0.0752142 0.0594476 0.049132 0.0561671 0.0522529 0.0477735
internal_weight=22143.5 16128.6 15926.3 7060.5 8865.77 8390.95 7888.9 566.17 421.509 144.661 6494.33 979.883 202.356 27.8438 5514.45 6014.85 3365.94 47.3675 502.045 3318.57 1736.77 659.359 1581.81 1077.41 46.457 474.828 1535.35 399.23 2648.9 389.825
internal_count=71981 66817 53838 18115 35723 35528 34979 5621 5238 383 12494 3570 12979 534 8924 5164 4314 490 549 3824 2455 1680 1369 775 141 195 1228 170 850 164
cat_boundaries=0 1
cat_threshold=76
is_linear=0
shrinkage=0.025


Tree=24
num_leaves=31
num_cat=4
split_feature=28 23 17 16 14 34 17 39 18 39 24 13 34 2 24 29 13 4 28 4 16 4 36 38 23 38 34 7 6 24
split_gain=654.168 1063.24 393.665 632.027 379.036 513.731 576.822 424.052 403.095 355.884 353.038 348.934 282.803 258.932 209.798 212.61 469.887 211.632 155.705 138.409 136.848 134.054 99.0712 164.599 140.555 93.249 148.096 82.5976 308.107 66.3699
threshold=1.5000000000000002 1.5000000000000002 16291.000000000002 15792.500000000002 0 2.5000000000000004 9462.5000000000018 7.687083333333331 1 12.005416666666703 11.500000000000002 2 2.5000000000000004 8.5000000000000018 1.0000000180025095e-35 1.5000000000000002 3 0.71746725480970208 34.500000000000007 0.47909760824332454 86240.000000000015 0.21417308752069203 8008.5000000000009 24310.500000000004 4.5000000000000009 2004.0000000000002 1.5000000000000002 1.5000000000000002 1.5000000000000002 1.0000000180025095e-35
decision_type=2 2 2 2 9 2 2 2 9 2 2 9 2 2 2 2 9 2 2 2 2 2 2 2 2 2 2 2 2 2
left_child=1 4 3 11 5 6 8 -8 -1 -5 14 -3 -12 -13 22 16 18 -18 -16 -14 -4 25 23 -2 -25 -6 -27 28 -24 -23
right_child=10 2 20 9 21 -7 7 -9 -10 -11 12 13 19 -15 15 -17 17 -19 -20 -21 -22 29 27 24 -26 26 -28 -29 -30 -31
leaf_value=0.043713865664752334 0.053043434642115667 -0.025050644737404645 -0.026328937142925057 0.17224605494093287 0.058950223746094634 0.048487978400011324 0.069911922670648163 -0.0082053223414667448 0.030206014355483125 0.035295476181263101 -0.025862844001901027 0.016492257991085023 -0.02915900205098312 0.057080104308995551 -0.031107480338012555 0.047334192441412182 0.03127467680741839 0.046811984522991214 0.048470007788998237 0.052810512220109733 0.040596825437382002 0.044064315664283399 0.017000638795298152 0.036458084644553586 -0.028454379351290655 -0.028724575418280041 0.046179135080108846 0.048110679230674691 0.048438324886233973 0.011154443025827616
leaf_weight=2287.7402083482593 2848.2305051088333 107.17558559309691 166.26791062671691 24.820192837156355 840.2687153480947 1719.9227021168917 49.366321554407477 314.38565394934267 4487.3098702728748 23.226173571310937 78.189382378943264 847.85246235597879 14.824796990491448 110.52536387555301 86.572880442254245 1896.2794810850173 1197.7740872483701 1031.9083014633507 17.686804570257664 74.05754320602864 20.629452868364751 1103.8620950356126 284.56175413168967 130.5454870685935 23.960857164114714 18.073165034875274 133.77273500710726 1794.5045863091946 629.54945431649685 40.713800249621272
leaf_count=4287 1213 2395 6870 47 520 940 178 3182 13885 209 4999 16161 354 385 1037 1886 5893 2408 9 161 222 1412 922 203 304 171 145 1009 285 289
internal_value=0.0400196 0.036136 0.0147419 0.0203773 0.0386646 0.0361618 0.033236 0.00255205 0.0348825 0.108163 0.0447392 0.0163189 0.00862328 0.0210113 0.045345 0.0410842 0.0359871 0.0383126 -0.015755 0.0389386 -0.0187517 0.0486216 0.0484926 0.0516752 0.0262571 0.055652 0.0371179 0.0449456 0.0386838 0.0429066
internal_weight=22404.6 12295.9 1300.5 1113.6 10995.4 8858.72 7138.8 363.752 6775.05 48.0464 10108.6 1065.55 167.072 958.378 9941.57 4230.22 2333.94 2229.68 104.26 88.8823 186.897 2136.69 5711.35 3002.74 154.506 992.115 151.846 2708.62 914.111 1144.58
internal_count=71981 51298 26289 19197 25009 22472 21532 3360 18172 256 20683 18941 5514 16546 15169 11233 9347 8301 1046 515 7092 2537 3936 1720 507 836 316 2216 1207 1701
cat_boundaries=0 1 2 3 4
cat_threshold=1776 17 17263468 216436
is_linear=0
shrinkage=0.025


Tree=25
num_leaves=31
num_cat=4
split_feature=34 23 13 10 13 24 10 17 37 4 28 4 13 10 28 13 4 11 11 17 17 8 22 38 10 12 37 17 38 38
split_gain=648.353 927.961 614.436 535.425 488.064 321.964 337.037 299.968 282.124 430.36 253.095 235.141 228.489 280.96 203.778 161.729 117.312 110.829 93.1535 136.11 106.347 75.3662 70.2982 128.927 140.613 35.2912 59.6879 43.352 19.6537 8.71952
threshold=2.5000000000000004 9.5000000000000018 0 43.500000000000007 1 1.0000000180025095e-35 24.500000000000004 6000.5000000000009 3696.0000000000005 0.00096687048868230013 1.0000000180025095e-35 0.12359889816081701 2 53.500000000000007 1.0000000180025095e-35 3 0.12365578249452251 48.083333333333357 54.516666666666659 26246.000000000004 78577.500000000015 1.5000000000000002 1.5000000000000002 9745.5000000000018 26.500000000000004 13.461904761904776 28055.000000000004 8791.5000000000018 7687.0000000000009 8581.0000000000018
decision_type=2 2 9 2 9 2 2 2 2 2 2 2 9 2 2 9 2 2 2 2 2 2 2 2 2 2 2 2 2 2
left_child=1 2 3 5 11 10 -7 12 9 -9 -1 -5 13 -4 -10 21 -14 -6 19 22 -21 -3 23 28 -25 26 -24 -27 -2 -20
right_child=18 15 7 4 17 6 -8 8 14 -11 -12 -13 16 -15 -16 -17 -18 -19 29 20 -22 -23 25 24 -26 27 -28 -29 -30 -31
leaf_value=0.0319136683015597 0.045299334862064972 -0.020992353584570446 0.041813737989497821 -0.006970207740546016 -0.021272095345761154 0.040096724651240041 0.015794109978920015 -0.029207981012578311 -0.027591612513097892 0.028623512908922906 0.043699589296407805 0.027979636262054186 0.058355560580335586 0.014184408890916917 0.045776056446737975 -0.024309886584630996 0.045969142595033013 0.038693725436281939 0.044944501529852666 -0.029580922874455479 0.045175388968103213 0.092653012487605463 0.050061174448134238 0.043501493615550051 0.027723142405101465 0.026584442306016427 0.076451020894942281 0.048069639605116225 0.053435266461656028 0.049854531566664459
leaf_weight=2293.5877456152812 680.74789894372225 4.4578918814659128 4673.3788422252983 135.11216265428811 213.37184540741146 559.93098723702133 987.72883707936853 86.916056860238314 23.73451673053205 961.4170534145087 2306.1904660370201 1064.086325825192 959.61784645728767 243.60068609658629 777.10254264716059 181.66170415002853 1029.5781591096893 20.223152965307236 393.39695145189762 28.373428594321012 18.984349714592099 12.951437253504992 252.2747318893671 778.00338276661932 664.89553216751665 71.649579785764217 75.092498054727912 513.74553483910859 332.61333489790559 2287.2192346826196
leaf_count=7494 367 225 5960 1448 2988 3262 11638 1239 387 5657 2874 6214 569 991 1963 12741 1133 21 164 421 69 13 119 1043 1767 119 34 279 96 686
internal_value=0.0386232 0.0360465 0.0367005 0.0312571 0.0175134 0.0345075 0.0246084 0.041326 0.0323826 0.0238031 0.0378315 0.0238386 0.0437751 0.0403665 0.0435668 -0.0175214 0.0517123 -0.015276 0.0456035 0.042805 0.000649485 0.0413797 0.0433965 0.0411293 0.0362567 0.0494429 0.0563366 0.045494 0.0480223 0.0491519
internal_weight=22631.6 16534.6 16335.6 7580.23 1432.79 6147.44 1547.66 8755.35 1849.17 1048.33 4599.78 1199.2 6906.18 4916.98 800.837 199.071 1989.2 233.595 6097 3416.38 47.3578 17.4093 3369.02 2456.26 1442.9 912.762 327.367 585.395 1013.36 2680.62
internal_count=71981 66817 53838 35939 10671 25268 14900 17899 9246 6896 10368 7662 8653 6951 2350 12979 1702 3009 5164 4314 490 238 3824 3273 2810 551 153 398 463 850
cat_boundaries=0 1 2 3 4
cat_threshold=14927509 4359697 68423784 67108864
is_linear=0
shrinkage=0.025


Tree=26
num_leaves=31
num_cat=6
split_feature=34 24 18 13 38 0 13 6 13 32 24 39 13 10 25 14 36 39 12 17 16 11 17 16 22 38 6 16 12 0
split_gain=640.576 787.005 543.064 732.219 513.838 470.146 467.821 407.024 525.237 356.442 342.208 333.623 229.431 369.296 213.79 212.317 237.91 198.87 153.332 151.181 95.3832 91.2638 119.909 110.457 72.8803 131.843 142.078 46.4973 30.5581 28.714
threshold=2.5000000000000004 3.5000000000000004 0 1 45291.500000000007 3325.0000000000005 2 1.5000000000000002 3 1.0000000180025095e-35 11.500000000000002 12.340000000000002 4 43.500000000000007 1.0000000180025095e-35 5 135.50000000000003 0.28236111111111156 13.881944444444452 11661.500000000002 10940.500000000002 51.125000000000007 26246.000000000004 86240.000000000015 1.5000000000000002 9745.5000000000018 1.5000000000000002 5384.5000000000009 5.8397435897435912 98140.000000000015
decision_type=2 2 9 9 2 2 9 2 9 2 2 2 9 2 2 9 2 2 2 2 2 2 2 2 2 2 2 2 2 2
left_child=1 2 3 7 12 9 10 8 -1 11 17 18 13 -4 -9 16 -5 -7 -3 -14 -17 22 24 -24 25 27 -27 -2 -26 -30
right_child=21 5 4 15 -6 6 -8 14 -10 -11 -12 -13 19 -15 -16 20 -18 -19 -20 -21 -22 -23 23 -25 28 26 -28 -29 29 -31
leaf_value=-0.029528267403620113 0.04255951484377022 -0.024860449510880733 0.03703077457404607 0.028717208158914737 -0.028140027141962978 0.11659931681434213 -0.024933489891671105 0.043638608058960526 0.019887806803619599 -0.026119339450809478 -0.025921424887840133 -0.02716748561118177 0.044999344884054181 -0.0025315824473764988 0.0014620079648066373 0.047564928050032741 0.040899049983871949 0.040959532951236749 0.062293263731601524 0.024101671459846746 0.0092911982099401682 0.047460303607676071 -0.02921320029900756 0.048248219715232597 0.073595388698629499 0.024748668183280746 0.041604799563750294 0.054955195231093046 0.045333830363340585 0.061812253518323236
leaf_weight=134.41716590709984 672.00614352151752 14.213469558395444 827.87888271920383 2313.5806982498616 64.937301382422447 22.454474329948425 84.698132071644068 627.95674233604223 2326.462757954374 250.900246870704 46.175701462198049 54.299911390990019 5711.9624388320372 179.08751195855439 85.522074512206018 1430.0222985763103 1793.9381434274837 388.67047259584069 84.005293291062117 229.26169073861092 42.617381797172129 2940.2862450145185 28.285825674887747 17.9481863072142 30.610958034172654 577.77946474403143 700.8298022467643 293.02156486362219 786.0498477993533 81.982164712622762
leaf_count=1223 391 346 1885 7555 1344 11 2276 478 13539 14355 2804 1101 8409 1216 295 1829 3001 3292 98 1367 393 997 441 44 12 2015 687 58 474 45
internal_value=0.0373068 0.0347648 0.0360934 0.03173 0.0414303 0.0125888 0.0277792 0.021903 0.0171376 -0.00783169 0.0373107 0.0222102 0.0421445 0.029702 0.0385957 0.0372658 0.0339642 0.0453697 0.0495324 0.0441233 0.0461529 0.0442316 0.0412394 0.00118947 0.0418273 0.0393524 0.0340151 0.0463789 0.0479532 0.0469624
internal_weight=22841.9 16713.1 15767.6 8754.52 7013.13 945.418 541.999 3174.36 2460.88 403.419 457.301 152.519 6948.19 1006.97 713.479 5580.16 4107.52 411.125 98.2188 5941.22 1472.64 6128.8 3188.51 46.234 3142.28 2243.64 1278.61 965.028 898.643 868.032
internal_count=71981 66817 42534 28313 14221 24283 8383 15535 14762 15900 6107 1545 12877 3101 773 12778 10556 3303 444 9776 2222 5164 4167 485 3682 3151 2702 449 531 519
cat_boundaries=0 1 2 3 4 5 6
cat_threshold=76 4572884 1081483 4472836 10698913 249
is_linear=0
shrinkage=0.025


Tree=27
num_leaves=31
num_cat=5
split_feature=28 23 13 17 16 14 34 17 39 18 24 12 18 39 24 29 13 28 28 30 34 36 38 23 37 30 34 7 37 12
split_gain=651.017 931.861 369.837 337.849 506.857 331.051 476.467 507.084 372.013 350.137 292.396 285.85 244.772 235.892 205.382 201.396 419.637 171.105 143.493 126.936 109.814 93.2278 151.097 126.368 79.5832 97.0389 269.442 76.1942 75.7992 66.3995
threshold=1.5000000000000002 1.5000000000000002 0 16291.000000000002 15792.500000000002 1 2.5000000000000004 9462.5000000000018 7.687083333333331 2 11.500000000000002 7.9705882352941204 3 12.005416666666703 1.0000000180025095e-35 1.5000000000000002 4 2.5000000000000004 34.500000000000007 2.5000000000000004 2.5000000000000004 8008.5000000000009 24310.500000000004 4.5000000000000009 70491.000000000015 1.0000000180025095e-35 2.5000000000000004 1.5000000000000002 2884.0000000000005 21.050000000000004
decision_type=2 2 9 2 2 9 2 2 2 9 2 2 9 2 2 2 9 2 2 2 2 2 2 2 2 2 2 2 2 2
left_child=1 5 -3 4 11 6 7 9 -9 -1 14 -4 20 -6 21 16 18 -18 -16 -5 -12 22 -2 -24 25 -7 -27 28 -23 -29
right_child=10 2 3 19 13 24 -8 8 -10 -11 12 -13 -14 -15 15 -17 17 -19 -20 -21 -22 27 23 -25 -26 26 -28 29 -30 -31
leaf_value=0.03914035209643188 0.048735446448187759 -0.025413240806878269 -0.026578713464223625 -0.026208456979325685 0.144307539972935 0.045018498146184201 0.044114008986098102 0.062027234185360658 -0.0089154255449120871 0.02683498458075198 -0.024319950644866091 0.022088847782565535 -0.023575293271177411 0.035231990582375028 -0.031323143969434183 0.043171557997044363 0.019517697633740599 0.037673421920352022 0.04489910750649441 0.04034907103440874 0.049722829521938183 0.038986917115281627 0.032815428490623959 -0.028611268046883843 0.086782150240202388 -0.029914708014922842 0.041494500085711691 0.045142963250522611 0.021905537134257361 0.023655194801794968
leaf_weight=2377.4261828251183 2897.8792713992298 135.22954852879047 81.226530835963786 134.01821304438636 28.830572637729347 1986.5992822106928 1749.9425038099289 52.913538511842489 321.76950392033905 4656.1874574301764 14.332146740052847 926.39916149247438 77.095471659209579 22.747195931151509 86.495940226595849 1934.5288711832836 396.05933851376176 1903.9215044621378 17.801996888592839 19.712498667649925 74.35759702604264 713.48623016104102 133.17250550538301 23.958654809743166 26.872037477791309 41.242695732042193 152.64214507490396 1723.6243018209934 217.2267555333674 99.02833840996027
leaf_count=4287 1213 3441 3134 5874 37 2057 940 178 3182 13885 951 13601 4428 173 1037 1886 2873 5428 9 29 135 716 203 304 8 397 75 858 491 151
internal_value=0.0360781 0.0322837 0.0126168 0.016946 0.0221124 0.034615 0.0323299 0.029584 0.00123503 0.0310934 0.0407519 0.0181407 0.00774792 0.0978348 0.0412901 0.0371406 0.032271 0.0344084 -0.0164266 -0.0174522 0.0338211 0.0443824 0.0474367 0.0233118 0.0437313 0.0433606 0.0262161 0.0409765 0.0350306 0.0439905
internal_weight=23026.7 12713.8 1348.16 1212.93 1059.2 11365.6 9158.24 7408.3 374.683 7033.61 10313 1007.63 165.785 51.5778 10147.2 4338.81 2404.28 2299.98 104.298 153.731 88.6897 5808.38 3055.01 157.131 2207.36 2180.48 193.885 2753.37 930.713 1822.65
internal_count=71981 51298 26289 22848 16945 25009 22472 21532 3360 18172 20683 16735 5514 210 15169 11233 9347 8301 1046 5903 1086 3936 1720 507 2537 2529 472 2216 1207 1009
cat_boundaries=0 1 2 3 4 5
cat_threshold=1011560 1776 17 1 216436
is_linear=0
shrinkage=0.025


Tree=28
num_leaves=31
num_cat=5
split_feature=6 24 13 23 19 18 34 21 34 14 10 23 37 24 0 13 32 10 40 2 6 4 37 2 17 32 5 13 31 20
split_gain=639.152 743.559 600.056 494.655 500.638 373.819 397.567 325.918 305.081 265.183 259.493 231.574 200.47 187.224 180.266 148.347 107.815 104.696 93.6318 86.9846 78.0882 98.1856 192.136 128.285 130.454 73.5789 58.0888 204.159 114.806 50.6119
threshold=1.5000000000000002 6.5000000000000009 0 1.5000000000000002 0.47338935574229707 1 2.5000000000000004 1.0000000180025095e-35 2.5000000000000004 2 50.500000000000007 1.0000000180025095e-35 1.0000000180025095e-35 1.0000000180025095e-35 174037.50000000003 3 1.0000000180025095e-35 32.500000000000007 1.5000000000000002 36.500000000000007 2.5000000000000004 0.00023056911629240002 35326.500000000007 83.500000000000014 1.0000000180025095e-35 1.0000000180025095e-35 1.5000000000000002 4 2.5000000000000004 1.0000000180025095e-35
decision_type=2 2 9 2 2 9 2 2 2 9 2 2 2 2 2 9 2 2 2 2 2 2 2 2 2 2 2 9 2 2
left_child=1 2 3 5 7 15 -7 -5 14 29 11 -11 17 -12 18 -1 -6 -10 -3 -16 21 22 23 24 -2 -20 27 -23 -29 -4
right_child=20 8 9 4 16 6 -8 -9 12 10 13 -13 -14 -15 19 -17 -18 -19 25 -21 -22 26 -24 -25 -26 -27 -28 28 -30 -31
