tree
version=v4
num_class=1
num_tree_per_iteration=1
label_index=0
max_feature_idx=40
objective=binary sigmoid:1
feature_names=account_amount_added_12_24m account_days_in_dc_12_24m account_days_in_rem_12_24m account_days_in_term_12_24m account_incoming_debt_vs_paid_0_24m account_status account_worst_status_0_3m account_worst_status_12_24m account_worst_status_3_6m account_worst_status_6_12m age avg_payment_span_0_12m avg_payment_span_0_3m merchant_category merchant_group has_paid max_paid_inv_0_12m max_paid_inv_0_24m name_in_email num_active_div_by_paid_inv_0_12m num_active_inv num_arch_dc_0_12m num_arch_dc_12_24m num_arch_ok_0_12m num_arch_ok_12_24m num_arch_rem_0_12m num_arch_written_off_0_12m num_arch_written_off_12_24m num_unpaid_bills status_last_archived_0_24m status_2nd_last_archived_0_24m status_3rd_last_archived_0_24m status_max_archived_0_6_months status_max_archived_0_12_months status_max_archived_0_24_months recovery_debt sum_capital_paid_account_0_12m sum_capital_paid_account_12_24m sum_paid_inv_0_12m time_hours worst_status_active_inv
feature_infos=[0:1128775] [0:350] [0:365] [0:97] [0:3914] [1:4] [1:4] [1:4] [1:4] [1:4] [18:100] [0:260] [0:86] -1:15:20:7:9:0:26:3:23:21:12:6:2:4:18:1:16:24:17:19:14:5:8:13:25:22:10 -1:10:4:5:6:7:9:0:2:3:1:8 [0:1] [0:279000] [0:279000] -1:3:0:6:1:4:2:5 [0:9] [0:47] [0:16] [0:13] [0:247] [0:304] [0:42] none none [0:182] [0:5] [0:5] [0:5] [0:3] [0:5] [0:5] [0:36479] [0:571475] [0:341859] [0:2835652] [0.00027777777777769999:23.9997222222222] [1:3]
tree_sizes=3373 3415 3419 3410 3396 3424 3431 3401 3447 3439 3432 3443 3427 3452 3468 3438 3409 3453 3415 3455 3436 3433 3441 3453 3403 3425 3447 3429 3449 3453 3405 3467 3448 3432 3438 3456 3433 3425 3434 3451 3452 3411 3383 3431 3457 3426 3429 3470 3417 3405 3459 3454 3421 3427 3443 3427 3423 3445 3407 3424 3429 3402 3437 3436 3435 3407 3437 3444 3448 3439 3448 3429 3414 3428 3404 3436 3445 3438 3452 3435 3430 3422 3432 3429 3457 3445 3445 3444 3462 3419 3449 3448 3442 3452 3444 3430 3453 3435 3433 3488 3438 3492 3452 3408 3458 3437 3448 3421 3429 3501 3429 3431 3479 3459 3494 3430 3436 3471 3421 3420 3440 3468 3449 3438 3446 3457 3450

Tree=0
num_leaves=31
num_cat=2
split_feature=24 6 6 34 17 10 11 10 28 34 16 13 11 28 13 30 24 38 4 4 12 24 34 16 38 8 38 38 11 11
split_gain=355555 136796 129171 91949.6 135561 42557 34015.7 20424.4 15741.7 15735.4 14586.2 11203.3 10040.1 9933.41 6813.78 6250.94 5347.94 4170.42 4048.9 3325.75 3084.66 2217.24 3920.53 1882.58 5395.77 1729.18 1406.1 1344.56 792.766 1613.64
threshold=2.5000000000000004 1.5000000000000002 1.5000000000000002 2.5000000000000004 5085.5000000000009 25.500000000000004 47.062500000000007 52.500000000000007 1.5000000000000002 2.5000000000000004 8865.5000000000018 0 32.006172839506156 1.0000000180025095e-35 1 1.5000000000000002 11.500000000000002 13551.000000000002 0.086010720854356362 0.035242206516284305 11.324561403508751 3.5000000000000004 2.5000000000000004 13487.000000000002 44576.500000000007 2.5000000000000004 43021.500000000007 22097.500000000004 61.633333333333361 52.071428571428562
decision_type=2 2 2 2 2 2 2 2 2 2 2 9 2 2 9 2 2 2 2 2 2 2 2 2 2 2 2 2 2 2
left_child=2 6 3 4 5 13 11 -7 12 10 16 15 -6 -1 -10 17 19 -2 -17 -3 27 22 -13 -4 -25 -23 -22 -5 29 -8
right_child=1 9 23 20 8 7 28 -9 14 -11 -12 21 -14 -15 -16 18 -18 -19 -20 -21 26 25 -24 24 -26 -27 -28 -29 -30 -31
leaf_value=-3.1024941797042866 -3.5413801108894001 -4.2455209363104291 -2.6983076687048899 -3.3725960633739702 -4.009454031858807 -3.2722665503095087 -3.2912159171728894 -3.7259894754018394 -3.4260166539392052 -2.7739866270261122 -4.254436897291531 -4.1501678507621147 -3.4625975531451356 -2.7606657419196434 -4.1528922665144528 -4.2484761626777363 -4.2493005179927561 -4.0810225853501647 -3.1074094566803163 -3.0362875011860231 -2.694785952084862 -4.2455590550494069 -3.5124123894176575 -2.9759351821436777 -4.2489412821173245 -3.609130325803565 -3.2049670968098489 -4.2455851373456603 -2.798525168214268 -4.2449796205362631
leaf_weight=152.53329239040613 11.055626085028051 1.4682792574167312 297.06541605480015 2.9172641951590768 193.83922096900642 346.76124365441501 4.368837257847189 80.069460963830352 55.598847225308418 52.386047774925828 10.743851104751228 47.612485002726316 22.856921743601561 118.60498257726431 24.772036219015718 2.3435995839536181 2.7106693983077994 38.27785275131464 9.4974621590226871 27.210230251774192 148.80542226321995 307.31696678325534 5.9641791433095923 9.7631173599511367 2.5412525609135619 1.6915802489966143 12.106716943904756 1.4823973271995781 9.6334666069596988 1.3553346991538999
leaf_count=3819 444 104 2731 71 11831 11066 106 3976 1768 591 761 3169 873 1348 1619 166 192 2440 198 571 1317 21632 219 149 180 52 315 105 72 96
internal_value=-3.37185 -3.92532 -3.17124 -3.29388 -3.38625 -3.19593 -4.11212 -3.35599 -3.83538 -3.06783 -3.45855 -4.1555 -3.94849 -2.9481 -3.53767 -3.87159 -3.19376 -3.94873 -3.31718 -3.09667 -2.74637 -4.21462 -4.06725 -2.71575 -3.22059 -4.24007 -2.72658 -3.61534 -2.99331 -3.48584
internal_weight=2003.35 533.636 1469.72 1160.35 995.036 697.969 439.117 426.831 297.067 94.5191 42.133 423.76 216.696 271.138 80.3709 61.1745 31.3892 49.3335 11.8411 28.6785 165.312 362.585 53.5767 309.37 12.3044 309.009 160.912 4.39966 15.3576 5.72417
internal_count=71981 30813 41168 38108 36300 20209 28594 15042 16091 2219 1628 28320 12704 5167 3387 3248 867 2884 364 675 1808 25072 3388 3060 329 21684 1632 176 274 202
cat_boundaries=0 1 2
cat_threshold=1314818 77083097
is_linear=0
shrinkage=1


Tree=1
num_leaves=31
num_cat=2
split_feature=23 28 23 28 13 32 11 17 23 21 11 37 13 23 28 8 11 20 12 11 24 17 11 11 4 11 12 11 12 22
split_gain=45088 17493 7337.01 11532.5 5798.23 6542.82 5518.13 4267.2 4036.11 8250.73 3612.46 3220.89 2101.93 2073.81 2030.6 2024.1 1926.49 1831.05 1826.71 1791.99 2312.44 1709.88 1553.88 1441.63 1430.35 2025.04 1400.34 1377.13 2953.12 1295.41
threshold=2.5000000000000004 3.5000000000000004 1.0000000180025095e-35 1.0000000180025095e-35 0 1.0000000180025095e-35 20.337301587301553 3832.0000000000005 8.5000000000000018 1.0000000180025095e-35 22.707142857142852 6282.5000000000009 1 1.5000000000000002 9.5000000000000018 2.5000000000000004 9.9128787878787907 1.0000000180025095e-35 36.068181818181806 14.751404494382003 1.5000000000000002 7559.0000000000009 16.222953216374254 24.429129464285705 0.00011365252810270001 22.904545454545453 10.906158357771252 16.472953216374254 14.845238095238102 1.5000000000000002
decision_type=2 2 2 2 9 2 2 2 2 2 2 2 9 2 2 2 2 2 2 2 2 2 2 2 2 2 2 2 2 2
left_child=2 4 19 6 5 21 12 -7 11 -10 29 26 16 23 -13 -14 -4 -5 -9 20 -1 -2 -23 -8 -12 -26 -3 28 -21 -6
right_child=1 8 3 17 10 7 13 18 9 -11 24 14 15 -15 -16 -17 -18 -19 -20 27 -22 22 -24 -25 25 -27 -28 -29 -30 -31
leaf_value=0.35031591917620641 -0.018282822368468305 -0.020635002446350317 -0.023651270076479797 0.304185835735303 -0.019956282280727697 0.47729534117370848 0.56126675405261506 0.067666238742165458 -0.025077259828906441 0.37675028807816036 0.35158325902019438 0.073772828161711421 0.01190803302471017 0.10588153706464221 0.31207463436399924 0.432548288438458 0.32503490254963741 0.37668658727460952 0.38093453211453265 0.39912362357506309 0.10331585386316751 0.79835950944264 0.32061462410107966 0.30685645027156894 0.34458328642112157 -0.024786867198577308 0.42916534785567884 0.37442783908681532 0.54349066178117944 0.45553109259400104
leaf_weight=574.78891545347869 2.7759718680754331 4.3386036846786729 12.579217460937796 389.30978831276298 313.24091931153089 19.554208909161389 19.556004944257438 146.60213764477521 63.43563746381551 63.058015077374876 21.841834131628275 33.718327105045319 136.78116765525192 25.264230583794415 70.24169092439115 6.5493654552847138 43.195605836808681 630.67916573490947 11.738274428993462 735.16802133154124 25.799811748787761 13.642594465985896 8.9894627109169942 71.367750387638807 12.969229595735667 27.224191681481898 165.22528071049601 1342.3817206127569 110.79696723632514 2.6229537650942794
leaf_count=5775 118 169 540 3670 18761 157 372 6482 3969 297 471 1112 5795 769 836 8 1103 3988 191 5640 856 156 117 910 50 1310 811 7121 394 33
internal_value=0.321122 0.16855 0.357371 0.308439 0.0807425 0.184234 0.175422 0.137822 0.295604 0.176601 0.0193471 0.349785 0.0947132 0.31172 0.236247 0.0318062 0.210281 0.349342 0.0931504 0.380679 0.339899 0.561336 0.630302 0.367113 0.192666 0.099809 0.417588 0.391709 0.418654 -0.0145748
internal_weight=5105.44 981.219 4124.22 1335.28 581.202 203.303 315.293 177.895 400.018 126.494 377.899 273.524 199.105 116.188 103.96 143.331 55.7748 1019.99 158.34 2788.94 600.589 25.408 22.6321 90.9238 62.0353 40.1934 169.564 2188.35 845.965 315.864
internal_count=71981 35040 36941 17155 27846 7221 9497 6830 7194 4266 20625 2928 7446 2051 1948 5803 1643 7658 6673 19786 6631 391 273 1282 1831 1360 980 13155 6034 18794
cat_boundaries=0 1 2
cat_threshold=103878973 9506824
is_linear=0
shrinkage=0.025


Tree=2
num_leaves=31
num_cat=2
split_feature=23 28 13 13 11 38 2 23 23 28 0 4 16 11 20 11 17 28 12 12 4 39 20 11 17 11 36 9 17 39
split_gain=19769.1 9952.9 4089.78 3076.41 2853.38 2669.14 2559.11 3288.08 1901.57 1883.23 1645.28 2117.07 1475.83 1466.92 1380.2 2253.9 1325.42 1284.79 1291.77 1209.07 1053.79 1036.63 1108.16 1015.94 995.517 863.592 861.155 771.884 694.142 662.003
threshold=2.5000000000000004 3.5000000000000004 0 1 22.707142857142852 28007.500000000004 22.500000000000004 1.5000000000000002 39.500000000000007 2.5000000000000004 17251.000000000004 0.48235237757005955 1410.0000000000002 20.218070652173903 1.0000000180025095e-35 7.9934210526315814 7490.5000000000009 1.5000000000000002 6.8397435897435912 8.9588709677419356 0.0081074596162803523 0.28236111111111156 2.5000000000000004 16.683014354067002 21297.500000000004 38.612500000000004 3394.0000000000005 1.5000000000000002 9687.5000000000018 1.0288888888888852
decision_type=2 2 9 9 2 2 2 2 2 2 2 2 2 2 2 2 2 2 2 2 2 2 2 2 2 2 2 2 2 2
left_child=3 2 5 6 29 19 7 14 10 27 24 -12 26 -7 15 -1 -13 18 -14 -2 -15 -6 -23 -21 -3 -20 -5 -9 -11 -4
right_child=1 8 4 12 21 13 -8 9 -10 28 11 16 17 20 -16 -17 -18 -19 25 23 -22 22 -24 -25 -26 -27 -28 -29 -30 -31
leaf_value=-0.02488159978860667 -0.023384765651281295 0.27299582586514842 0.22857447182506274 0.29962020408718287 0.66151644579641777 -0.0015601773902306857 0.27161452395364621 0.01076044970557071 -0.02398323459760604 0.24810012224363481 0.014091365510402874 0.072416047629030519 -0.023835608235697959 -0.023732498390917275 0.26023683114520191 0.20985005646977195 0.2516772784263992 0.27146696951697835 0.19933071668116595 0.30682641394688059 0.23658972174859649 0.10262008449781097 0.42366890679780689 0.1331939287821125 -0.022289390921419294 0.2617364494806787 0.25408985329338268 0.2043348822126379 -0.022453271523495424 -0.019810944139471598
leaf_weight=25.950833638198674 10.056531857699154 297.2873023012653 5.8587213968858114 1296.0368909956887 1.5375858601182688 71.705978713929653 528.70157870370895 93.003175078891218 19.069125144742429 49.121591193601489 42.365839026868343 33.906972042284906 12.575631212443112 12.654602473601697 394.33803510293365 1097.7296974165365 122.65465339459479 1139.5622352622449 311.42886535823345 81.684101668186486 38.370658988133073 65.823394223116338 6.7039547478780142 31.498218558728695 7.1460644211620084 296.79488402977586 390.38900120742619 13.975062775425611 6.5234491080045691 305.43979145120829
leaf_count=947 406 1807 229 6716 9 3615 1133 3224 1361 285 1621 643 485 563 1972 12040 1400 2820 5158 1116 806 1756 66 715 362 857 1007 94 203 18565
internal_value=0.233633 0.139121 0.0721435 0.252884 0.0184222 0.149101 0.222037 0.207608 0.219763 0.0998647 0.229032 0.171387 0.271155 0.0717054 0.219075 0.20441 0.213576 0.255214 0.224987 0.23696 0.172765 0.157264 0.137688 0.260117 0.266006 0.230167 0.289239 0.0377293 0.216502 -0.0144113
internal_weight=6809.89 1153.76 631.334 5656.13 385.363 245.97 2209.34 1680.64 522.43 162.623 503.361 198.927 3446.79 122.731 1518.02 1123.68 156.562 1760.36 620.799 123.239 51.0253 74.0649 72.5273 113.182 304.433 608.224 1686.43 106.978 55.645 311.299
internal_count=71981 35040 27846 36941 20625 7221 19898 18765 7194 3806 5833 3664 17043 4984 14959 12987 2043 9320 6500 2237 1369 1831 1822 1831 2169 6015 7723 3318 488 18794
cat_boundaries=0 1 2
cat_threshold=103878973 7062700
is_linear=0
shrinkage=0.025


Tree=3
num_leaves=31
num_cat=4
split_feature=23 11 24 28 11 10 28 13 22 36 23 10 1 13 36 8 23 28 11 16 22 12 4 13 10 36 12 13 12 24
split_gain=11282.9 8457.6 4697.07 3747.33 3911.68 1669.48 2415.01 1637.54 1544.61 1290.01 1025.57 790.439 784.151 853.626 608.29 551.441 524.017 2003.53 1968.2 770.96 506.811 498.695 953.807 441.398 621.715 300.153 283.237 276.401 739.586 255.079
threshold=6.5000000000000009 23.279220779220804 1.0000000180025095e-35 1.5000000000000002 13.993006993007002 61.500000000000007 1.0000000180025095e-35 0 1.0000000180025095e-35 2630.5000000000005 1.5000000000000002 54.500000000000007 127.50000000000001 1 4095.5000000000005 1.5000000000000002 1.0000000180025095e-35 1.0000000180025095e-35 27.880357142857154 20097.500000000004 1.5000000000000002 36.535714285714306 0.48795491611426306 2 20.500000000000004 13703.500000000002 11.354166666666652 3 23.702941176470603 6.5000000000000009
decision_type=2 2 2 2 2 2 2 9 2 2 2 2 2 9 2 2 2 2 2 2 2 2 2 9 2 2 2 9 2 2
left_child=2 20 5 4 12 16 -7 8 -6 -3 -9 14 13 -4 29 -16 23 18 -18 -19 27 22 -11 24 -1 -25 -8 28 -2 -5
right_child=1 9 3 11 7 6 26 10 -10 21 -12 -13 -14 -15 15 -17 17 19 -20 -21 -22 -23 -24 25 -26 -27 -28 -29 -30 -31
leaf_value=0.22593334671866502 -0.021805491613595455 -0.024089310185879436 0.1430634762082158 0.22152220861052707 0.0074134941388837722 0.020299093049855207 0.33735061860772042 0.18564855435359864 0.19199571441824373 -0.024026605648269736 0.10711827314250957 -0.024131041733248943 0.31045742969829709 -0.0238220033047974 0.15441252947111953 0.19430521477132223 0.099412560147069437 0.21301999244102687 0.23354396264971569 -0.02301801979017308 0.17517590549687204 0.26580194245731797 0.20342240428797062 0.21901040335181698 0.063038544403691749 0.19791642296128931 0.19472121005191589 -0.024568292618560403 0.40947652896505976 0.097719436891030034
leaf_weight=19.455627612769604 6.2766509633511305 15.130264934152363 10.998227623291314 385.73291165009141 102.21959404181689 73.612260673195124 13.226080402731894 459.61907495371997 38.263503409922123 12.832572015933691 141.12103606201708 10.570998553186653 4.1740665435791007 137.52220571320504 378.0655932975933 634.0398978497833 232.07778177130967 1078.5140474708751 98.020486290566623 8.5123020512983185 7.6058610817417494 75.353185303509235 95.823412102647126 3224.7940976563841 56.544151203706861 631.0215621907264 53.215559716336429 280.37500263098627 3.0042631039395928 13.050147960893808
leaf_count=29 329 698 108 1421 3312 1737 25 3790 163 513 4367 280 1 6571 4212 1784 5938 3899 426 287 42 126 347 12017 684 1051 193 17261 15 355
internal_value=0.186323 0.0705615 0.193675 0.163601 0.123214 0.206329 0.11964 0.146921 0.0548321 0.196201 0.164677 0.188893 0.00790773 -0.002598 0.190507 0.179573 0.208576 0.19465 0.139835 0.21115 -0.0139728 0.21436 0.176563 0.213543 0.0948463 0.215054 0.227732 -0.0195338 0.0729001 0.217732
internal_weight=8300.77 496.401 7804.37 2315.38 893.918 5488.99 140.054 741.223 140.483 199.139 600.74 1421.46 152.694 148.52 1410.89 1012.11 5348.94 1417.12 330.098 1087.03 297.262 184.009 108.656 3931.82 75.9998 3855.82 66.4416 289.656 9.28091 398.783
internal_count=71981 19331 52650 26364 18312 26286 1955 11632 3475 1684 8157 8052 6680 6679 7772 5996 24331 10550 6364 4186 17647 986 860 13781 713 13068 218 17605 344 1776
cat_boundaries=0 1 2 3 4
cat_threshold=25785742 4096 4260896 67108864
is_linear=0
shrinkage=0.025


Tree=4
num_leaves=31
num_cat=4
split_feature=23 11 24 28 11 34 13 10 28 36 4 10 1 20 11 13 10 9 4 10 11 13 24 10 11 10 23 18 10 39
split_gain=7381.47 6537.23 2753.04 2446.13 2896.29 1281.49 2772.39 1004.5 1717.18 903.184 679.465 763.922 711.238 592.559 1000.21 1833.32 568.381 460.315 571.214 428.47 808.236 379.886 354.938 480.028 297.471 573.779 288.797 248.971 501.06 235.918
threshold=6.5000000000000009 23.279220779220804 1.0000000180025095e-35 1.5000000000000002 13.993006993007002 2.5000000000000004 0 61.500000000000007 1.0000000180025095e-35 2630.5000000000005 0.28068666252931057 22.500000000000004 127.50000000000001 1.5000000000000002 13.288690476190501 1 54.500000000000007 1.5000000000000002 0.85202466012583067 28.500000000000004 35.041666666666657 2 9.5000000000000018 22.500000000000004 11.989361702127651 27.500000000000004 15.500000000000002 3 66.500000000000014 1.6106944444444453
decision_type=2 2 2 2 2 2 9 2 2 2 2 2 2 2 2 9 2 2 2 2 2 9 2 2 2 2 2 9 2 2
left_child=2 17 7 4 10 6 -6 13 27 -3 12 -12 -4 14 15 -1 19 -2 -19 29 -21 -16 -11 -24 25 -15 -20 28 -9 -5
right_child=1 9 3 16 5 -7 -8 8 -10 22 11 -13 -14 24 21 -17 -18 18 26 20 -22 -23 23 -25 -26 -27 -28 -29 -30 -31
leaf_value=0.18368456777489459 -0.025382822499871255 -0.024033647806496292 -0.02549445954153795 0.25588453158952351 0.12751162203458696 0.16521636545177665 -0.023372777693536767 -0.024354257044782383 0.18611674007092827 0.19123905555105614 0.27975226815666543 -0.023263845110277768 0.24389497450090519 0.16900480242076421 0.19432810085975963 0.057440784755904153 -0.024047378834174057 -0.024510432503469536 -0.020071137174954928 0.11822884539253542 0.17067472231445582 0.16400918104834827 0.16149015539454542 -0.024470719385218685 0.18437623134322426 0.2723008374479981 0.22683618046483739 -0.020824767698462861 0.17100820167505704 0.16924153739704698
leaf_weight=169.56571267079562 258.35335515812039 14.792733867652712 127.29800154175609 23.360894971527159 414.57011510245502 327.98016119934618 95.498848117887974 14.945650281384589 79.326673205941916 179.40331251546741 10.303064127452673 9.3408062970265728 5.4339771270751944 68.740544440224767 1189.5788001548499 176.04590401612222 10.348855620250104 18.545939926058054 3.5637113964185128 376.63995710667223 387.72635490633547 4093.421688371338 26.280707174912095 12.341417948715387 540.44522345531732 85.131397674791515 12.619155201129615 43.473083820194006 16.569859582930803 852.73145208042115
leaf_count=1205 16605 698 6266 57 7285 1019 3328 377 218 488 55 358 1 88 2748 3425 280 865 116 3954 703 16083 63 435 713 69 61 1093 267 3058
internal_value=0.156015 0.0647707 0.16127 0.139578 0.108277 0.126487 0.101304 0.170092 0.105782 0.163363 0.00793683 0.141397 -0.0127058 0.171644 0.168819 0.126694 0.158279 -0.0138294 0.0703533 0.159445 0.145024 0.17155 0.176141 0.102887 0.194264 0.22756 0.174314 0.0194352 0.0614775 0.171844
internal_weight=9644.38 525.9 9118.48 2641.23 990.425 838.049 510.069 6477.24 154.315 232.818 152.376 19.6439 132.732 6322.93 5628.61 345.612 1650.81 293.082 34.7288 1640.46 764.366 5283 218.025 38.6221 694.317 153.872 16.1829 74.9886 31.5155 876.092
internal_count=71981 19331 52650 26364 18312 11632 10613 26286 1955 1684 6680 413 6267 24331 23461 4630 8052 17647 1042 7772 4657 18831 986 498 870 157 177 1737 644 3115
cat_boundaries=0 1 2 3 4
cat_threshold=116822097 1114913 117448786 8
is_linear=0
shrinkage=0.025


Tree=5
num_leaves=31
num_cat=2
split_feature=23 28 13 39 24 6 24 11 13 2 23 36 22 38 20 23 38 11 24 10 39 36 17 36 17 23 0 5 39 39
split_gain=5211.86 3739.56 1554.52 1518.44 1085.91 1511.3 996.131 973.336 863.539 1073.58 1197.72 854.524 812.314 765.717 762.773 881.062 1137.32 758.474 1551.15 706.509 634.34 609.098 575.426 557.735 549.953 445.463 420.963 370.981 315.152 544.548
threshold=2.5000000000000004 1.5000000000000002 0 7.0005555555555556 11.500000000000002 1.5000000000000002 2.5000000000000004 22.707142857142852 1 22.500000000000004 1.5000000000000002 2185.5000000000005 1.5000000000000002 28007.500000000004 2.5000000000000004 5.5000000000000009 125156.00000000001 42.066666666666656 1.5000000000000002 67.500000000000014 12.289027777777802 1.0000000180025095e-35 9687.5000000000018 8832.0000000000018 21666.000000000004 3.5000000000000004 19250.500000000004 1.5000000000000002 10.557361111111151 10.484166666666651
decision_type=2 2 9 2 2 2 2 2 9 2 2 2 2 2 2 2 2 2 2 2 2 2 2 2 2 2 2 2 2 2
left_child=8 2 6 13 14 -6 20 12 9 10 17 27 -5 25 15 24 -17 18 -1 -10 -2 -22 -13 -9 -3 -4 -7 -12 29 -21
right_child=1 4 3 7 5 26 -8 23 19 -11 11 22 -14 -15 -16 16 -18 -19 -20 28 21 -23 -24 -25 -26 -27 -28 -29 -30 -31
leaf_value=0.12525269925029664 -0.022896170666194218 0.13597437949563843 -0.01948542770498593 -0.025523130914730591 -0.025078391216208685 0.14765442952680249 -0.0239645573153257 0.013244777288649571 0.15068152594165207 0.1534757157484693 -0.0066773134123422938 0.12916455269732133 0.27242859703871991 -0.022843733668377234 0.16099806767030547 0.017995530570413736 0.15547311469113811 0.15478950946225903 0.036889742345762672 -0.021857286761065721 0.24910732954444212 -0.022302210974437492 -0.024953235316852895 0.14326954192702238 -0.024287579692072736 0.28393699022782509 -0.024242103515229325 0.15920324799375685 -0.025012016519657211 0.33797983279454846
leaf_weight=1897.0129298977554 7.3210852891206732 428.58761828020215 3.3395647946745184 299.60474907699972 73.605872803367674 76.9171625925228 16.548227541148663 42.710749706253409 5627.1188313076273 884.39242158271372 88.137712707743049 108.32137925643474 4.8332654088735572 8.9257135642692429 316.62125398032367 114.53594332467765 55.264413530938327 485.79020552150905 134.03531195688993 5.5536047760397214 48.963537990115583 5.5707264840602866 17.20466888230294 39.358123515732586 13.497546507045625 21.235855959355831 9.7324309954419714 8.3077269271016103 21.211647840216756 3.7864538468420506
leaf_count=11695 218 2856 119 17037 4876 172 896 1252 16062 1169 2762 615 23 499 1362 3392 459 740 2799 129 406 141 472 389 410 231 302 13 480 5
internal_value=0.134773 0.0927898 0.0359699 0.0145707 0.118742 0.0580981 0.130657 0.00072335 0.141941 0.128917 0.121403 0.0652563 -0.0199082 0.173829 0.129132 0.112403 0.0634029 0.126326 0.119444 0.149765 0.192573 0.221435 0.107991 0.0766055 0.131032 0.243457 0.128262 0.00907297 0.0289659 0.142357
internal_weight=10868 1587.17 498.412 420.008 1088.76 160.255 78.4036 386.507 9280.87 3623.2 2738.81 221.971 304.438 33.5011 928.507 611.886 169.8 2516.84 2031.05 5657.67 61.8553 54.5343 125.526 82.0689 442.085 24.5754 86.6496 96.4454 30.5517 9.34006
internal_count=71981 35040 21211 19550 13829 5350 1661 18701 36941 20265 19096 3862 17060 849 8479 7117 3851 15234 14494 16676 765 547 1087 1641 3266 350 474 2775 614 134
cat_boundaries=0 1 2
cat_threshold=35721265 23839916
is_linear=0
shrinkage=0.025


Tree=6
num_leaves=31
num_cat=1
split_feature=23 11 13 24 8 11 28 11 33 39 36 39 16 11 9 17 36 9 39 12 28 12 12 19 16 23 24 16 22 12
split_gain=3884.6 4502.2 1497.21 1497.94 2146.7 2109.72 858.467 1326.69 821.974 616.373 573.677 435.882 424.404 955.123 398.514 318.365 290.986 681.248 251.69 271.314 578.986 575.779 262.464 337.688 199.467 190.3 182.496 386.268 168.937 232.13
threshold=6.5000000000000009 23.279220779220804 0 1.0000000180025095e-35 1.5000000000000002 45.045454545454554 1.0000000180025095e-35 13.993006993007002 1.5000000000000002 1.0288888888888852 2630.5000000000005 8.4451388888888932 21875.500000000004 42.066666666666656 1.5000000000000002 14416.500000000002 10008.500000000002 1.5000000000000002 21.160000000000004 8.9588709677419356 1.5000000000000002 11.354166666666652 15.341666666666653 0.16446280991735554 13487.000000000002 15.500000000000002 9.5000000000000018 21145.500000000004 1.0000000180025095e-35 12.679487179487202
decision_type=2 2 9 2 2 2 2 2 2 2 2 2 2 2 2 2 2 2 2 2 2 2 2 2 2 2 2 2 2 2
left_child=2 14 3 6 5 8 7 9 -5 -1 -3 -9 18 -14 -2 -16 24 -18 19 20 -4 -21 -20 -24 -8 -17 -12 -28 29 -6
right_child=1 10 12 4 28 -7 16 11 -10 -11 26 -13 13 -15 15 25 17 -19 22 21 -22 -23 23 -25 -26 -27 27 -29 -30 -31
leaf_value=0.25034741527091642 -0.025380227012854552 -0.024082763719330255 0.014378627978308633 0.054463034459502173 -0.024074778367114209 0.1321026796530593 0.13925628925317496 0.15031389200640571 -0.014308516152114077 -0.0059931907438169479 0.14287435971803084 0.10612459184539146 -0.025345184009701285 0.15659027493500383 -0.024526160649890803 -0.02074498392505807 0.063974690128824632 0.12973287490779464 0.14796049358459068 0.19364167806032512 0.12332148363236278 0.12945219675169731 -0.025108902010496405 0.1193464065542542 0.055322224782645701 0.1530682969403627 -0.025021906931889396 0.13156469659937195 0.13668730146081495 0.11265376363694664
leaf_weight=5.2974170148372641 252.08627317100763 14.901660533621905 40.884687250480056 485.12702424731106 7.5777982622385016 201.499078001827 1232.3850902896374 163.11413356103003 139.3451593015343 84.154468160122633 228.69975415244699 1330.6976902000606 34.511663383804262 36.185374222695827 16.125311365351081 4.6519005056470659 128.46565923839808 473.13931125961244 892.73679610155523 92.27956635504961 122.98694971576333 5202.1955286711454 11.849613003432749 56.80204211268574 19.840182386338711 18.085851019248366 13.756426948122678 31.117115842178464 308.92859621811658 349.88834124989808
leaf_count=28 16605 698 928 11744 143 396 2217 728 3683 2155 488 7555 1078 42 626 240 770 561 2105 562 366 15676 215 144 237 176 426 72 260 1057
internal_value=0.118847 0.0555538 0.122053 0.109845 0.0889981 0.061935 0.119187 0.105452 0.039115 0.0117598 0.125361 0.111049 0.130935 0.0686265 -0.0138439 0.0596836 0.130854 0.115825 0.131814 0.129599 0.0964083 0.130608 0.144239 0.0943743 0.137974 0.118027 0.133569 0.084008 0.122395 0.109689
internal_weight=11999.3 579.424 11419.9 4929.46 1492.37 825.971 3437.09 1583.26 624.472 89.4519 288.475 1493.81 6490.43 70.697 290.949 38.8631 1853.83 601.605 6419.74 5458.35 163.872 5294.48 961.388 68.6517 1252.23 22.7378 273.573 44.8735 666.395 357.466
internal_count=71981 19331 52650 31534 17283 15823 14251 10466 15427 2183 1684 8283 21116 1120 17647 1042 3785 1331 19996 17532 1294 16238 2464 359 2454 416 986 498 1460 1200
cat_boundaries=0 1
cat_threshold=28034692
is_linear=0
shrinkage=0.025


Tree=7
num_leaves=31
num_cat=2
split_feature=24 11 24 28 11 18 28 11 16 2 2 34 16 39 39 14 7 36 12 6 11 11 37 28 40 11 12 28 11 4
split_gain=2514.4 2830.27 1070.68 1292.6 1846.77 668.268 926.602 1168.03 716.395 628.3 570.524 535.086 1195.07 492.655 476.051 473.535 480.677 452.416 611.176 402.677 344.311 288.612 405.625 376.853 270.959 263.779 250.361 686.093 290.377 225.139
threshold=6.5000000000000009 25.027777777777803 1.0000000180025095e-35 1.5000000000000002 13.993006993007002 0 1.0000000180025095e-35 13.288690476190501 15090.500000000002 36.500000000000007 37.500000000000007 2.5000000000000004 11836.000000000002 7.548055555555556 1.0288888888888852 1 3.5000000000000004 5432.5000000000009 12.679487179487202 1.5000000000000002 13.818813131313101 34.025000000000006 50657.500000000007 72.000000000000014 1.5000000000000002 112.50000000000001 12.679487179487202 1.5000000000000002 7.0159574468085113 0.47761057562256409
decision_type=2 2 2 2 2 9 2 2 2 2 2 2 2 2 2 9 2 2 2 2 2 2 2 2 2 2 2 2 2 2
left_child=2 9 5 4 15 6 7 14 17 19 -11 12 -6 -9 -1 -4 -17 18 -7 -2 -21 22 24 -24 -5 -10 27 -8 -28 -3
right_child=1 29 3 21 11 8 26 13 25 10 -12 -13 -14 -15 -16 16 -18 -19 -20 20 -22 -23 23 -25 -26 -27 28 -29 -30 -31
leaf_value=0.19632135237144127 -0.025347265996537249 0.071548420972937676 0.091381326024865484 0.09723784915629452 0.085972167519543896 0.17938552520210616 -0.026741079174507416 0.13732346620244559 -0.025786519057259316 0.38969781064933096 0.06111693563575045 0.1112974684675133 -0.025658423648189699 0.094210034730430159 -0.0070879963889771101 -0.025637465418700413 0.16014914638496569 0.11056867932030486 0.12747761001959915 0.1254351891799996 -0.025214784672045167 0.11904979316131892 -0.026415617001593603 0.15465846161615274 0.12969542865202244 0.11377640750523682 0.15094720233748185 0.10832695388318239 0.11511120048728943 0.12097831271985378
leaf_weight=6.8087002206593743 222.07316269539297 85.244558827020228 20.4042559992522 1031.511658702977 574.99497960880399 156.69752346072346 28.51189402770251 185.59116995707154 27.447652930393815 3.1931329267099526 18.366562035866082 412.58580179698765 66.416210336610675 2054.6258098948747 90.052239945158362 151.86736375465989 8.2341442108154279 1033.5935398796573 2498.6723451307043 21.476185202598572 15.865889674052594 954.22140339110047 28.515201911330223 8.5066333562135679 204.28910509962589 11.067217297852038 160.9302830491215 123.50958474911749 2610.7617539186031 226.62959537003189
leaf_count=34 14786 1205 171 6157 8045 814 499 576 708 3 291 986 2446 9961 2362 7094 1 1350 6232 151 478 1210 586 3 598 2 160 377 4257 438
internal_value=0.106482 0.0560266 0.10888 0.09695 0.076287 0.113463 0.105839 0.0941688 0.123574 -0.00155184 0.12501 0.0889299 0.0743873 0.0978426 0.00904484 0.00236616 -0.0142476 0.125026 0.130608 -0.0125195 0.0623736 0.108364 0.100263 0.018098 0.102706 0.0161179 0.115494 0.0829692 0.117247 0.107747
internal_weight=13042.7 592.849 12449.8 3461.55 1234.5 8988.27 5260.79 2337.08 3727.48 280.975 21.5597 1054 641.411 2240.22 96.8609 180.506 160.102 3688.96 2655.37 259.415 37.3421 2227.04 1272.82 37.0218 1235.8 38.5149 2923.71 152.021 2771.69 311.874
internal_count=71981 17352 54629 27297 18743 27332 18226 12933 9106 15709 294 11477 10491 10537 2396 7266 7095 8396 7046 15415 629 8554 7344 589 6755 710 5293 876 4417 1643
cat_boundaries=0 1 2
cat_threshold=76 1
is_linear=0
shrinkage=0.025


Tree=8
num_leaves=31
num_cat=2
split_feature=23 28 13 32 38 12 9 13 39 12 22 21 24 10 28 23 10 10 17 37 17 38 24 16 0 37 28 19 10 17
split_gain=2508.44 2185.4 1946.96 988.093 987.047 1041.72 766.869 926.067 760.383 901.016 919.033 565.473 1008.87 627.094 444.573 1065.88 1084.04 812.476 438.085 403.971 389.235 324.514 298.886 298.315 283.586 400.555 266.932 241.961 380.024 229.464
threshold=2.5000000000000004 4.5000000000000009 0 1.0000000180025095e-35 19220.500000000004 23.702941176470603 2.5000000000000004 1 1.0288888888888852 20.379807692307704 1.5000000000000002 1.0000000180025095e-35 1.0000000180025095e-35 40.500000000000007 1.0000000180025095e-35 1.0000000180025095e-35 59.500000000000007 77.500000000000014 4641.5000000000009 66679.000000000015 9066.0000000000018 196571.00000000003 3.5000000000000004 11586.000000000002 24342.500000000004 70354.000000000015 1.5000000000000002 0.18274582560296851 44.500000000000007 14296.000000000002
decision_type=2 2 9 2 2 2 2 9 2 2 2 2 2 2 2 2 2 2 2 2 2 2 2 2 2 2 2 2 2 2
left_child=6 2 3 23 22 -6 7 11 18 10 -10 12 13 -1 15 16 -9 -17 -4 21 -11 27 -5 -2 25 -16 -26 28 -3 -25
right_child=1 19 8 4 5 -7 -8 14 9 20 -12 -13 -14 -15 24 17 -18 -19 -20 -21 -22 -23 -24 29 26 -27 -28 -29 -30 -31
leaf_value=0.085642735055984118 0.10076906275208641 0.091824934716902007 0.2488952300014361 0.11776930022372961 -0.0058689373296559808 0.10494222691564188 0.11951243471787434 0.10211540600424385 -0.025735191760650436 -0.02561507714872524 0.15196017964811448 0.10377742829809095 -0.026928332919703424 0.01747958426624854 0.10765522423010121 0.059315528011192213 0.0270615485496776 0.42399023123155005 -0.021245746961804562 -0.024994293580482368 0.088544659181998497 -0.023763504579389864 -0.023357764898595923 0.24824050875964154 0.057770698586733518 0.2014449200104961 0.09831742272325858 0.11357782420296972 -0.025361610352437221 0.13499223730040927
leaf_weight=343.64411422237754 51.993394359946251 379.47691333759576 11.546038572676482 151.40979382954538 166.44553724676371 76.718107976019382 1253.1757884267718 3400.2827171459794 349.98703027982265 23.148234345018864 18.192172106355429 202.97113578021526 80.206206545233727 112.61892072297633 4607.1782431565225 552.82262197788805 125.66755961626768 2.8764724656939498 5.1181201301515094 16.067179371602833 87.228378913365304 12.686639492399989 9.6416620817035419 24.047696877270937 116.30336709693074 29.048756895586848 1249.1702372133732 500.10816508904099 17.682733060792089 30.608217277564108
leaf_count=1606 275 2409 30 719 5539 805 487 10868 19128 754 66 205 1805 1177 8260 8022 1548 26 224 632 1303 828 335 33 596 37 2304 1257 589 114
internal_value=0.0965718 0.0700414 0.0444586 0.0779966 0.0613781 0.0293684 0.10081 0.0986335 0.00803502 0.00224128 -0.0165604 0.0672747 0.0545436 0.0688986 0.100759 0.0943634 0.0994496 0.0619659 0.169279 0.0977554 0.0645656 0.0999506 0.109213 0.14705 0.10526 0.108287 0.0949105 0.101727 0.0865506 0.18843
internal_weight=14008.1 1932.11 1006.08 510.864 404.215 243.164 12076 10822.8 495.22 478.556 368.179 739.44 536.469 456.263 10083.3 4081.65 3525.95 555.699 16.6642 926.022 110.377 909.954 161.051 106.649 6001.7 4636.23 1365.47 897.268 397.16 54.6559
internal_count=71981 35040 29325 7820 7398 6344 36941 36454 21505 21251 19194 4793 4588 2783 31661 20464 12416 8048 254 5715 2057 5083 1054 422 11197 8297 2900 4255 2998 147
cat_boundaries=0 1 2
cat_threshold=108073277 83076
is_linear=0
shrinkage=0.025


Tree=9
num_leaves=31
num_cat=1
split_feature=23 4 19 39 11 9 18 11 38 10 10 12 8 2 17 17 11 4 24 10 0 17 11 10 39 19 38 10 17 12
split_gain=2018.91 1769.3 995.394 685.128 725.853 646.722 722.141 677.909 865.739 755.059 517.24 445.049 429.342 407.655 397.19 390.694 389.37 487.018 690.608 325.725 319.185 612.731 245.103 225.474 383.593 196.02 148.902 142.469 119.082 79.6031
threshold=2.5000000000000004 0.17742193035409051 0.18274582560296851 7.0005555555555556 40.038461538461554 2.5000000000000004 0 41.033333333333353 30772.500000000004 60.500000000000007 30.500000000000004 8.9588709677419356 2.5000000000000004 2.5000000000000004 28421.000000000004 4497.5000000000009 8.5086206896551762 0.43316391578971009 2.5000000000000004 47.500000000000007 1.0000000180025095e-35 14535.500000000002 10.937980769230752 27.500000000000004 20.697361111111103 0.14170066292707803 3890.5000000000005 19.500000000000004 14535.500000000002 12.861904761904801
decision_type=2 2 2 2 2 2 9 2 2 2 2 2 2 2 2 2 2 2 2 2 2 2 2 2 2 2 2 2 2 2
left_child=5 2 3 15 19 6 7 8 9 -1 23 13 -12 -3 20 -2 29 18 -18 -5 21 -8 -19 24 -4 -15 -22 -17 -9 -13
right_child=1 11 10 4 -6 -7 14 28 -10 -11 12 16 -14 25 -16 27 17 22 -20 -21 26 -23 -24 -25 -26 -27 -28 -29 -30 -31
leaf_value=0.081949737357091643 0.16357068269796277 -0.025642902535055242 0.015011504895310277 -0.020169971351649538 0.10657694943679669 0.10870167341836967 0.10460455895700471 0.094346462005690801 -0.026805726186620599 0.0098705771787696989 -0.025975235613994414 0.17571836863653076 0.16317791273315652 -0.023332972663881322 -0.025255337514747303 0.08427348194894263 0.074612877702681824 -0.024776655867251574 -0.025765548644830251 0.035303741436997764 0.071841513718881297 0.0102305999601058 0.090090881767128594 0.13817289452875589 0.11561241497134199 0.1321058087385151 0.093092841625308759 -0.023996143594967968 0.11137743063575736 0.11662432784337858
leaf_weight=5134.847747169435 26.002910878509283 44.41953651048243 40.168263852596283 305.75900797639042 36.75576938316226 1342.2387305535376 3399.7734454451129 1021.2560976780951 46.789550923742354 92.846654541790485 41.63952770922333 24.359924651682377 8.1013451451435667 6.2521881721913841 15.66619232483208 13.925443083979191 149.47221978381276 11.332007694989441 59.254343263804913 83.356998531147838 281.79326403420419 43.83949912711978 937.21648922562599 60.684395666234195 58.172902235761285 20.459538858383894 1087.8100999481976 14.71994913369417 408.28177387826145 80.92585969530046
leaf_count=20530 111 1828 799 15940 71 487 8532 1246 952 1411 1383 190 6 163 358 35 1668 338 2590 3924 729 630 4624 201 167 52 1795 761 271 189
internal_value=0.0884568 0.0651638 0.032569 0.0126987 0.00190852 0.0921111 0.0901708 0.0837767 0.0797134 0.0806722 0.0780144 0.0819707 0.00739181 0.0207403 0.0986503 0.0951958 0.0853992 0.0810614 0.046118 -0.00821987 0.0992642 0.103407 0.0886913 0.0999042 0.0751111 0.0961042 0.0887779 0.0296201 0.0992868 0.131845
internal_weight=14898.1 2022.98 689.287 480.52 425.872 12875.1 11532.9 6704.02 5274.48 5227.69 208.766 1333.69 49.7409 71.1313 4828.88 54.6483 1262.56 1157.28 208.727 389.116 4813.22 3443.61 948.548 159.026 98.3412 26.7117 1369.6 28.6454 1429.54 105.286
internal_count=71981 35040 23398 20842 19935 36941 36454 24410 22893 21941 2556 11642 1389 2043 12044 907 9599 9220 4258 19864 11686 9162 4962 1167 966 215 2524 796 1517 379
cat_boundaries=0 1
cat_threshold=76
is_linear=0
shrinkage=0.025


Tree=10
num_leaves=31
num_cat=2
split_feature=24 11 13 4 29 2 17 2 10 25 11 16 6 2 10 11 13 38 11 2 17 24 20 12 10 20 12 36 0 38
split_gain=1415.84 1929.52 923.446 1082.76 1117.72 934.434 1215.76 476.857 424.935 424.072 504.18 329.329 327.809 297.419 287.17 254.818 215.266 193.126 526.042 419.906 321.646 206.261 204.296 185.393 167.189 124.036 92.4953 409.062 114.577 89.5238
threshold=6.5000000000000009 25.027777777777803 0 0.93082972075538517 1.5000000000000002 39.500000000000007 896.50000000000011 36.500000000000007 67.500000000000014 1.0000000180025095e-35 34.025000000000006 11382.500000000002 1.5000000000000002 37.500000000000007 42.500000000000007 13.818813131313101 1 14150.500000000002 11.170833333333352 89.500000000000014 12755.500000000002 4.5000000000000009 4.5000000000000009 8.9588709677419356 19.500000000000004 7.5000000000000009 14.845238095238102 29759.500000000004 4152.5000000000009 10094.500000000002
decision_type=2 2 9 2 2 2 2 2 2 2 2 2 2 2 2 2 9 2 2 2 2 2 2 2 2 2 2 2 2 2
left_child=2 7 3 4 5 6 -1 12 17 -6 -11 -5 -2 -9 26 -14 -10 21 19 -19 -20 23 -23 -4 -13 -15 -3 -28 -29 -7
right_child=1 14 8 11 9 29 -8 13 16 10 -12 24 15 25 -16 -17 -18 18 20 -21 -22 22 -24 -25 -26 -27 27 28 -30 -31
leaf_value=0.071039109586171004 -0.025372043323603828 0.096039711040880049 0.059276520759162767 0.09845257543263794 0.098133323073162859 0.10305784864434334 0.039602957736993315 0.24759069079707033 0.080155136704535501 0.013165718810677275 0.080013524941015601 0.082534383122196395 0.096434888981241945 -0.023745543017198265 -0.025270292555380089 -0.025589351401468202 -0.020544488421963325 -0.0045881507450645726 0.075803647333159377 0.11702862704216895 0.097623164516750349 -0.026374123534192846 0.101642637076082 0.092542915558847971 -0.026386288487073702 0.095472532399631674 -0.026619493059324768 0.11929885265042893 0.057475895329883536 0.078786532286634445
leaf_weight=1790.3578029517084 219.93767879903316 254.39119860157371 113.75011316686869 1210.8056483762339 971.83536589611322 317.89481874648482 1357.3194140605628 5.3490163963288095 7.7726847250014544 81.401843145489693 553.33682976011187 14.090390824712811 26.372902372851968 8.4806995326653123 14.219796867109833 16.942989733070135 36.501004218123853 73.164526587352157 1005.5747183104977 22.380678219720721 775.78924948628992 18.48159674461931 12.071779586374761 6511.2015574723482 20.286141034215689 12.664127925410867 22.686965533532202 44.754826814867556 37.959983360953629 169.28867160715163
leaf_count=6892 14786 443 645 1561 658 277 20271 3 34 1056 1287 22 151 283 414 478 634 1754 3484 11 3416 273 2 11527 433 8 524 16 246 392
internal_value=0.0816393 0.0457858 0.0832159 0.0751421 0.0702446 0.0625267 0.0575011 -0.00265249 0.0891208 0.087655 0.0714788 0.0962854 -0.0129614 0.0964355 0.0832247 0.0491484 0.0116258 0.0896257 0.08229 0.0247908 0.085357 0.0916814 0.025745 0.0919811 0.0192589 0.048631 0.0875777 0.0664202 0.091982 0.0948077
internal_weight=15727.1 663.76 15063.3 6486.62 5241.43 3634.86 3147.68 289.747 8576.69 1606.57 634.739 1245.18 263.254 26.4938 374.013 43.3159 44.2737 8532.41 1876.91 95.5452 1781.36 6655.51 30.5534 6624.95 34.3765 21.1448 359.793 105.402 82.7148 487.183
internal_count=71981 17352 54629 32849 30833 27832 27163 15709 21780 3001 2343 2016 15415 294 1643 629 668 21112 8665 1765 6900 12447 275 12172 455 291 1229 786 262 669
cat_boundaries=0 1 2
cat_threshold=2868876 64
is_linear=0
shrinkage=0.025


Tree=11
num_leaves=31
num_cat=4
split_feature=23 11 13 9 24 11 10 10 28 10 10 9 38 13 24 28 18 24 28 0 17 28 9 10 4 30 38 11 18 10
split_gain=1461.55 2511.09 782.799 697.872 1041.5 1019.46 749.03 682.626 497.568 416.561 367.937 296.697 319.176 284.476 249.604 200.87 194.465 300.706 289.202 219.176 532.51 227.853 162.187 153.467 140.622 251.413 92.0387 273.584 89.1018 110.938
threshold=6.5000000000000009 23.279220779220804 0 1.5000000000000002 1.0000000180025095e-35 47.062500000000007 77.500000000000014 43.500000000000007 1.0000000180025095e-35 38.500000000000007 62.500000000000007 1.5000000000000002 137612.50000000003 1 18.500000000000004 1.5000000000000002 2 8.5000000000000018 1.0000000180025095e-35 1.0000000180025095e-35 15099.000000000002 1.5000000000000002 2.5000000000000004 65.500000000000014 0.54287761222250663 2.5000000000000004 118923.00000000001 26.803225806451604 3 66.500000000000014
decision_type=2 2 9 2 2 2 2 2 2 2 2 2 2 9 2 2 9 2 2 2 2 2 2 2 2 2 2 2 9 2
left_child=2 11 3 4 7 6 -6 9 -9 -1 16 -2 -13 23 15 -3 17 18 -4 20 -18 -21 24 -12 25 -5 27 -17 29 -15
right_child=1 14 10 22 5 -7 -8 8 -10 -11 13 12 -14 28 -16 26 19 -19 -20 21 -22 -23 -24 -25 -26 -27 -28 -29 -30 -31
leaf_value=0.071730143285249112 -0.025443828462966674 -0.023731166919062876 0.070787686436594097 0.055106985164699723 0.027922862416797652 0.08808549041223078 0.3447892176740554 0.029475019915238002 0.076624729426601784 0.096537026351254357 -0.023321156330369255 -0.025204911730585894 0.10149766446753744 -0.024174505180501682 -0.024581695948465605 -0.026288215627153041 0.095588537306707785 -0.025695957738161464 0.083409277916782085 0.053987867798971571 0.0088238702288838816 0.085354978112574795 0.091393233098136739 0.10082981772409222 0.084209958868537813 0.088712001907897964 0.099915652188256779 0.08348202662614497 -0.021384375574708483 0.081616177837549736
leaf_weight=2407.3227064982057 250.11693043634295 9.8483927203342301 1796.8081536917016 392.91827465314418 825.38004866242409 241.81476685032248 3.6994495727121821 382.68726566247642 221.86608776636422 527.10608203150332 6.6468876451253882 22.978625695221126 25.198853628709912 9.4432203546166438 12.912477144971488 15.196619792841373 2522.3698810189962 16.714565956965089 3401.9438224546611 178.74939984455705 45.28097674716264 972.58046862110496 782.85621150769293 51.304957985877991 732.02737744897604 224.6418108381331 206.51672685984522 147.23528546467423 42.576910215429962 15.036868437193332
leaf_count=8044 16605 349 7269 1449 15095 292 10 3236 727 1394 99 838 204 152 523 290 3968 387 5610 797 657 1173 330 154 825 132 202 320 699 151
internal_value=0.0758599 0.0401471 0.0774166 0.0700867 0.0646767 0.0429974 0.0297534 0.0712221 0.0468807 0.0762184 0.0826944 -0.0144828 0.0417314 0.0396898 0.0816862 0.0853704 0.0833839 0.0785702 0.0790619 0.0896587 0.0940634 0.0805383 0.0820737 0.0738641 0.0766022 0.0674587 0.0883457 0.073099 -0.00114404 0.0297042
internal_weight=16491.8 690.004 15801.8 6742.32 4609.88 1070.89 829.079 3538.98 604.553 2934.43 9059.46 298.294 48.1775 125.009 391.71 378.797 8934.45 5215.47 5198.75 3718.98 2567.65 1151.33 2132.44 57.9518 1349.59 617.56 368.949 162.432 67.057 24.4801
internal_count=71981 19331 52650 31534 28798 15397 15105 13401 3963 9438 21116 17647 1042 1255 1684 1161 19861 13266 12879 6595 4625 1970 2736 253 2406 1581 812 610 1002 303
cat_boundaries=0 1 2 3 4
cat_threshold=28034692 34607168 76 8
is_linear=0
shrinkage=0.025


Tree=12
num_leaves=31
num_cat=5
split_feature=23 28 13 11 28 11 13 32 38 11 22 18 39 23 34 17 36 9 6 13 39 37 13 17 38 38 38 17 38 40
split_gain=1269.55 1344.4 1284.98 862.201 689.398 1111.4 635.867 629.273 613.623 875.4 435.523 432.038 620.542 478.99 404.228 438.847 310.778 501.681 749.68 847.463 276.112 274.374 337.762 272.041 262.756 374.753 255.481 214.597 203.327 185.102
threshold=2.5000000000000004 4.5000000000000009 0 22.707142857142852 1.0000000180025095e-35 7.9934210526315814 1 1.0000000180025095e-35 19220.500000000004 29.677083333333353 1.5000000000000002 2 17.568472222222201 1.5000000000000002 1.5000000000000002 1996.5000000000002 10689.500000000002 1.5000000000000002 1.5000000000000002 3 1.0288888888888852 36292.000000000007 4 21297.500000000004 24886.000000000004 39851.500000000007 2376.0000000000005 7559.0000000000009 8468.5000000000018 1.5000000000000002
decision_type=2 2 9 2 2 2 9 2 2 2 2 9 2 2 2 2 2 2 2 9 2 2 9 2 2 2 2 2 2 2
left_child=4 2 7 10 5 -1 14 27 28 -10 20 12 -8 -13 15 -7 29 18 19 -18 -4 23 -23 -3 -5 -26 -16 -2 -9 -6
right_child=1 21 3 24 16 6 11 8 9 -11 -12 13 -14 -15 26 -17 17 -19 -20 -21 -22 22 -24 -25 25 -27 -28 -29 -30 -31
leaf_value=-0.026177359916277222 -0.023956151736466442 0.078035751042459647 0.08067366255181406 -0.026120016179573963 0.079934961628307391 0.049793650634955375 0.063461552799542478 -0.026441282190140393 -0.0086603542997648539 0.086315458469532633 0.14630925803059966 0.07771706009677537 -0.0015844655550258466 0.027356276167035329 -0.02765955833019499 0 0.056108538728474391 0.077952597477136912 0.075364502512069456 -0.016668064495908068 -0.025708778593513188 0.06946043891389192 -0.021850824298218628 -0.024941933386671916 0.092534868262851316 0.0073003049616029289 0.082810293296106008 0.11378873270718566 0.084400821423510242 0.094627342720512153
leaf_weight=78.803575566038489 7.1069526318460694 1021.7713778913021 14.996041238307951 22.716637572273612 4807.4361987318844 882.79761968180537 382.27480245195329 10.449223738163708 190.78217907901853 87.793720265850425 9.0066013000905496 3819.9027735888958 120.32066112197936 123.39597321208566 13.258276529610155 126.46288461331278 285.64672750607133 2624.7335210908204 598.10323322750628 148.84043316915631 339.35944980289787 43.187921884469688 43.116300182417035 15.820140372030435 96.443383878096938 48.552547025494277 269.17897086683661 130.04921805858612 193.27009671833366 644.01715060137212
leaf_count=1928 125 3583 232 500 6828 4081 1526 126 5904 440 35 10484 904 1847 135 2185 1017 2483 625 1572 19254 201 1296 635 408 1076 842 297 928 484
internal_value=0.0708792 0.0534211 0.0343725 0.00510257 0.0735357 0.0667625 0.0680438 0.0583906 0.0457168 0.0214642 -0.0164416 0.0728054 0.0469796 0.0759565 0.0506541 0.0435608 0.0778526 0.072114 0.0572096 0.0320967 -0.0209854 0.0728709 0.0295396 0.0764407 0.0519178 0.0642563 0.0775365 0.106511 0.0786019 0.0816882
internal_weight=17199.6 2274.42 1150.53 531.075 14925.2 5816.4 5737.59 619.451 482.295 278.576 363.362 4445.89 502.595 3943.3 1291.7 1009.26 9108.78 3657.32 1032.59 434.487 354.355 1123.9 86.3042 1037.59 167.713 144.996 282.437 137.156 203.719 5451.45
internal_count=71981 35040 29325 21505 36941 23932 22004 7820 7398 6344 19521 14761 2430 12331 7243 6266 13009 5697 3214 2589 19486 5715 1497 4218 1984 1484 977 422 1054 7312
cat_boundaries=0 1 2 3 4 5
cat_threshold=108073277 4409001 64 1188505 17825796
is_linear=0
shrinkage=0.025


Tree=13
num_leaves=31
num_cat=5
split_feature=23 28 13 39 28 23 13 10 4 22 24 13 23 38 13 5 24 19 23 36 8 13 29 37 4 39 32 37 38 25
split_gain=1086.91 1195.63 684.837 665.349 657.142 653.043 882.124 587.5 487.643 586.213 476.337 457.678 452.449 410.094 401.483 335.84 334.901 303.301 291.875 254.294 448.612 525.864 379.27 243.625 334.837 236.843 225.486 221.269 248.644 213.982
threshold=2.5000000000000004 1.5000000000000002 0 7.0005555555555556 1.0000000180025095e-35 1.5000000000000002 1 61.500000000000007 1.3409025222693851 1.5000000000000002 2.5000000000000004 2 1.0000000180025095e-35 5172.5000000000009 3 1.5000000000000002 2.5000000000000004 0.64583333333333359 39.500000000000007 10689.500000000002 1.5000000000000002 4 2.5000000000000004 36292.000000000007 0.59525120620935612 12.289027777777802 1.0000000180025095e-35 3291.0000000000005 5880.5000000000009 1.5000000000000002
decision_type=2 2 9 2 2 2 9 2 2 2 2 9 2 2 9 2 2 2 2 2 2 9 2 2 2 2 2 2 2 2
left_child=4 2 16 27 5 7 -7 11 9 -5 -9 13 -13 -1 15 17 25 -3 23 -6 21 -21 -23 26 -25 -2 -16 28 -4 -8
right_child=1 14 3 8 19 6 29 10 -10 -11 -12 12 -14 -15 18 -17 -18 -19 -20 20 -22 22 -24 24 -26 -27 -28 -29 -30 -31
leaf_value=0.037483898658349259 -0.024451151256036453 -0.027108213064013599 0.12367838486034495 -0.021213377951899818 0.076500224341253351 0.089484493080868907 -0.026612100658086491 0.00022790223836239407 0.06900809353630577 0.10108454629203652 0.20508082808581493 0.071237301811234166 0.045466662761543104 0.078040025599033613 0.089838085574148505 0.070864072236671655 -0.024257506443059455 0.10101895516075104 -0.024130622183046964 0.065889366932317742 0.074405003087215635 0.013231939484189898 0.070878131991248178 -0.026606290116705213 0.069135685791487808 0.10130320684928101 0.064353366173029641 0.12924226681000447 -0.024701002142078786 0.063138719434777488
leaf_weight=686.87971469573677 9.8575650034472329 82.719330116175115 10.3613473828882 366.18398643191904 5672.7461809609085 63.999404734000564 134.70193121116608 125.57276015169919 50.121763282455504 25.255239573307335 6.520821224898099 4336.3897278513759 480.52726683299989 202.93893853202462 277.23431421723217 48.175955628976226 18.037939398549497 12.397968305274842 21.878111770376563 975.97535918839276 2439.6353234853595 268.99528017826378 96.479013197124004 40.400718436576426 50.205896910279989 104.38340806216002 1172.5111090997234 31.527344477362931 17.903532927855849 17.944156017154455
leaf_count=3595 218 2362 11 18249 7312 397 3179 1726 376 76 44 9666 4169 1019 316 77 896 53 1754 1833 1927 1872 65 1175 310 547 7782 109 729 137
internal_value=0.0665614 0.0506201 0.0212456 0.00690388 0.0689621 0.0624884 0.0197389 0.0640705 -0.00362074 -0.013079 0.0118242 0.0652771 0.0685347 0.0462938 0.0615129 0.0166487 0.0693988 -0.00950435 0.0650903 0.0731014 0.0679826 0.0562538 0.0278484 0.0667963 0.0265934 0.0903125 0.0692871 0.0845852 0.0319741 -0.0147434
internal_weight=17848.5 2339.16 633.632 501.353 15509.3 6055.47 216.645 5838.83 441.561 391.439 132.094 5706.74 4816.92 889.819 1705.52 143.293 132.279 95.1173 1562.23 9453.83 3781.08 1341.45 365.474 1540.35 90.6066 114.241 1449.75 59.7922 28.2649 152.646
internal_count=71981 35040 21211 19550 36941 23932 3713 20219 18701 18325 1770 18449 13835 4614 13829 2492 1661 2415 11337 13009 5697 3770 1937 9583 1485 765 8098 849 740 3316
cat_boundaries=0 1 2 3 4 5
cat_threshold=35721265 8392714 4277928 2762432 77345547
is_linear=0
shrinkage=0.025


Tree=14
num_leaves=31
num_cat=3
split_feature=13 29 24 6 22 10 28 17 0 10 13 28 12 24 10 18 38 24 12 24 33 29 37 16 30 36 36 17 33 12
split_gain=866.293 963.427 841.032 1419.17 718.227 528.612 477.124 354.066 451.729 347.2 523.409 525.302 660.659 354.726 327.522 275.772 239.066 227.094 185.969 177.281 156.581 248.292 336.906 173.07 156.382 474.944 260.589 148.947 367.931 150.861
threshold=0 1.5000000000000002 1.0000000180025095e-35 1.5000000000000002 1.0000000180025095e-35 77.500000000000014 1.0000000180025095e-35 1.0000000180025095e-35 14929.500000000002 28.500000000000004 1 1.5000000000000002 12.861904761904801 2.5000000000000004 40.500000000000007 2 3291.0000000000005 11.500000000000002 10.339743589743552 1.0000000180025095e-35 1.5000000000000002 2.5000000000000004 25994.500000000004 14445.500000000002 1.0000000180025095e-35 898.50000000000011 23171.000000000004 20522.500000000004 1.5000000000000002 15.219047619047602
decision_type=9 2 2 2 2 2 2 2 2 2 9 2 2 2 2 9 2 2 2 2 2 2 2 2 2 2 2 2 2 2
left_child=1 2 6 4 5 -4 7 15 -9 27 19 12 -12 -14 -6 -1 -5 -13 -18 -11 -3 22 23 -22 26 -26 -8 29 -29 -2
right_child=9 20 3 16 14 -7 24 8 -10 10 11 17 13 -15 -16 -17 18 -19 -20 -21 21 -23 -24 -25 25 -27 -28 28 -30 -31
leaf_value=0.038735249784023901 0.071945214185601847 0.082984742302560449 -0.0066001524664108403 -0.030278611661319833 -0.02685130603403961 0.20407758380039157 0.078359076644555492 -0.00012734623338297036 0.090428360903609534 0.090605785249964335 -0.026480778172589488 0.068170436489097083 0.055104364246687625 0.00656637929892107 0.088141220718860047 0.067019072184362358 -0.027028843550829101 -0.024705311746699279 0.068947948535394821 0.050138149668461224 0.058768393974128835 0.07391875275079425 -0.030108878107413584 -0.026314427910008067 -0.027566519283295628 0.063904625828591508 0.011114016679054109 -0.025862255997779051 0.064685461884419315 0.05910920322631219
leaf_weight=715.0466534588486 6352.9956413730979 406.52930857799947 596.39168782159686 16.066329427063465 18.406418103724718 6.5373670365661374 646.5542859993875 187.5471437368542 41.154782665893435 596.11376595683396 65.578308079391718 2372.8390728291124 2725.9427055586129 97.889272532425821 83.877002876251936 449.59900888428092 12.461278416216372 16.065563094802201 433.64487239718437 81.405931560322642 483.73235794436187 766.59563363902271 29.332990479655564 14.840022187680004 39.397503796033561 312.66230632644147 38.612269584089518 34.396110004745424 139.76428398955613 667.39235583692789
leaf_count=3110 10310 297 22839 102 352 31 889 3039 69 461 1936 4411 9949 2047 204 1273 197 754 937 375 1605 359 316 283 671 607 172 1133 657 2596
internal_value=0.0627575 0.0535328 0.0462748 0.0287899 0.00644694 -0.00397757 0.0546563 0.0450268 0.01648 0.0663789 0.0619113 0.058714 0.0516026 0.0534256 0.0673639 0.0506114 0.0627893 0.0675347 0.0662069 0.0845817 0.0691617 0.064758 0.0513359 0.0561833 0.0675338 0.0536123 0.0745949 0.0701601 0.0467428 0.0707339
internal_weight=18449.4 5298.99 3597.96 1167.38 705.212 602.929 2430.57 1393.35 228.702 13150.4 5955.83 5278.31 2889.41 2823.83 102.283 1164.65 462.172 2388.9 446.106 677.52 1701.03 1294.5 527.905 498.572 1037.23 352.06 685.167 7194.55 174.16 7020.39
internal_count=71981 37352 34492 24662 23426 22870 9830 7491 3108 34629 19933 19097 13932 11996 556 4383 1236 5165 1134 836 2860 2563 2204 1888 2339 1278 1061 14696 1790 12906
cat_boundaries=0 1 2 3
cat_threshold=115844 33562880 74
is_linear=0
shrinkage=0.025


Tree=15
num_leaves=31
num_cat=7
split_feature=23 28 13 28 23 13 4 13 12 39 22 38 32 14 17 23 13 39 17 36 4 16 17 0 13 36 9 6 13 25
split_gain=868.076 1031.76 952.287 614.032 528.743 764.36 491.766 444.676 444.581 578.754 566.128 368.883 363.495 463.31 327.563 301.55 430.727 266.738 233.428 229.85 531.331 237.885 206.248 202.747 201.987 197.58 404.89 616.378 709.267 192.008
threshold=2.5000000000000004 4.5000000000000009 0 1.0000000180025095e-35 1.5000000000000002 1 0.0010944609752054004 2 20.379807692307704 1.0288888888888852 1.5000000000000002 5172.5000000000009 1.0000000180025095e-35 3 13395.500000000002 1.0000000180025095e-35 4 7.2215277777777809 9066.0000000000018 23456.500000000004 0.48235237757005955 5696.5000000000009 3832.0000000000005 103.50000000000001 5 10689.500000000002 1.5000000000000002 1.5000000000000002 6 1.5000000000000002
decision_type=2 2 9 2 2 9 2 9 2 2 2 2 2 9 2 2 9 2 2 2 2 2 2 2 9 2 2 2 9 2
left_child=3 2 6 4 7 -6 22 11 9 -4 -11 17 -8 -14 -13 24 -17 -1 -10 -3 -21 -22 -2 -20 -9 -5 27 28 -27 -7
right_child=1 19 8 25 5 29 12 15 18 10 -12 14 13 -15 -16 16 -18 -19 23 20 21 -23 -24 -25 -26 26 -28 -29 -30 -31
leaf_value=0.08125657860731772 0.071498536615285616 0.070652340408305495 0.10502908824726456 0.068231106029632935 0.079056829059070632 -0.026649520937646023 0.0902922465455097 0.074302725403093572 -0.026157689472188234 -0.025884549039663987 0.090357865443214752 0.077683360649490385 0.021243193517864589 0.074879727026805468 -0.027298330903650282 -0.023520043673058523 0.048872068093989189 0.026819863794720723 0.070048330148829829 -0.027081962487752322 0.0041178817360699813 0.063334662697699259 -0.02631471741482826 -0.025117234439082044 0.058207110944532674 0.04685394256164592 0.065936871125556559 0.063790093483332602 -0.017538634314503893 0.055415824434227226
leaf_weight=60.696145003661513 15.719057423993943 732.57367656659335 24.855375537648797 6048.142035106197 70.767626130953431 134.65731019340456 153.25167520530522 1000.3303223885596 25.092405281029642 349.62406218517572 27.317444419488311 201.22315131500363 266.57227781880647 185.89127541705966 19.926826633512974 54.986602257937193 471.71114472392946 690.29251571279019 99.858941040933132 51.652253021486104 47.635202354751527 402.90521485731006 68.450467145070434 15.684629536233841 3761.4199391230941 314.98963477648795 2877.5018833074719 655.41371641494334 155.49379129335284 19.547408582642674
leaf_count=177 27 2261 233 7312 397 3179 307 1370 757 19128 66 747 4239 1035 312 778 3618 3763 824 1469 483 1502 2212 497 9454 1017 2483 625 1572 137
internal_value=0.0593797 0.0454974 0.0292724 0.0614477 0.0554153 0.017647 0.0484248 0.0567691 0.00390189 -0.00942528 -0.0172369 0.0393578 0.0569829 0.0455212 0.0681324 0.0597737 0.0417599 0.0313251 0.0420685 0.0616514 0.048402 0.0571023 -0.00739327 0.0570038 0.0618821 0.0653338 0.0609401 0.0481202 0.0261967 -0.0149757
internal_weight=19004.2 2467.08 1232.32 16537.1 6485.56 224.972 689.885 6260.59 542.433 401.797 376.942 972.139 605.715 452.464 221.15 5288.45 526.698 750.989 140.636 1234.77 502.193 450.54 84.1695 115.544 4761.75 10051.5 4003.4 1125.9 470.483 154.205
internal_count=71981 35040 29325 36941 23932 3713 7820 20219 21505 19427 19194 4999 5581 5274 1059 15220 4396 3940 2078 5715 3454 1985 2239 1321 10824 13009 5697 3214 2589 3316
cat_boundaries=0 1 2 3 4 5 6 7
cat_threshold=108073277 8392714 4277928 433 2371601 34340946 1188505
is_linear=0
shrinkage=0.025


Tree=16
num_leaves=31
num_cat=4
split_feature=29 24 6 13 18 17 40 24 39 10 0 0 28 25 13 24 13 11 4 4 11 11 4 11 39 34 10 17 17 36
split_gain=757.527 1422.48 943.427 760.488 675.286 475.363 430.802 408.211 395.427 387.014 330.597 278.107 248.669 239.773 218.698 212.484 209.579 203.228 242.187 175.843 168.679 168.323 120.951 228.103 155.47 75.2042 285.132 679.489 107.358 70.3527
threshold=1.5000000000000002 5.5000000000000009 1.5000000000000002 0 1 29910.000000000004 1.5000000000000002 1.0000000180025095e-35 0.28236111111111156 62.500000000000007 35412.000000000007 173311.50000000003 2.5000000000000004 1.0000000180025095e-35 2 1.0000000180025095e-35 3 23.279220779220804 0.85202466012583067 0.8803209948631957 47.062500000000007 14.751404494382003 0.20352378466465854 27.577380952380953 20.19875 2.5000000000000004 24.500000000000004 5475.5000000000009 2496.0000000000005 3847.5000000000005
decision_type=2 2 2 9 9 2 2 2 2 2 2 2 2 2 9 2 9 2 2 2 2 2 2 2 2 2 2 2 2 2
left_child=1 3 8 4 14 9 7 -6 -3 12 -4 -10 -5 25 20 -16 -11 18 -15 -13 -1 -8 23 -19 -25 26 27 -2 -28 -24
right_child=13 2 10 5 6 -7 21 -9 11 16 -12 19 -14 17 15 -17 -18 22 -20 -21 -22 -23 29 24 -26 -27 28 -29 -30 -31
leaf_value=0.0059461775345554402 0.061781016452353489 0.13443760051899376 0.06168928246677672 0.057075930863986581 0.039142602114897895 -0.02606373282875539 0.097494054086425655 0.013679065533528332 -0.025667670890644131 0.059974154190113295 -0.028399487212209935 -0.021752399070804406 0.066216251261412951 -0.02775508707277723 0.068701606618089758 0.042594368362178871 -0.007402313606069133 -0.027214231771845496 0.063139748916802463 0.146123785278962 0.072868448044758338 0.047204960432154393 0.071035092666499475 0.047919161481808616 0.069337394440111944 0.066985252718866378 -0.028315190778212675 0.17284836370606832 0.066819843862697792 0.059759752545795276
leaf_weight=93.354218154214323 85.959862768650055 9.7204609941691142 211.35504058469087 6442.8002412170172 1713.8447879655287 40.487643206492066 91.746695912443101 512.97275872901082 287.4672643262893 31.077872410416603 28.298430221155286 5.986737243831155 2706.8700542086735 36.835922011174262 972.37537706363946 252.6126653496176 89.722612775862217 21.230011719278991 34.606993636116385 8.9732903353869915 30.617080539464951 82.369485933333635 593.97892005741596 724.80799040477723 312.34952002298087 2668.8880145568401 7.0459255073219529 58.717383872717619 300.8508267654106 1054.0304970107973
leaf_count=935 51 73 570 18775 7850 1092 84 8485 17239 148 464 342 3283 815 1971 2402 1167 352 90 20 4 256 581 1834 471 879 43 58 381 1266
internal_value=0.0563726 0.053115 0.0137622 0.0547763 0.0445876 0.0587631 0.0361284 0.0332867 -0.0148658 0.0592 0.0509674 -0.0201001 0.0597872 0.0638789 0.0592278 0.0628464 0.0145772 0.0584481 0.0165037 0.0816325 0.0212448 0.0741234 0.0595479 0.0527682 0.0544324 0.0686908 0.0785733 0.107752 0.0645501 0.0638658
internal_weight=19512 13612.7 551.801 13060.9 3749.89 9310.96 2400.93 2226.82 312.148 9270.47 239.653 302.427 9149.67 5899.3 1348.96 1224.99 120.8 2777.84 71.4429 14.96 123.971 174.116 2706.4 1058.39 1037.16 3121.46 452.574 144.677 307.897 1648.01
internal_count=71981 65160 18708 46452 21987 24465 16675 16335 17674 23373 1034 17601 22058 6821 5312 4373 1315 5409 905 362 939 340 4504 2657 2305 1412 533 109 424 1847
cat_boundaries=0 1 2 3 4
cat_threshold=509060 49 1152 33554496
is_linear=0
shrinkage=0.025


Tree=17
num_leaves=31
num_cat=3
split_feature=29 24 28 18 28 17 11 39 23 32 14 17 28 14 11 10 25 39 11 28 34 11 20 10 28 28 37 11 36 39
split_gain=718.643 1276.3 796.541 578.627 631.132 612.254 507.903 445.274 400.153 605.34 376.09 305.267 325.651 277.312 248.911 241.832 223.608 190.028 181.962 178.152 163.339 157.769 361.102 197.701 113.736 110.579 270.257 258.891 74.8481 80.6402
threshold=1.5000000000000002 3.5000000000000004 1.5000000000000002 0 1.0000000180025095e-35 18857.500000000004 13.288690476190501 7.6901388888888915 6.5000000000000009 2.5000000000000004 1 3570.5000000000005 3.5000000000000004 2 17.168859649122805 19.500000000000004 1.0000000180025095e-35 0.28236111111111156 23.279220779220804 5.5000000000000009 1.5000000000000002 14.751404494382003 1.0000000180025095e-35 61.500000000000007 7.5000000000000009 1.5000000000000002 20000.500000000004 28.851648351648354 3847.5000000000005 18.117916666666705
decision_type=2 2 2 9 2 2 2 2 2 2 9 2 2 9 2 2 2 2 2 2 2 2 2 2 2 2 2 2 2 2
left_child=1 3 7 4 6 21 15 14 13 -10 -8 20 -13 17 -3 -1 -2 -4 19 -18 -6 22 -5 -23 -21 26 27 -20 -27 -30
right_child=16 2 8 5 11 -7 10 -9 9 -11 -12 12 -14 -15 -16 -17 18 -19 25 24 -22 23 -24 -25 -26 28 -28 -29 29 -31
leaf_value=0.059680221332942367 0.065456577183953313 -0.023524264862954575 0.1738876931344647 0.043139783867585525 0.061553143704610395 -0.026678381641540697 0.035086892295895497 -0.025872579422981153 -0.025802396823447007 0.05875079412011263 0.054272974538443035 0.036714080311180612 0.057798016826747727 -0.021289872842403117 0.11475857840675646 -0.008806846516656584 -0.027066634637696207 0.053665675939125426 -0.027395969512928428 0.072934728353230144 0.0097193198675946252 0.063571379218023721 0.067546341603711771 0.025335295891679339 -0.027077770696452143 0.067249929362478644 -0.030774217172236884 0.053926602340514274 0.06002840222803716 0.044556624065029589
leaf_weight=38.011699623428285 3192.8842129940167 11.795939058996735 7.6311092283576718 936.32437399309129 2166.4334156652912 50.89151309337467 2056.5613765222952 238.06500170007348 127.642907734029 88.918298142030835 1141.9972583372146 973.32396398019046 882.32774281781167 31.308798296377063 23.093835954554379 184.15420113317668 32.233904583379626 413.73780946806073 24.590883148834109 30.917806844227016 39.209460967220366 3804.968106938526 649.6807638918981 88.475199220702052 8.5264793355017883 654.83438005577773 24.999239590018988 833.28806442674249 937.9697196399793 294.88508346118033
leaf_count=409 1412 670 8 4897 2072 1278 9934 13534 7236 176 3305 5321 1762 484 174 4032 767 2250 398 33 177 5786 1028 627 105 476 198 1861 998 573
internal_value=0.0536333 0.0505023 0.0223676 0.0525374 0.0475723 0.0590516 0.0396937 -0.0135835 0.0370327 0.00901345 0.0422319 0.0543133 0.0467662 0.0503822 0.0685839 0.00311473 0.0608629 0.0549543 0.0556803 0.0160355 0.0606377 0.0599608 0.0531754 0.0627099 0.0511187 0.0566989 0.049197 0.0515634 0.0601784 0.0563689
internal_weight=19989.7 13954.6 942.194 13012.4 7482.02 5530.34 3420.72 272.955 669.239 216.561 3198.56 4061.29 1855.65 452.678 34.8898 222.166 6035.13 421.369 2842.25 71.6782 2205.64 5479.45 1586.01 3893.44 39.4443 2770.57 882.878 857.879 1887.69 1232.85
internal_count=71981 65160 24532 40628 27012 13616 17680 14378 10154 7412 13239 9332 7083 2742 844 4441 6821 2258 5409 905 2249 12338 5925 6413 138 4504 2457 2259 2047 1571
cat_boundaries=0 1 2 3
cat_threshold=76 1241 1200
is_linear=0
shrinkage=0.025


Tree=18
num_leaves=31
num_cat=6
split_feature=29 24 13 28 13 18 2 29 39 16 10 14 16 24 28 25 13 13 11 11 28 10 28 37 11 36 36 11 34 16
split_gain=687.933 1140.51 845.241 697.266 620.385 608.48 586.888 549 465.194 346.429 335.387 279.26 248.718 214.53 322.261 211.811 197.262 191.846 180.968 163.365 167.441 161.17 104.569 249.192 237.421 67.9262 73.2253 57.5299 46.6184 249.328
threshold=1.5000000000000002 3.5000000000000004 0 1.5000000000000002 1 2 28.500000000000004 1.0000000180025095e-35 7.6901388888888915 25987.500000000004 62.500000000000007 3 12246.500000000002 5.5000000000000009 9.5000000000000018 1.0000000180025095e-35 4 5 17.168859649122805 23.279220779220804 5.5000000000000009 47.500000000000007 1.5000000000000002 20000.500000000004 28.851648351648354 3847.5000000000005 16826.000000000004 14.211981566820251 2.5000000000000004 5144.5000000000009
decision_type=2 2 9 2 9 9 2 2 2 2 2 9 2 2 2 2 9 9 2 2 2 2 2 2 2 2 2 2 2 2
left_child=1 4 3 8 5 12 7 -7 18 10 11 -6 16 21 -15 28 -1 -12 -3 20 -17 -5 23 24 -21 -24 -27 -8 29 -2
right_child=15 2 -4 13 9 6 27 -9 -10 -11 17 -13 -14 14 -16 19 -18 -19 -20 22 -22 -23 25 -25 -26 26 -28 -29 -30 -31
leaf_value=0.022790437344132164 0.063479105175943643 -0.022498484385376986 -0.025400609156356974 0.056229875375606246 0.05162065267701843 0.037581263356578076 0.071185851948916939 0.010580540144552623 -0.025786895662547007 -0.025692489958582695 0.055243405155895445 0.063617706356772705 -0.026245684061401986 0.0058602629173588206 0.05556119238831473 -0.026982044799662621 0.059524944107809875 -0.007827215724214626 0.11200939711809849 -0.027289932702221506 0.048955515339439523 0.11499049037240346 0.064148878218437275 -0.030565049504070359 0.051318005176016417 0.042655534537183265 0.057316656484615307 0.05085286216599965 0.061251247025038036 0.12031149224379789
leaf_weight=146.96806506253779 426.79259048216045 7.9634232129901674 186.5422544926405 207.70766233000904 7262.9834638554603 1253.1932596229017 191.89882716536522 755.49644749145955 157.31794830597937 33.702229089103639 33.235676605254412 2116.8745656600222 22.679951325058937 144.9362730300054 186.5352044114843 31.538465567864478 1216.7440585009754 91.470802085474133 23.441438135690987 24.079589527100325 40.180067901499569 34.705845207907259 669.18599578551948 24.553516818210483 853.53858977556229 297.36886301077902 959.76545021217316 193.02639703359455 2771.697605648078 55.462814081460238
leaf_count=793 456 483 7488 961 17154 4166 154 9480 9460 923 144 2753 627 4721 1211 767 3023 1150 110 398 138 98 476 198 1861 485 1086 261 879 77
internal_value=0.0511727 0.0481465 0.021633 0.0330592 0.0500341 0.0408353 0.0327471 0.0274375 -0.00815148 0.0535757 0.053916 0.0544578 0.05443 0.0471813 0.0339199 0.0581792 0.0561906 0.0130396 0.0781829 0.0531898 0.0156155 0.0650906 0.0541358 0.0469266 0.0491298 0.0574848 0.0538873 0.0611542 0.0626077 0.0702558
internal_weight=20421.6 14267.4 949.15 762.608 13318.3 3780.01 2393.61 2008.69 188.723 9538.27 9504.56 9379.86 1386.39 573.885 331.471 6154.16 1363.71 124.706 31.4049 2900.21 71.7185 242.414 2828.49 902.172 877.618 1926.32 1257.13 384.925 3253.95 482.255
internal_count=71981 65160 24532 17044 40628 18504 14061 13646 10053 22124 21201 19907 4443 6991 5932 6821 3816 1294 593 5409 905 1059 4504 2457 2259 2047 1571 415 1412 533
cat_boundaries=0 1 2 3 4 5 6
cat_threshold=70287362 509060 49 760 66688 33554496
is_linear=0
shrinkage=0.025


Tree=19
num_leaves=31
num_cat=4
split_feature=29 24 6 13 13 40 29 11 13 4 17 10 28 10 12 16 32 25 13 11 4 11 4 4 33 4 11 11 17 37
split_gain=661.698 1025.29 806.721 621.195 565.766 473.589 520.327 898.155 358.861 351.662 322.14 298.709 246.302 238.041 235.527 225.13 212.814 201.594 176.571 147.931 204.642 145.063 140.16 440.903 130.122 106.669 184.859 125.884 94.4369 80.16
threshold=1.5000000000000002 3.5000000000000004 1.5000000000000002 0 1 1.5000000000000002 1.0000000180025095e-35 20.989583333333353 2 0.0016421305859895502 18857.500000000004 62.500000000000007 2.5000000000000004 37.500000000000007 23.702941176470603 11106.500000000002 1.0000000180025095e-35 1.0000000180025095e-35 3 23.279220779220804 0.85202466012583067 14.009433962264152 1.5876333413021202 1.6314121646834452 1.5000000000000002 0.20352378466465854 27.577380952380953 30.029411764705902 4497.5000000000009 23589.000000000004
decision_type=2 2 2 9 9 2 2 2 9 2 2 2 2 2 2 2 2 2 9 2 2 2 2 2 2 2 2 2 2 2
left_child=1 4 3 13 5 6 9 -8 29 -1 11 12 -6 15 16 -3 -12 -2 -13 20 -19 -7 28 -24 -15 26 -21 -28 -5 -4
right_child=17 2 8 22 10 21 7 -9 -10 -11 14 18 -14 24 -16 -17 -18 19 -20 25 -22 -23 23 -25 -26 -27 27 -29 -30 -31
leaf_value=-0.031370575659860539 0.060021787497081071 -0.027126861744463472 0.059305525418680317 0.014230856724599981 0.049720478418085204 0.088864816592821139 0.0082196888384953246 0.048854492243653368 -0.023528185484449928 0.045662361911978595 0.03273512505117223 0.052692492412793002 0.058751940175944789 0.093503210086260349 0.065224475004113588 0.047995975021384647 -0.026959123463487014 -0.027616919343341723 -0.0074672696325852484 -0.027155652196304048 0.055669972578786309 0.054387271539919083 0.1974687952654143 -0.024663152403686373 -0.023556795046357992 0.055725857233188084 0.082580468110019872 0.044948777080307381 -0.025702809223510339 0.018103531736023228
leaf_weight=37.020527526736259 3308.6518802698702 39.766497283242643 336.75100673176348 41.20117262378335 6735.8775579361245 125.13619669247419 843.56859009433538 569.24758898094296 39.447456303983927 2058.9465556256473 74.612240420654416 34.489676518365741 2692.1467109210789 54.737419618293643 50.957036173902452 63.505938685499132 72.710678407922387 35.064265276305377 89.675738838501275 20.737612385302782 36.818765850737691 220.20956198312342 6.7553002899512675 19.271280664950609 6.2059781197458497 1753.1492373896763 59.594518311321735 1047.876592407003 314.56278526503593 33.731436100788414
leaf_count=228 1412 823 601 1618 16137 91 10925 1811 549 5167 363 144 2503 272 162 790 1696 815 1119 352 90 282 30 801 171 1847 221 2084 18580 297
internal_value=0.0489229 0.0459886 0.0209267 0.00100679 0.0477477 0.0390461 0.0363763 0.0246169 0.047386 0.0442862 0.0510902 0.051798 0.0523056 0.0401193 0.0194544 0.0190622 0.00327327 0.0557372 0.0131242 0.0509175 0.0151872 0.067108 -0.016488 0.0380727 0.0813546 0.0518025 0.0456597 0.0470487 -0.0210441 0.0541618
internal_weight=20822.4 14560.5 955.936 546.006 13604.6 3854.13 3508.78 1412.82 409.93 2095.97 9750.47 9552.19 9428.02 164.216 198.28 103.272 147.323 6261.89 124.165 2953.24 71.883 345.346 381.791 26.0266 60.9434 2881.36 1128.21 1107.47 355.764 370.482
internal_count=71981 65160 24532 23085 40628 18504 18131 12736 1447 5395 22124 19903 18640 2056 2221 1613 2059 6821 1263 5409 905 373 21029 831 443 4504 2657 2305 20198 898
cat_boundaries=0 1 2 3 4
cat_threshold=1048578 509060 70287360 33554496
is_linear=0
shrinkage=0.025


Tree=20
num_leaves=31
num_cat=3
split_feature=29 24 6 17 13 4 2 39 10 13 0 0 14 25 29 11 4 4 4 11 38 17 12 0 36 28 23 10 29 17
split_gain=638.64 930.213 746.652 569.069 536.906 611.865 533.444 298.383 283.155 630.055 274.52 235.281 204.409 194.956 177.288 134.159 191.921 118.866 100.132 171.231 159.631 61.1154 59.7777 208.258 61.8121 48.2364 171.012 39.6528 148.216 286.398
threshold=1.5000000000000002 5.5000000000000009 1.5000000000000002 26096.000000000004 0 0.94303754381449811 32.500000000000007 0.28236111111111156 52.500000000000007 1 35412.000000000007 173311.50000000003 2 1.0000000180025095e-35 1.0000000180025095e-35 23.279220779220804 0.85202466012583067 0.8803209948631957 0.20352378466465854 27.577380952380953 8772.5000000000018 2092.5000000000005 44.125000000000007 10469.500000000002 3847.5000000000005 9.5000000000000018 3.5000000000000004 24.500000000000004 2.5000000000000004 5475.5000000000009
decision_type=2 2 2 2 9 2 2 2 2 9 2 2 9 2 2 2 2 2 2 2 2 2 2 2 2 2 2 2 2 2
left_child=1 3 7 4 5 6 -1 -3 12 -10 25 -9 -6 27 -5 16 -15 -13 19 -17 -21 -7 24 -24 -20 26 -4 28 29 -2
right_child=13 2 10 14 8 21 -8 11 9 -11 -12 17 -14 15 -16 18 -18 -19 22 20 -22 -23 23 -25 -26 -27 -28 -29 -30 -31
leaf_value=0.031606437376599551 0.053116178260287097 0.1012655091170778 0.057582443992883751 0.060211234845350015 0.047977803593003923 0.064999957040250203 0.056753960596017852 -0.025644987018491817 -0.016551213630282235 0.046792025868238316 -0.028605453007389967 -0.021665278062459298 0.058754000708238101 -0.027523270858864191 -0.02652893381756162 -0.027047488232966085 0.053155293408567783 0.11201837118863554 0.061250339904678486 0.025977761130591089 0.049753859862670294 0.051592045552797262 -0.033477236528236171 0.049056558750046941 0.050807192862368802 0.060953684597319646 -0.027777568647505357 0.055667671989079494 0.057300899030925945 0.11363746662807253
leaf_weight=3798.0942003997043 108.88746490329504 12.305681203491984 54.575201836414635 16.623512230813503 6202.989584214054 397.30791301000863 614.15837360545993 269.86394027527422 128.25501155667007 386.43801193125546 28.559900683350861 5.821368341334165 2086.7323524402454 34.316786246374249 89.063204223290086 20.309415687806904 37.633171466179192 11.249597051180899 633.64771857857704 224.4877963848412 903.02462723478675 556.21729023847729 21.044388622045517 154.13375067524612 974.07667195238173 152.45438470691442 19.196858393028378 2270.0575480926782 882.97204768285155 93.41983500868082
leaf_count=22879 53 73 89 5 13537 168 651 17239 1088 1715 464 342 2529 815 2690 352 90 20 489 702 1603 1190 135 162 1061 94 387 1055 237 67
internal_value=0.0468664 0.0440134 0.0121979 0.045247 0.0456782 0.0389888 0.0351195 -0.0145617 0.0496492 0.0315878 0.0435702 -0.0198722 0.0508262 0.0535123 -0.0124256 0.0488176 0.0147913 0.0676164 0.0496468 0.0437492 0.0450495 0.0572436 0.0534156 0.0389937 0.0549602 0.0527788 0.0352623 0.0576971 0.0618845 0.081497
internal_weight=21187.9 14829.9 554.027 14275.9 14170.2 5365.78 4412.25 299.241 8804.41 514.693 254.786 286.935 8289.72 6358.01 105.687 3002.67 71.95 17.071 2930.72 1147.82 1127.51 953.525 1782.9 175.178 1607.72 226.226 73.7721 3355.34 1085.28 202.307
internal_count=71981 65160 18708 46452 43757 24888 23530 17674 18869 2803 1034 17601 16066 6821 2695 5409 905 362 4504 2657 2305 1358 1847 297 1550 570 476 1412 357 120
cat_boundaries=0 1 2 3
cat_threshold=25674924 69743106 760
is_linear=0
shrinkage=0.025


Tree=21
num_leaves=31
num_cat=3
split_feature=9 13 11 4 38 40 16 28 12 13 10 23 16 36 4 23 4 29 13 4 17 38 11 10 12 10 38 17 16 6
split_gain=639.676 669.826 546.566 632.362 797.067 815.053 576.157 304.536 562.91 401.489 562.764 264.855 229.552 206.959 186.255 168.954 156.017 121.568 287.042 79.2453 68.7894 56.2369 88.0832 141.338 34.1094 32.3205 27.472 28.4458 24.2726 30.5115
threshold=2.5000000000000004 0 46.035714285714306 0.93082972075538517 9778.5000000000018 1.5000000000000002 7491.0000000000009 1.5000000000000002 8.9588709677419356 1 28.500000000000004 3.5000000000000004 11703.000000000002 6149.0000000000009 4.686505376344086 6.5000000000000009 6.0164875000000011 1.5000000000000002 2 0.98307270741622765 10029.500000000002 11846.000000000002 54.366666666666653 59.500000000000007 46.250000000000007 48.500000000000007 12595.500000000002 7490.5000000000009 893.50000000000011 1.5000000000000002
decision_type=2 9 2 2 2 2 2 2 2 9 2 2 2 2 2 2 2 2 9 2 2 2 2 2 2 2 2 2 2 2
left_child=1 2 3 4 6 -6 -1 8 14 10 -10 -11 19 15 -3 20 -17 18 -15 -5 -9 22 23 -4 -19 -24 -23 -28 29 -2
right_child=28 7 21 12 5 -7 -8 13 9 11 -12 -13 -14 17 -16 16 -18 24 -20 -21 -22 26 25 -25 -26 -27 27 -29 -30 -31
leaf_value=0.032925415731250594 0.071130593263371886 -0.027873554559465039 -0.033123393061672071 0.071435742071682795 -0.006022720202494781 0.047623325800790157 0.10168351558136808 0.059093989720924334 0.047029599551462409 0.05341236315259229 0.02966182817412464 -0.026206194273561467 -0.026788878602731877 0.04643034782823454 0.061158301917909601 -0.026047456435010344 0.068167554520196641 0.052987637289570379 0.015788681220293345 0.050448254634811562 0.047580561496044185 0.076756097750624475 0.039430065756768128 0.060630512587056089 0.03608708856880917 0.062965153001617383 0.040077649564233965 0.056719371325083326 0.057166790991807041 0.055307782815708931
leaf_weight=3076.3362171603367 234.14816780388355 89.782664928585291 22.570531733334064 142.02039665728807 672.24118306301534 239.16159913409501 77.406609742902219 2135.7230480359867 2701.3999339016154 2659.2606102898717 2068.1622634492815 25.775380059145391 21.975004171021283 1618.1461823387071 16.540602528490126 29.207615370862186 16.270809435285628 1513.4979794500396 258.63584082666785 731.33885590638965 419.25808124989271 44.782782137393951 105.88790382444859 16.524477995932102 89.093572529032826 65.989152498543262 84.799481261521578 668.71136733144522 1525.3213736694306 156.36262586712837
leaf_count=12911 50 2142 125 121 21915 941 296 1077 6793 3994 9184 786 624 3801 17 956 84 1005 1328 1657 851 14 115 4 146 20 99 307 583 35
internal_value=0.0449689 0.0436156 0.0362655 0.0328993 0.0286956 0.00808859 0.0346455 0.0467684 0.0434284 0.0442432 0.0394243 0.0524424 0.0519299 0.0509908 -0.0135589 0.0563747 0.00834747 0.0469511 0.042551 0.0539418 0.057225 0.0531174 0.0411227 0.00696551 0.0520727 0.0487924 0.0562288 0.0549054 0.0587894 0.0649589
internal_weight=21526.3 19610.5 5969.75 4960.48 4065.15 911.403 3153.74 13640.8 7560.92 7454.6 4769.56 2685.04 895.334 6079.83 106.323 2600.46 45.4784 3479.37 1876.78 873.359 2554.98 1009.27 210.972 39.095 1602.59 171.877 798.294 753.511 1915.83 390.511
internal_count=71981 71313 39149 38465 36063 22856 13207 32164 22916 20757 15977 4780 2402 9248 2159 2968 1040 6280 5129 1778 1928 684 264 129 1151 135 420 406 668 85
cat_boundaries=0 1 2 3
cat_threshold=2671748 80806697 80741161
is_linear=0
shrinkage=0.025


Tree=22
num_leaves=31
num_cat=5
split_feature=34 23 17 13 18 13 30 13 12 10 4 28 4 10 13 16 4 12 17 22 23 4 36 17 21 36 21 25 17 24
split_gain=661.755 1083.82 717.488 904.143 595.649 520.667 404.185 309.649 306.981 304.11 281.912 281.556 282.359 234.968 218.211 210.262 173.619 148.944 135.024 94.0559 107.58 279.242 202.649 167.513 53.4752 170.475 46.1178 65.8462 100.197 48.9784
threshold=2.5000000000000004 8.5000000000000018 10029.500000000002 0 1 2 1.5000000000000002 3 8.9588709677419356 43.500000000000007 1.2424110963553201 1.0000000180025095e-35 0.21680721033051803 21.500000000000004 4 5144.5000000000009 0.0012715431845879502 23.702941176470603 21666.000000000004 1.5000000000000002 2.5000000000000004 0.43316391578971009 1.0000000180025095e-35 13601.000000000002 2.5000000000000004 35002.000000000007 1.5000000000000002 2.5000000000000004 8675.5000000000018 1.0000000180025095e-35
decision_type=2 2 2 9 9 9 2 9 2 2 2 2 2 2 9 2 2 2 2 2 2 2 2 2 2 2 2 2 2 2
left_child=1 2 4 11 5 9 10 17 -7 -1 -5 12 -4 -8 15 -6 -16 -3 -13 20 26 22 23 -22 25 -23 27 29 -29 -2
right_child=19 7 3 6 14 8 13 -9 -10 -11 -12 18 -14 -15 16 -17 -18 -19 -20 -21 21 24 -24 -25 -26 -27 -28 28 -30 -31
leaf_value=0.033436939261990845 0.051296445476966358 -0.023271195613468215 -0.0126891046407695 -0.022720770057083502 -0.0011684832226168693 -0.0092410273898326459 0.1006932184795753 -0.024408555873529074 0.043981361216764985 0.013036862997492737 0.042307257451619701 0.051031620040452197 0.046621073319908522 0.018667675102356184 0.03248997539004661 0.069479760722009495 0.051021333767675703 0.086901155744992048 0.01453985476802995 0.055638523139531784 -0.028262499212021088 0.045177775000147025 -0.029167498910570716 0.05405292168003728 0.056488177401488017 -0.030512677504987845 0.054770577215683694 -0.036407842376469025 0.037220768431329793 0.043949439491428238
leaf_weight=2261.4339326033369 1905.9203405752778 9.9271741621196252 111.75266325380653 343.01632756739855 110.17391422670335 68.263400693424046 25.57635981310159 201.43367178272456 5002.5491265542805 575.02946298290044 46.454045852646232 637.96407607290894 89.492472795769572 127.16244205553085 342.55827613454312 33.556959853507578 5684.7000750377774 27.721103930845857 71.650285640731454 1566.4071012344211 20.232019354589283 221.55826773867011 56.627508253790438 57.551429613493383 223.17802769690752 19.567047356627882 985.39631969295442 12.444429859519003 87.23534837551415 908.93229479063302
leaf_count=9456 749 564 2157 8062 789 666 83 13754 9745 4503 396 2472 932 886 1247 250 10038 35 792 771 332 386 883 347 41 177 304 58 137 969
internal_value=0.0432172 0.0405093 0.0413226 0.024565 0.0430501 0.0382133 -0.00132429 -0.0122608 0.0431776 0.0292053 -0.0148697 0.0395443 0.0137735 0.0329849 0.0490987 0.0146616 0.0498913 0.0460265 0.0473762 0.0502501 0.0483614 0.0383049 0.00649102 0.0325234 0.0474756 0.0389246 0.0498944 0.0482267 0.0277335 0.0489414
internal_weight=21835.5 15770.4 15531.3 1453.07 14078.3 7907.28 542.209 239.082 5070.81 2836.46 389.47 910.859 201.245 152.739 6170.99 143.731 6027.26 37.6483 709.614 6065.05 4498.64 598.714 134.411 77.7834 464.303 241.125 3899.93 2914.53 99.6798 2814.85
internal_count=71981 66827 52474 15780 36694 24370 9427 14353 10411 13959 8458 6353 3089 969 12324 1039 11285 599 3264 5154 4383 2166 1562 679 604 563 2217 1913 195 1718
cat_boundaries=0 1 2 3 4 5
cat_threshold=78930050 76 15123604 75497472 1152
is_linear=0
shrinkage=0.025


Tree=23
num_leaves=31
num_cat=1
split_feature=34 23 17 28 23 11 10 10 2 18 36 12 12 19 10 30 17 8 11 9 5 24 12 25 38 37 9 10 2 38
split_gain=656.639 1000.12 659.741 554.748 737.495 434.592 419.486 355.37 539.233 425.321 301.189 296.589 254.307 245.524 202.684 190.026 181.464 178.996 70.1821 75.5484 83.1549 81.0236 189.188 33.4221 18.1719 11.1578 7.76407 15.3447 6.14903 11.7039
threshold=2.5000000000000004 8.5000000000000018 10029.500000000002 1.5000000000000002 1.0000000180025095e-35 20.989583333333353 60.500000000000007 21.500000000000004 1.0000000180025095e-35 0 6699.5000000000009 12.861904761904801 23.702941176470603 0.052282193682749056 25.500000000000004 1.5000000000000002 25205.000000000004 1.5000000000000002 75.500000000000014 2.5000000000000004 1.5000000000000002 1.0000000180025095e-35 11.968750000000002 2.5000000000000004 49174.500000000007 6636.0000000000009 3.5000000000000004 24.500000000000004 14.500000000000002 13752.500000000002
decision_type=2 2 2 2 2 2 2 2 2 9 2 2 2 2 2 2 2 2 2 2 2 2 2 2 2 2 2 2 2 2
left_child=1 2 3 4 6 -6 -1 9 13 11 15 -4 -3 -9 -10 -5 -14 -12 19 20 21 23 -23 -2 -20 -21 27 -27 29 -22
right_child=18 12 7 10 5 -7 -8 8 14 -11 17 -13 16 -15 -16 -17 -18 -19 24 25 28 22 -24 -25 -26 26 -28 -29 -30 -31
leaf_value=0.041812007271329228 0.048163289207894269 -0.02552923323732989 -0.026326525096915344 0.055754465845348225 0.012772257580120149 0.040977169815409449 0.0052092552994256764 0.013519918390562434 -0.029522700029028261 -0.023413318924974488 0.034835582113313758 0.069633085062303132 -0.024884800614568808 -0.019325142700951779 0.047446578176511239 0.012291410562939883 0.073277051764358572 0.048057451307373295 0.052254742164322777 0.056195079515154123 0.053196323348930388 -0.029565815623492715 0.039844919662349688 0.026644421583350238 0.063164092276191339 0.052464382101821111 0.053976402347879919 0.037507824194875014 0.05420300310881853 0.041950685162320374
leaf_weight=7536.2955774217844 1316.6513038035482 186.23999258130789 21.480497905053198 2301.306682693772 1049.9061672603711 506.39461015444249 201.38094934821129 623.3493940923363 22.114982817322016 44.147386590950191 1172.35502750054 232.42959065269679 17.816895657218993 183.22213435266167 341.50894987490028 65.455067152157426 31.350113058462739 1462.9550082590431 1472.1765865683556 532.56860294099897 175.12084873020649 24.283072373829782 1328.3404232515022 51.474570281803608 131.32438308000565 106.36970237642527 190.50874256901443 103.71204125322402 544.66778465360403 139.60517650656402
leaf_count=13954 819 13424 502 1744 12245 2347 1689 9222 272 724 3194 839 760 3187 1034 211 169 1310 356 119 33 413 2853 109 14 30 34 95 148 131
internal_value=0.041594 0.0389222 0.0396861 0.0413263 0.0377005 0.0219717 0.0408605 0.0236963 0.0174582 0.0480389 0.0480538 0.0591147 -0.0121732 0.00604099 0.0426905 0.0545592 0.0378688 0.0421919 0.0485746 0.0469234 0.0452188 0.0430176 0.0385761 0.0473755 0.0531886 0.0534052 0.0495593 0.0453052 0.0521265 0.0483646
internal_weight=22116.5 15999.7 15764.3 14296 9293.98 1556.3 7737.68 1468.25 1170.2 298.057 5002.07 253.91 235.407 806.572 363.624 2366.76 49.167 2635.31 6116.8 4513.3 3580.14 2720.75 1352.62 1368.13 1603.5 933.159 400.59 210.082 859.394 314.726
internal_count=71981 66827 52474 36694 30235 14592 15643 15780 13715 2065 6459 1341 14353 12409 1306 1955 929 4504 5154 4784 4506 4194 3266 928 370 278 159 125 312 164
cat_boundaries=0 1
cat_threshold=74
is_linear=0
shrinkage=0.025


Tree=24
num_leaves=31
num_cat=6
split_feature=34 23 17 13 13 28 13 32 18 39 2 13 36 4 36 18 39 17 22 29 17 8 24 28 17 0 38 16 16 38
split_gain=648.719 924.452 612.489 806.636 559.555 489.266 570.501 460.009 310.361 290.24 320.386 284.06 259.727 243.976 252.787 209.243 200.697 109.319 84.0651 132.899 242.043 62.9327 139.048 56.2994 34.541 25.5492 40.3546 18.3873 9.0306 11.9117
threshold=2.5000000000000004 8.5000000000000018 10029.500000000002 0 1 1.5000000000000002 2 1.0000000180025095e-35 3 13.074861111111101 2.5000000000000004 4 6699.5000000000009 1.2424110963553201 16618.000000000004 5 8.4451388888888932 25205.000000000004 1.5000000000000002 2.5000000000000004 22992.500000000004 1.5000000000000002 7.5000000000000009 15.500000000000002 14416.500000000002 2119.5000000000005 40346.000000000007 27662.500000000004 11836.000000000002 60349.500000000007
decision_type=2 2 2 9 9 2 9 2 9 2 2 9 2 2 2 9 2 2 2 2 2 2 2 2 2 2 2 2 2 2
left_child=1 2 4 9 7 6 -6 8 -1 15 -11 17 -7 16 -15 -4 -5 -3 19 20 21 22 -2 -23 -20 26 -26 -21 -27 -30
right_child=18 11 3 13 5 12 -8 -9 -10 10 -12 -13 -14 14 -16 -17 -18 -19 24 27 -22 23 -24 -25 25 28 -28 -29 29 -31
leaf_value=-0.014542390823824001 0.038073805481910056 -0.023037491965118138 -0.020451475191142043 0.035737946207616854 0.049298357703483661 0.053285266719205394 0.033678611906259516 -0.029155781010124615 0.033313656390298034 0.010710381346245607 0.050655385495085109 -0.024319649119030218 0.041680974057822617 -0.028992745046774154 0.072917150421955831 0.055714455607552317 -0.015882127184119379 0.074901312791898961 0.049108793240430909 0.048498504753341852 -0.029086617685466987 0.047500767719206916 -0.027721208970405697 0.020665306917226019 0.050917577335223743 0.055976039438258386 0.078158735390956038 0.061619774179635801 0.027830826805737532 0.050443026204839148
leaf_weight=97.921133927069604 944.89699690230191 8.6408140175044519 23.62457360047847 52.526726667769253 2050.133851015009 2356.6403227560222 6800.2913074716926 109.55548523552716 531.61027832236141 365.27254430297762 190.95302566885948 192.47052846755832 2543.8019676916301 21.618647798895836 46.771353092975914 392.25299466960132 390.68445368297398 30.542241715826094 1027.7068790271878 2543.3889009458944 30.31209678016603 890.87551545351744 19.790629415772855 54.347477843984962 71.664040928706527 307.80646824464202 89.731982099823654 83.812950257211924 24.438991801813245 73.191982286050916
leaf_count=620 1611 451 352 715 2785 1748 23433 2069 1990 4104 403 13754 4049 313 121 1866 7906 148 513 967 527 671 474 110 29 52 53 23 46 78
internal_value=0.0400936 0.0374605 0.0381796 0.0228513 0.0397473 0.0408891 0.037396 0.0176833 0.0261523 0.0360163 0.0244943 -0.0120689 0.0472718 -0.00282773 0.040713 0.0521889 -0.00969212 0.0426031 0.0470109 0.0452378 0.0401991 0.0413146 0.0366941 0.0459839 0.0520568 0.0573013 0.0664664 0.0489413 0.0534922 0.0451476
internal_weight=22367.3 16205.3 15973.7 1483.7 14490 13750.9 8850.43 739.087 629.531 972.103 556.226 231.654 4900.44 511.601 68.39 415.878 443.211 39.1831 6161.96 4567.42 1940.22 1909.91 964.688 945.223 1594.54 566.833 161.396 2627.2 405.437 97.631
internal_count=71981 66827 52474 15780 36694 32015 26218 4679 2610 6725 4507 14353 5797 9055 434 2218 8621 599 5154 4383 3393 2866 2085 781 771 258 82 990 176 124
cat_boundaries=0 1 2 3 4 5 6
cat_threshold=78930054 17540 50344018 66 75497472 1
is_linear=0
shrinkage=0.025


Tree=25
num_leaves=31
num_cat=8
split_feature=28 23 13 11 24 6 13 11 11 39 18 13 13 10 10 17 39 17 17 13 34 10 12 10 23 12 13 36 13 12
split_gain=649.283 701.759 787.24 479.066 464.056 386.026 819.885 619.222 476.33 380.532 350.425 791.976 349.485 324.522 293.691 270.095 258.031 245.836 292.563 244.631 186.683 173.035 171.188 169.148 142.627 250.229 100.166 195.661 94.3939 83.9075
threshold=1.0000000180025095e-35 1.5000000000000002 0 7.9934210526315814 1.0000000180025095e-35 1.5000000000000002 1 38.032258064516157 8.5086206896551762 8.6470833333333328 2 3 4 21.500000000000004 20.500000000000004 3832.0000000000005 17.755138888888904 16142.500000000002 15977.500000000002 5 2.5000000000000004 52.500000000000007 6.8397435897435912 25.500000000000004 5.5000000000000009 25.788888888888902 6 31259.000000000004 7 12.861904761904801
decision_type=2 2 9 2 2 2 9 2 2 2 9 9 9 2 2 2 2 2 2 9 2 2 2 2 2 2 9 2 9 2
left_child=1 3 17 -1 24 6 13 8 -8 15 11 -5 14 29 -12 -4 -13 18 19 -3 -9 -15 -7 -14 28 -26 27 -24 -2 -6
right_child=4 2 9 10 5 22 7 20 -10 -11 12 16 23 21 -16 -17 -18 -19 -20 -21 -22 -23 26 -25 25 -27 -28 -29 -30 -31
leaf_value=-0.027013147176837612 0.03630829238942803 0.0031065259650795468 0.070118817546419507 -0.030926254992491339 0.015053660810732561 -0.031368806786183721 0.036269970934851889 -0.029428289535574016 -0.020260467341082181 -0.026813971071787582 0.049491535236541345 0.039223915580971602 0.046683344694783982 0.033051962147422988 0.020516073382939343 -0.025683319859021309 0.0047381541460233623 -0.02564043586807976 0.13546486945016142 0.053281537826231296 0.044436321147494184 -0.027749607590195687 -0.037539960719786235 0.037520599854054988 -0.028379503990839203 0.050837858541454978 0.043954724380237793 0.03831593157267385 0.047097675500768738 0.056901724486441776
leaf_weight=75.312373482622206 995.98392315208912 100.56702824262902 48.621354524977505 147.78171133622527 32.8034388711676 18.71308003179729 119.00128689594567 22.612482401542366 415.59457367518917 316.05298907542601 272.70442743971944 589.54001684300601 2119.5494040492922 1206.7337040272541 1110.1029328070581 28.508133167866617 176.63436122052372 33.793376961257309 19.894805304706097 192.70789398718625 254.9949710322544 29.218680430669338 30.580653709359467 3239.8309545144439 44.161157050170004 54.73690970800817 2755.6787190847099 64.172748654149473 7546.3120734933764 534.0725040556863
leaf_count=1316 1376 2427 133 986 334 185 1685 190 11814 11253 339 1384 2973 7173 4791 1022 793 1348 12 1057 260 651 187 7637 810 54 2980 102 5921 788
internal_value=0.0386902 0.0332053 0.00992912 0.0354317 0.041977 0.0362672 0.0292924 0.00800549 -0.00762787 -0.0143003 0.0360498 0.0206436 0.0380474 0.038613 0.0260754 0.0348015 0.0308907 0.0367115 0.0446764 0.0380697 0.0383267 0.0315913 0.0426109 0.0410762 0.0455958 0.0155097 0.0431082 0.012379 0.045942 0.0545153
internal_weight=22597 8471.6 740.146 7731.46 14125.4 5484.18 2615.03 812.203 534.596 393.182 7656.14 913.956 6742.19 1802.83 1382.81 77.1295 766.174 346.963 313.17 293.275 277.607 1235.95 2869.15 5359.38 8641.19 98.8981 2850.43 94.7534 8542.3 566.876
internal_count=71981 37471 17252 20219 34510 26349 22895 13949 13499 12408 18903 3163 15740 8946 5130 1155 2177 4844 3496 3484 450 7824 3454 10610 8161 864 3269 289 7297 1122
cat_boundaries=0 1 2 3 4 5 6 7 8
cat_threshold=44109979 115085467 64 23344832 4277929 8388744 8659010 2643078
is_linear=0
shrinkage=0.025


Tree=26
num_leaves=31
num_cat=3
split_feature=34 38 12 13 24 36 10 32 19 6 19 20 10 13 10 12 33 13 39 17 17 39 21 25 20 17 17 36 39 39
split_gain=654.618 770.681 730.567 591.053 390.13 380.249 374.157 366.901 404.658 358.56 342.171 304.813 345.296 460.346 278.119 273.9 244.336 196.258 187.255 177.403 118.127 97.4759 82.1548 110.853 294.706 81.8602 111.316 80.732 78.3743 72.0187
threshold=2.5000000000000004 28372.500000000004 22.775000000000002 0 1.0000000180025095e-35 579.00000000000011 43.500000000000007 1.0000000180025095e-35 0.64583333333333359 1.5000000000000002 0.95454545454545459 1.5000000000000002 26.500000000000004 1 77.500000000000014 15.219047619047602 1.0000000180025095e-35 2 21.538888888888902 9291.0000000000018 9066.0000000000018 23.414861111111104 1.5000000000000002 3.5000000000000004 2.5000000000000004 7080.5000000000009 8157.0000000000009 8958.0000000000018 10.413194444444452 10.413194444444452
decision_type=2 2 2 9 2 2 2 2 2 2 2 2 2 9 2 2 2 9 2 2 2 2 2 2 2 2 2 2 2 2
left_child=1 3 7 4 6 -4 16 17 18 14 -8 12 15 -14 -6 -5 -1 29 -9 -11 21 -7 23 -2 -25 -13 -27 -22 -10 -3
right_child=22 2 5 11 9 20 10 8 28 19 -12 25 13 -15 -16 -17 -18 -19 -20 -21 27 -23 -24 24 -26 26 -28 -29 -30 -31
leaf_value=0.039938116240526227 0.043148841448722393 0.079233855646302101 -0.027250911532939501 0.043928923400571473 0.0010586208347061136 -0.029689753230220717 0.0056445311110771166 -0.026914244349111539 0.077307859192358552 0.039514668045931664 0.055055146548111278 0.053794241280078661 0.027494959022869775 0.043660595299268495 0.12718146870552099 0.0095191979599244299 0.022677672331323326 -0.020313738707229832 0.017033593398155144 -0.031003119376228211 0.082476417816144953 0.04984165661761697 0.048887065922331052 -0.033318285165148474 0.044306789248925796 -0.032449937726091907 0.041070549380050503 0.04878746659847185 0.018369859342491999 0.033640505886919476
leaf_weight=2213.0205048248172 4279.0739446184598 44.480377219617367 43.951810422353446 4481.7561213104054 631.22364416951314 19.4641207261011 501.99656200502068 383.31965849548578 29.895418236032128 325.08168268483132 105.23214762657881 1059.3592819422483 3334.8266447726637 1837.8240212351084 10.121512265875934 150.24577886145562 674.37745868507773 28.972129297442734 71.156138680875301 23.1722078230232 58.487645308487117 17.208006165921688 1806.0306362044066 43.357644899282604 97.86488374043256 12.966519726440309 206.073511836119 233.1993916882202 27.683348774909973 46.805185889825225
leaf_count=3646 3813 32 1115 5887 11783 286 2996 17737 19 520 87 446 10499 3307 12 749 3281 652 1941 189 172 3 780 391 170 83 309 815 114 147
internal_value=0.0373867 0.0347832 0.0135392 0.0361531 0.0281764 0.041272 0.0321645 -0.00282552 -0.0120684 0.0143568 0.0142879 0.0393165 0.0378439 0.0333839 0.00324784 0.0428156 0.0359169 0.0362846 -0.0200057 0.03474 0.0505065 0.00789556 0.0443088 0.0424271 0.0203903 0.0508775 0.0365793 0.0558099 0.049811 0.0509776
internal_weight=22798.2 16571.9 1004.62 15567.3 4484.23 372.311 3494.63 632.312 512.055 989.599 607.229 11083.1 9804.65 5172.65 641.345 4632 2887.4 120.258 454.476 348.254 328.359 36.6721 6226.33 4420.3 141.223 1278.4 219.04 291.687 57.5788 91.2856
internal_count=71981 66827 23033 43794 22514 2391 10010 20642 19811 12504 3083 21280 20442 13806 11795 6636 6927 831 19678 709 1276 289 5154 4374 561 838 392 987 133 179
cat_boundaries=0 1 2 3
cat_threshold=8569988 74715689 68161536
is_linear=0
shrinkage=0.025


Tree=27
num_leaves=31
num_cat=8
split_feature=28 23 13 24 39 34 13 40 39 18 13 13 17 39 13 17 17 13 34 17 38 16 9 12 39 24 23 12 39 13
split_gain=646.692 616.75 719.285 433.939 360.086 337.013 569.488 422.359 395.713 331.982 735.258 324.927 242.208 240.302 298.29 216.817 237.501 214.733 208.116 255.329 197.609 433.271 174.519 172.973 167.516 146.609 127.311 228.63 125.083 95.799
threshold=1.0000000180025095e-35 1.5000000000000002 0 1.0000000180025095e-35 8.6470833333333328 2.5000000000000004 1 1.5000000000000002 0.28236111111111156 2 3 4 3832.0000000000005 19.261805555555551 5 16142.500000000002 15977.500000000002 6 1.5000000000000002 1841.5000000000002 12595.500000000002 7380.5000000000009 2.5000000000000004 8.9588709677419356 7.6901388888888915 1.5000000000000002 5.5000000000000009 25.788888888888902 15.443888888888901 7
decision_type=2 2 9 2 2 2 9 2 2 9 9 9 2 2 9 2 2 9 2 2 2 2 2 2 2 2 2 2 2 9
left_child=1 9 15 26 12 6 7 8 -5 10 -1 18 -4 24 -15 16 17 -3 19 -11 -8 -22 23 -13 -12 -20 29 -28 -9 -2
right_child=3 2 4 5 -6 -7 20 28 -10 11 13 22 -14 14 -16 -17 -18 -19 25 -21 21 -23 -24 -25 -26 -27 27 -29 -30 -31
leaf_value=-0.030886296029778666 0.031997674971734315 0.0025191843494921534 0.064805891887750475 0.10228687174864132 -0.026834670938972755 0.040734201241790648 0.042930454838080064 0.055832427230512655 0.0032948515425667412 0.022923382668802214 0.063299955051493426 -0.026347597457381397 -0.025679464344732124 0.048024492343377023 -0.02961711126283469 -0.025612715590752629 0.11885770571846266 0.048912479066277242 0.046788971258596067 -0.014814217785554635 -0.017774516176486288 0.034615282411109685 0.057331417966004397 0.036948062277406157 0.028560312733518323 -0.02937166394131023 -0.028360488547316542 0.047585518764407253 0.0069598896565339075 0.04415675204067962
leaf_weight=151.52102356590331 722.31717433221638 101.71449135709554 50.783977352082729 24.999891776591539 311.61794025218114 2516.213748161681 1198.9003706071526 162.4257251759991 868.87811185838655 1016.5874349214137 102.66949261538684 26.415820739232004 28.020860087592155 35.259260158985853 82.864652965217829 32.805803642608225 22.064902261830866 201.84944844990969 274.85068173892796 125.15025047585368 116.16214017942548 632.17681719688699 270.44362945854664 5245.4548015613109 574.49464547261596 16.065014475956559 43.099561421200633 55.657246313989162 41.465855546295643 7926.2211604304612
leaf_count=1053 1101 2427 133 66 11253 3071 1632 367 14885 3328 154 456 1022 64 558 1348 12 1057 394 1519 1266 4591 49 10897 1570 177 810 54 471 6196
internal_value=0.036162 0.0307632 0.00905798 0.039431 -0.0143946 0.0339508 0.0283331 0.0134862 0.00617745 0.0328133 0.0181878 0.0347195 0.0326818 0.0278345 -0.00466676 0.0340332 0.0411519 0.0351238 0.0234549 0.0187753 0.0364344 0.0264668 0.0375787 0.0366255 0.0339167 0.0424884 0.0429106 0.014464 0.0459878 0.0432334
internal_weight=22979.2 8670.63 748.857 14308.5 390.423 5561.22 3045.01 1097.77 893.878 7921.78 946.809 6974.97 78.8048 795.288 118.124 358.435 325.629 303.564 1432.65 1141.74 1947.24 748.339 5542.31 5271.87 677.164 290.916 8747.3 98.7568 203.892 8648.54
internal_count=71981 37471 17252 34510 12408 26349 23278 15789 14951 20219 3399 16820 1155 2346 622 4844 3496 3484 5418 4847 7489 5857 11402 11353 1724 571 8161 864 838 7297
cat_boundaries=0 1 2 3 4 5 6 7 8
cat_threshold=44109979 25552834 64 23344832 4277929 8388616 8388744 2622598
is_linear=0
shrinkage=0.025


Tree=28
num_leaves=31
num_cat=6
split_feature=34 23 28 17 13 30 28 13 16 13 16 10 13 17 13 17 13 0 21 23 4 0 16 25 19 16 24 10 38 25
split_gain=647.582 732.985 559.525 589.629 575.269 524.454 591.095 466.956 348.811 331.939 367.719 324.001 268.673 192.461 149.382 279.099 139.619 135.441 80.2853 123.718 241.071 129.605 114.587 63.1275 127.143 47.8259 34.7402 47.1525 13.5398 13.5118
threshold=2.5000000000000004 9.5000000000000018 1.0000000180025095e-35 9449.0000000000018 0 1.0000000180025095e-35 2.5000000000000004 1 9382.5000000000018 2 11586.000000000002 59.500000000000007 3 23297.500000000004 4 3246.0000000000005 5 22117.500000000004 1.5000000000000002 2.5000000000000004 0.092233389743172814 80353.500000000015 17001.000000000004 3.5000000000000004 0.36474501108647456 25452.500000000004 1.0000000180025095e-35 28.500000000000004 37539.500000000007 1.0000000180025095e-35
decision_type=2 2 2 2 9 2 2 9 2 9 2 2 9 2 9 2 9 2 2 2 2 2 2 2 2 2 2 2 2 2
left_child=1 2 3 4 8 14 7 -7 -1 10 -5 -6 -8 -11 15 -4 25 -16 19 23 -21 22 -22 26 -25 -3 28 -28 -2 -20
right_child=18 16 5 9 11 6 12 -9 -10 13 -12 -13 -14 -15 17 -17 -18 -19 29 20 21 -23 -24 24 -26 -27 27 -29 -30 -31
